{
  "fitness": 0,
  "layer1": {
    "gradients": {
      "data": [
        [0],
        [0],
        [0],
        [0],
        [0],
        [0],
        [0],
        [0]
      ],
      "rows": 8,
      "cols": 1
    },
    "bias": {
      "data": [
        [-0.0066841887310147285],
        [-0.059008076786994934],
        [-0.06856240332126617],
        [0.19598260521888733],
        [0.44791141152381897],
        [0.21143823862075806],
        [-0.36236459016799927],
        [-0.22659145295619965]
      ],
      "rows": 8,
      "cols": 1
    },
    "weights": {
      "data": [
        [
          0.028935372829437256,
          -0.030663378536701202,
          -0.4931119680404663,
          0.05095493793487549,
          -0.21189436316490173
        ],
        [
          -0.3192060589790344,
          -0.3134099543094635,
          -0.19465428590774536,
          -0.30763062834739685,
          -0.39373496174812317
        ],
        [
          -0.004858606494963169,
          0.22108931839466095,
          -0.14953894913196564,
          0.12894296646118164,
          0.2816118896007538
        ],
        [
          0.2359219193458557,
          0.4591115713119507,
          0.2944652736186981,
          -0.0418190136551857,
          -0.17843692004680634
        ],
        [
          -0.05075099319219589,
          -0.2302825003862381,
          0.11909003555774689,
          -0.13730743527412415,
          -0.3386824131011963
        ],
        [
          -0.01200619712471962,
          0.03584613651037216,
          -0.7524328827857971,
          -0.2855886220932007,
          0.09060804545879364
        ],
        [
          -0.6180814504623413,
          0.410461962223053,
          -0.25663846731185913,
          -0.033102408051490784,
          0.1528799831867218
        ],
        [
          0.059842001646757126,
          -0.12052447348833084,
          -0.1369125097990036,
          0.2774684727191925,
          0.1651347279548645
        ]
      ],
      "rows": 8,
      "cols": 5
    }
  },
  "layer2": {
    "gradients": {
      "data": [
        [0],
        [0]
      ],
      "rows": 2,
      "cols": 1
    },
    "bias": {
      "data": [
        [-0.32281121611595154],
        [-0.332888126373291]
      ],
      "rows": 2,
      "cols": 1
    },
    "weights": {
      "data": [
        [
          0.35590869188308716,
          -0.4685787260532379,
          0.13215431571006775,
          -0.5010716319084167,
          0.6113709807395935,
          -0.4181269407272339,
          0.6047998070716858,
          0.2802217900753021
        ],
        [
          0.2385711520910263,
          0.1040443405508995,
          0.34105807542800903,
          0.6198316216468811,
          -0.10456440597772598,
          0.06283692270517349,
          0.7640892863273621,
          -0.6022918820381165
        ]
      ],
      "rows": 2,
      "cols": 8
    }
  },
  "epochs": 1
}