{
  "fitness": 0,
  "layer1": {
    "gradients": {
      "data": [
        [0],
        [0],
        [0],
        [0],
        [0],
        [0],
        [0],
        [0]
      ],
      "rows": 8,
      "cols": 1
    },
    "bias": {
      "data": [
        [0.25820913910865784],
        [-0.21824228763580322],
        [-0.31239014863967896],
        [0.05528084933757782],
        [-0.19352732598781586],
        [0.6663423180580139],
        [0.13478301465511322],
        [0.2535114884376526]
      ],
      "rows": 8,
      "cols": 1
    },
    "weights": {
      "data": [
        [
          0.18771761655807495,
          -0.42739546298980713,
          -0.14143061637878418,
          0.4804563522338867,
          -0.18577325344085693
        ],
        [
          -0.015469835139811039,
          -0.029227517545223236,
          0.4260016679763794,
          -0.43050697445869446,
          0.3856242895126343
        ],
        [
          -0.125563845038414,
          -0.28052395582199097,
          0.24471688270568848,
          -0.19733349978923798,
          0.6170844435691833
        ],
        [
          0.3853933811187744,
          0.17809055745601654,
          -0.05946069583296776,
          -0.04680119454860687,
          -0.533456027507782
        ],
        [
          0.4701724946498871,
          -0.4033697843551636,
          0.08158708363771439,
          0.4153446853160858,
          -0.30328068137168884
        ],
        [
          -0.10693732649087906,
          -0.9277952313423157,
          -0.07431431114673615,
          0.34653446078300476,
          -0.4929311275482178
        ],
        [
          0.10346945375204086,
          -0.6938257217407227,
          -0.108256496489048,
          -0.5240249633789062,
          -0.0856366977095604
        ],
        [
          0.03458625078201294,
          0.0739436149597168,
          0.08415459096431732,
          -0.21473446488380432,
          -0.45486751198768616
        ]
      ],
      "rows": 8,
      "cols": 5
    }
  },
  "layer2": {
    "gradients": {
      "data": [
        [0],
        [0]
      ],
      "rows": 2,
      "cols": 1
    },
    "bias": {
      "data": [
        [0.5414296388626099],
        [0.6336244940757751]
      ],
      "rows": 2,
      "cols": 1
    },
    "weights": {
      "data": [
        [
          0.4570908546447754,
          0.776332437992096,
          -0.1578022986650467,
          -0.007862329483032227,
          0.3228684067726135,
          0.4792158901691437,
          -0.9095532894134521,
          -0.7308131456375122
        ],
        [
          0.023694828152656555,
          0.3976963460445404,
          -0.8388859033584595,
          0.3618835210800171,
          -0.17463254928588867,
          -0.4481358826160431,
          -0.8050294518470764,
          0.1563776135444641
        ]
      ],
      "rows": 2,
      "cols": 8
    }
  },
  "epochs": 1
}