[
  {
    "biases": {
      "data": [
        [-0.8626479506492615],
        [0.9210716485977173],
        [0.9866378307342529],
        [1.0078109502792358],
        [-1.0133086442947388],
        [1.0979313850402832],
        [-0.8935412168502808],
        [0.8993542790412903],
        [-0.9705949425697327],
        [0.9569706320762634],
        [-1.0171685218811035],
        [-1.0663765668869019],
        [1.1277410984039307],
        [1.047555685043335],
        [1.1059097051620483],
        [0.906164824962616],
        [1.1609834432601929],
        [-1.0613261461257935],
        [1.0004994869232178],
        [0.9614551663398743],
        [-0.9230602979660034],
        [-0.9469611644744873],
        [-0.9842421412467957],
        [1.0172395706176758],
        [-0.9912739992141724],
        [0.9711670875549316],
        [1.0207151174545288],
        [-0.9657008051872253],
        [0.761131227016449],
        [-0.9602375030517578],
        [-0.908603310585022],
        [1.0675077438354492],
        [1.1137583255767822],
        [0.9911169409751892],
        [1.055174708366394],
        [1.244315505027771],
        [-0.8602840304374695],
        [0.9611093401908875],
        [1.0180087089538574],
        [-1.019006609916687],
        [-0.9280800819396973],
        [-0.9500049352645874],
        [-0.9391720294952393],
        [1.080113410949707],
        [1.1234254837036133],
        [-0.9730128645896912],
        [-0.8913853168487549],
        [-0.8466734290122986],
        [-0.9356404542922974],
        [-0.9191567301750183],
        [-1.029889464378357],
        [1.1735681295394897],
        [0.9702209234237671],
        [-1.0253360271453857],
        [0.9906941652297974],
        [-0.9260930418968201],
        [1.127096176147461],
        [-1.1291840076446533],
        [1.012708067893982],
        [-1.0016775131225586],
        [-0.9338706731796265],
        [-1.092976450920105],
        [-0.9323630928993225],
        [-0.9803051352500916]
      ],
      "rows": 64,
      "cols": 1
    },
    "bias": 1,
    "weights": {
      "data": [
        [
          0.628318727016449,
          -0.49811670184135437
        ],
        [
          0.24620141088962555,
          -1.1096447706222534
        ],
        [
          0.16537122428417206,
          0.7532178163528442
        ],
        [
          0.25272151827812195,
          1.0617958307266235
        ],
        [
          1.7126878499984741,
          0.8234625458717346
        ],
        [
          0.18344146013259888,
          0.06288197636604309
        ],
        [
          1.343376874923706,
          -1.3196830749511719
        ],
        [
          1.2017377614974976,
          0.9439480304718018
        ],
        [
          -1.0556520223617554,
          -1.3869346380233765
        ],
        [
          0.06630751490592957,
          -2.110586404800415
        ],
        [
          0.8079654574394226,
          -0.2487661987543106
        ],
        [
          -0.9601214528083801,
          1.2762001752853394
        ],
        [
          0.2074144035577774,
          1.7009987831115723
        ],
        [
          1.5998318195343018,
          -0.2020883560180664
        ],
        [
          0.4627329111099243,
          -0.6242741942405701
        ],
        [
          -1.7713526487350464,
          0.060216035693883896
        ],
        [
          1.2320263385772705,
          1.5490795373916626
        ],
        [
          -0.07538080215454102,
          1.7093888521194458
        ],
        [
          -0.9332637190818787,
          0.3672579824924469
        ],
        [
          -1.5636589527130127,
          -0.7995845675468445
        ],
        [
          1.3855650424957275,
          -1.351619005203247
        ],
        [
          -0.2766413986682892,
          0.0030333655886352062
        ],
        [
          -1.0460618734359741,
          1.2095229625701904
        ],
        [
          0.3024720847606659,
          0.8058321475982666
        ],
        [
          -0.5220702290534973,
          0.5228826999664307
        ],
        [
          -1.1192251443862915,
          -0.9457519054412842
        ],
        [
          1.085256576538086,
          0.4009357690811157
        ],
        [
          1.1970466375350952,
          1.2656517028808594
        ],
        [
          0.34396928548812866,
          1.2354215383529663
        ],
        [
          -0.3156811594963074,
          -0.4527444839477539
        ],
        [
          1.3419208526611328,
          1.6907587051391602
        ],
        [
          0.5630056262016296,
          -1.2930307388305664
        ],
        [
          -0.7484921216964722,
          -0.883782148361206
        ],
        [
          -0.5152290463447571,
          -2.179492235183716
        ],
        [
          0.7269378304481506,
          -0.6384437680244446
        ],
        [
          -1.728686809539795,
          -0.07332584261894226
        ],
        [
          -1.4293993711471558,
          -0.8418850898742676
        ],
        [
          -0.5914311408996582,
          0.417744904756546
        ],
        [
          0.3381524384021759,
          -0.21545913815498352
        ],
        [
          0.1163950115442276,
          -0.7232708930969238
        ],
        [
          -0.4376809000968933,
          -1.1392207145690918
        ],
        [
          0.8432711958885193,
          -0.9412575960159302
        ],
        [
          1.0406798124313354,
          0.6235982775688171
        ],
        [
          0.8409522771835327,
          -1.6784645318984985
        ],
        [
          -1.8029686212539673,
          -0.3663739264011383
        ],
        [
          -1.3940767049789429,
          0.6633633971214294
        ],
        [
          0.1235031932592392,
          0.13860593736171722
        ],
        [
          -1.9816734790802002,
          1.7129331827163696
        ],
        [
          -0.3363814353942871,
          -1.0383095741271973
        ],
        [
          1.5264058113098145,
          0.9131413698196411
        ],
        [
          0.4350147843360901,
          -0.4551031291484833
        ],
        [
          -1.297884225845337,
          1.0219511985778809
        ],
        [
          -0.03436488285660744,
          -0.9667837023735046
        ],
        [
          1.255678415298462,
          0.034055739641189575
        ],
        [
          1.1695579290390015,
          0.7016509175300598
        ],
        [
          -1.3474361896514893,
          0.3888185918331146
        ],
        [
          -0.8240801095962524,
          -0.2517966032028198
        ],
        [
          1.007200837135315,
          0.6230595111846924
        ],
        [
          0.9510356187820435,
          0.5682326555252075
        ],
        [
          -1.430209994316101,
          1.1802518367767334
        ],
        [
          -1.2374491691589355,
          0.06351213902235031
        ],
        [
          -0.2912590801715851,
          -1.345895528793335
        ],
        [
          0.18208877742290497,
          -1.144586205482483
        ],
        [
          0.18156886100769043,
          0.73287034034729
        ]
      ],
      "rows": 64,
      "cols": 2
    }
  },
  {
    "biases": {
      "data": [
        [0.9568092226982117],
        [1.0740628242492676],
        [0.9968640804290771],
        [0.9938727617263794],
        [1.0418999195098877],
        [-1.041731357574463],
        [-1.0469287633895874],
        [-0.9839985966682434],
        [-1.0572242736816406],
        [0.9707714915275574],
        [-0.9855324029922485],
        [-0.9805815815925598],
        [-1.0577950477600098],
        [-0.9956189393997192],
        [0.9614654779434204],
        [-1.1132922172546387],
        [0.9170010685920715],
        [-0.986819326877594],
        [-1.0469406843185425],
        [-0.9808323383331299],
        [-0.9860156178474426],
        [-1.0469717979431152],
        [-1.0225828886032104],
        [0.9301123023033142],
        [0.9897077679634094],
        [-0.8963518142700195],
        [0.9994421005249023],
        [0.905821681022644],
        [1.062434434890747],
        [0.9976488351821899],
        [0.9974396228790283],
        [-0.9808475375175476],
        [1.0167934894561768],
        [-0.9789152145385742],
        [1.065677523612976],
        [-0.8318232893943787],
        [0.9672877788543701],
        [-1.023878574371338],
        [1.0010815858840942],
        [0.9952374696731567],
        [0.9959819316864014],
        [0.9873366951942444],
        [-1.0469390153884888],
        [1.1178234815597534],
        [1.0868934392929077],
        [-1.0469636917114258],
        [1.00005042552948],
        [-1.0182842016220093],
        [0.997423529624939],
        [1.0631213188171387],
        [0.9970858097076416],
        [-0.9753419756889343],
        [-0.9827054142951965],
        [-0.8481118083000183],
        [0.971017062664032],
        [-1.0097848176956177],
        [0.9957492351531982],
        [-1.047101616859436],
        [-0.9893428683280945],
        [-0.9799491763114929],
        [0.9046711921691895],
        [-0.9830595850944519],
        [0.9964486956596375],
        [-0.9827696084976196]
      ],
      "rows": 64,
      "cols": 1
    },
    "bias": 1,
    "weights": {
      "data": [
        [
          -1.1758623123168945,
          1.0656671524047852,
          -0.1068640798330307,
          -0.7157732844352722,
          -0.4832478165626526,
          1.546129584312439,
          0.4215894341468811,
          0.6340406537055969,
          1.3331797122955322,
          -0.7417961359024048,
          1.3790497779846191,
          -0.005035716108977795,
          -0.595368504524231,
          1.6109490394592285,
          -0.3271048069000244,
          0.1298089474439621,
          -0.08512575924396515,
          -0.431498646736145,
          -1.8270034790039062,
          0.1393437534570694,
          2.1804521083831787,
          0.45933353900909424,
          -1.9773705005645752,
          -0.8510966897010803,
          0.549798309803009,
          1.1897317171096802,
          -0.6636192202568054,
          0.32307878136634827,
          0.47333645820617676,
          -0.4360653758049011,
          -1.0060265064239502,
          0.9762806296348572,
          -0.08866572380065918,
          -1.8423478603363037,
          -0.15860630571842194,
          -2.569831609725952,
          -1.2404824495315552,
          -1.7178727388381958,
          0.11636199057102203,
          1.619687557220459,
          -1.042190670967102,
          1.1018030643463135,
          -0.3185782730579376,
          -0.8950759172439575,
          -0.5973719954490662,
          -0.5295772552490234,
          -0.7806357145309448,
          0.5172075033187866,
          1.061567783355713,
          1.1572401523590088,
          -1.2135344743728638,
          -0.4870677888393402,
          1.2212803363800049,
          0.13549964129924774,
          1.5467290878295898,
          -0.5856247544288635,
          -1.7238867282867432,
          -2.053377866744995,
          -0.6322165131568909,
          0.18268980085849762,
          -1.5400649309158325,
          -0.2289096713066101,
          -1.4207733869552612,
          -1.8875882625579834
        ],
        [
          1.6740821599960327,
          0.5880886912345886,
          -1.2463364601135254,
          1.5313751697540283,
          0.4982810318470001,
          -0.29431799054145813,
          -1.0027239322662354,
          -0.10043008625507355,
          -0.7623903155326843,
          -0.9654645323753357,
          -1.719049334526062,
          -1.052291989326477,
          1.4656710624694824,
          0.6716564893722534,
          1.2386151552200317,
          -1.1698105335235596,
          1.225510835647583,
          0.024237683042883873,
          0.004806497134268284,
          -0.5809876918792725,
          -0.48344293236732483,
          1.4043999910354614,
          -0.04924245923757553,
          1.1939336061477661,
          1.05990731716156,
          -1.5044516324996948,
          0.4454489052295685,
          1.4843415021896362,
          1.3352391719818115,
          1.4796253442764282,
          1.6350369453430176,
          0.7021492719650269,
          1.0328134298324585,
          -0.7562222480773926,
          -0.588100016117096,
          1.4348112344741821,
          0.7261326909065247,
          -1.6093062162399292,
          0.881367564201355,
          1.4527992010116577,
          -1.06935715675354,
          -0.9992331266403198,
          0.1707092970609665,
          0.8745418190956116,
          -1.0016677379608154,
          1.325023889541626,
          -1.1157021522521973,
          -1.3101052045822144,
          1.3764692544937134,
          -0.7491829991340637,
          0.3346673548221588,
          -1.277036190032959,
          0.5989691615104675,
          0.1756564825773239,
          1.5277299880981445,
          0.5608323216438293,
          -1.1314984560012817,
          1.3050181865692139,
          -0.6822247505187988,
          1.461382269859314,
          1.4376797676086426,
          1.5337231159210205,
          1.068156361579895,
          0.5479344725608826
        ],
        [
          1.451184630393982,
          -1.1381969451904297,
          1.2382097244262695,
          0.4171592891216278,
          1.2361184358596802,
          -0.9825302362442017,
          0.30601856112480164,
          1.1412585973739624,
          -1.4009766578674316,
          1.1853879690170288,
          -0.5772169232368469,
          0.17572961747646332,
          -0.7712233662605286,
          0.7713999152183533,
          1.5882428884506226,
          0.6524747014045715,
          1.4263544082641602,
          -0.9700238704681396,
          0.01756260357797146,
          -0.7626022696495056,
          0.48260483145713806,
          0.0724235251545906,
          -0.24714219570159912,
          0.5433329343795776,
          -0.9317623972892761,
          1.4072316884994507,
          1.6683403253555298,
          0.6621888279914856,
          -1.4442641735076904,
          -0.018291935324668884,
          1.619755744934082,
          0.6197335124015808,
          -0.16460247337818146,
          -0.28767579793930054,
          0.544890284538269,
          -1.597346305847168,
          0.33610332012176514,
          0.6290053129196167,
          0.7865623235702515,
          1.2714754343032837,
          0.9534109234809875,
          1.3416075706481934,
          -0.05060398206114769,
          -1.0106452703475952,
          0.819243311882019,
          1.6081359386444092,
          1.5286574363708496,
          1.1437128782272339,
          -1.1980518102645874,
          -0.7645702958106995,
          0.3974572718143463,
          0.17906297743320465,
          1.1446881294250488,
          0.5727891325950623,
          -0.8905900716781616,
          -0.4058433771133423,
          0.16706785559654236,
          -1.2773257493972778,
          -1.7250012159347534,
          -0.990181028842926,
          0.8008829951286316,
          0.9241771697998047,
          0.09053691476583481,
          0.9965219497680664
        ],
        [
          -0.16648517549037933,
          0.9872448444366455,
          -0.9980943202972412,
          -0.5690232515335083,
          -0.01410962175577879,
          -1.2718939781188965,
          1.6771881580352783,
          0.7683347463607788,
          0.9564808011054993,
          1.2727466821670532,
          0.1389191448688507,
          -0.955924928188324,
          1.4755849838256836,
          -0.4919181764125824,
          -1.3430821895599365,
          0.7582257390022278,
          -0.5513848662376404,
          -1.5792372226715088,
          0.8893000483512878,
          1.0947591066360474,
          0.5388346314430237,
          0.9863029718399048,
          -0.28099867701530457,
          0.9671809077262878,
          1.0642589330673218,
          0.5771668553352356,
          1.1821595430374146,
          -0.8548243641853333,
          0.5945743322372437,
          0.12569934129714966,
          -1.4423284530639648,
          -1.6011170148849487,
          -0.3372701108455658,
          -1.2312545776367188,
          1.2298800945281982,
          0.17136992514133453,
          0.3912104666233063,
          -0.43438440561294556,
          1.0564188957214355,
          0.41923508048057556,
          1.5264681577682495,
          -1.0216529369354248,
          1.4237830638885498,
          -1.2217967510223389,
          0.2463035136461258,
          0.9570662975311279,
          -1.2683380842208862,
          0.6844317317008972,
          -0.6108812689781189,
          -1.5945854187011719,
          -1.0488297939300537,
          -0.3132353723049164,
          -0.12700732052326202,
          1.6523969173431396,
          1.1683398485183716,
          1.746527075767517,
          0.8659301996231079,
          0.4952271282672882,
          1.7580139636993408,
          -1.2055600881576538,
          0.9148757457733154,
          0.45988380908966064,
          -0.009431904181838036,
          0.6416040062904358
        ],
        [
          -0.06384087353944778,
          -0.5535737872123718,
          -0.7960776686668396,
          0.23990099132061005,
          0.10943499952554703,
          0.04634806886315346,
          -0.5461546778678894,
          -1.3725579977035522,
          -1.5704187154769897,
          -0.47220829129219055,
          -0.9436712265014648,
          0.024707112461328506,
          -1.1689445972442627,
          1.397515058517456,
          -0.27353665232658386,
          -0.7669087648391724,
          0.05521739646792412,
          -0.30724748969078064,
          -1.131752610206604,
          1.326686978340149,
          0.6988658308982849,
          0.2719394862651825,
          1.0993562936782837,
          0.33348846435546875,
          -0.8525295257568359,
          -0.9999942779541016,
          -0.7591474056243896,
          0.5581421852111816,
          0.8535315990447998,
          0.9037704467773438,
          -0.8609488606452942,
          -0.523617684841156,
          -0.5369389653205872,
          -1.0358219146728516,
          1.000425934791565,
          -1.154299259185791,
          -0.9477756023406982,
          0.6028702259063721,
          0.9527072906494141,
          0.1922253966331482,
          1.4476579427719116,
          0.1669979691505432,
          0.8152697086334229,
          -1.4075523614883423,
          -0.90838223695755,
          0.5789156556129456,
          1.7751718759536743,
          0.9033119678497314,
          0.05965185537934303,
          -0.7275128364562988,
          1.4386417865753174,
          1.0080105066299438,
          1.5648921728134155,
          -0.004742555320262909,
          -0.46683967113494873,
          -1.0088821649551392,
          -1.2954683303833008,
          1.1179804801940918,
          1.0292518138885498,
          0.1755918562412262,
          -1.4985857009887695,
          0.3849676549434662,
          -0.719396710395813,
          -0.1817459762096405
        ],
        [
          -1.485952615737915,
          0.2056102454662323,
          -1.665184736251831,
          1.1934854984283447,
          0.850525975227356,
          -1.4028418064117432,
          -1.5152636766433716,
          -0.14094257354736328,
          1.0115697383880615,
          0.604532778263092,
          0.9346080422401428,
          0.18435606360435486,
          0.14291568100452423,
          1.05503511428833,
          -0.27905866503715515,
          0.5530034303665161,
          -0.0361296646296978,
          1.97940194606781,
          -0.6166278123855591,
          1.1555713415145874,
          -1.2317577600479126,
          -1.3281513452529907,
          1.3587169647216797,
          0.5673695206642151,
          -0.9377833008766174,
          0.25082147121429443,
          0.41516348719596863,
          0.7892287373542786,
          1.193261742591858,
          1.802493929862976,
          0.5748430490493774,
          0.9231364130973816,
          1.380285620689392,
          0.2818683385848999,
          -1.2149910926818848,
          1.1603807210922241,
          1.2801647186279297,
          0.24063079059123993,
          0.2477394938468933,
          0.39005905389785767,
          0.8812375664710999,
          -0.9177209734916687,
          -0.41736075282096863,
          -0.4084535241127014,
          -0.6202952265739441,
          -1.2077836990356445,
          0.8346928358078003,
          -1.2515287399291992,
          -1.131579041481018,
          0.7408922910690308,
          -0.8485210537910461,
          -1.4247699975967407,
          0.04042494297027588,
          0.0032701909076422453,
          -1.4173321723937988,
          -1.0413724184036255,
          -0.14402644336223602,
          -0.046273909509181976,
          1.3174668550491333,
          -1.459271788597107,
          1.300477147102356,
          0.44844478368759155,
          0.17888927459716797,
          -1.2548514604568481
        ],
        [
          0.9862328171730042,
          1.2444746494293213,
          0.8998817801475525,
          -0.3250192403793335,
          0.9023984670639038,
          -1.4579088687896729,
          0.06552886962890625,
          -2.0863935947418213,
          -0.3383827209472656,
          -0.6793283820152283,
          1.316587209701538,
          -0.2688834071159363,
          0.9973930716514587,
          -1.0171589851379395,
          -1.1608368158340454,
          0.46136605739593506,
          -0.5716209411621094,
          1.1001893281936646,
          0.7330347895622253,
          -0.8515111804008484,
          -1.0987329483032227,
          0.8194582462310791,
          -1.5832064151763916,
          0.5129334926605225,
          -0.3922063410282135,
          -1.194771409034729,
          -1.153339147567749,
          -1.006761908531189,
          1.2599765062332153,
          0.10088958591222763,
          0.12433269619941711,
          1.4477839469909668,
          -0.5927429795265198,
          -0.6105013489723206,
          -1.3696333169937134,
          0.3685971796512604,
          -0.4516405165195465,
          -1.0221076011657715,
          -1.3748905658721924,
          0.14888933300971985,
          -1.2456117868423462,
          1.148735523223877,
          -0.06768295913934708,
          0.9203320145606995,
          -1.197371244430542,
          0.39305955171585083,
          -1.5846059322357178,
          -0.1562080681324005,
          -0.407635897397995,
          0.5261914730072021,
          -1.6783006191253662,
          1.1479690074920654,
          -0.06949197500944138,
          1.3830958604812622,
          0.09109975397586823,
          -1.0131882429122925,
          1.3178092241287231,
          1.0541757345199585,
          -0.08470013737678528,
          0.29268112778663635,
          -1.2972068786621094,
          -0.6115565896034241,
          -0.6009361147880554,
          1.5281093120574951
        ],
        [
          1.0581705570220947,
          1.4248384237289429,
          1.5558805465698242,
          -1.2843620777130127,
          -0.9418421387672424,
          -0.3885033130645752,
          -1.214893102645874,
          1.7057429552078247,
          -1.2233550548553467,
          -1.6578662395477295,
          0.5759883522987366,
          -1.5218342542648315,
          -0.2535664141178131,
          0.25916165113449097,
          0.03355789557099342,
          -1.694253921508789,
          0.4266725182533264,
          -0.5716156363487244,
          0.3267758786678314,
          0.795929491519928,
          -0.9176399111747742,
          0.7997683882713318,
          0.8912490606307983,
          0.2734234035015106,
          -0.7160086631774902,
          0.1888248771429062,
          -0.2713521420955658,
          -1.623921275138855,
          -0.8110514283180237,
          -0.6301681399345398,
          1.7497494220733643,
          0.10636689513921738,
          -0.3886367082595825,
          0.32688140869140625,
          2.008500337600708,
          0.23850242793560028,
          -0.19306787848472595,
          1.4742013216018677,
          -0.14256584644317627,
          -0.4524526000022888,
          -0.5096641778945923,
          -0.43862733244895935,
          -1.3576838970184326,
          0.9845193028450012,
          1.115006446838379,
          -1.567785620689392,
          -0.4259064495563507,
          -1.3745174407958984,
          0.11810702085494995,
          1.2613933086395264,
          -1.3696101903915405,
          1.1987040042877197,
          -0.4675450623035431,
          -0.8400819301605225,
          -1.3012818098068237,
          -0.4644661247730255,
          -0.9172749519348145,
          -0.1955188810825348,
          1.331758737564087,
          0.18461216986179352,
          -1.3139972686767578,
          -1.3868449926376343,
          -0.317091703414917,
          -0.3550064265727997
        ],
        [
          1.8178837299346924,
          -0.5159409642219543,
          1.5823391675949097,
          0.5389942526817322,
          -0.9569391012191772,
          -1.3629560470581055,
          -0.09654264152050018,
          0.45762306451797485,
          0.9275258779525757,
          0.5677259564399719,
          0.8090149164199829,
          1.7861469984054565,
          1.185927391052246,
          0.09469969570636749,
          0.25297239422798157,
          0.7291648983955383,
          -1.6275945901870728,
          0.8859655261039734,
          -0.45310863852500916,
          -1.1751008033752441,
          -0.6952481865882874,
          -1.6593000888824463,
          0.39508333802223206,
          -0.9663302898406982,
          0.7333630919456482,
          -1.154154658317566,
          -1.1487864255905151,
          -1.3037810325622559,
          -0.47466573119163513,
          -1.3442754745483398,
          1.3916010856628418,
          0.6406617760658264,
          0.5524268746376038,
          1.007749319076538,
          0.8221178650856018,
          1.3111391067504883,
          1.0657302141189575,
          -1.5326124429702759,
          -1.3904662132263184,
          -0.6885890364646912,
          1.458007574081421,
          -0.2620318531990051,
          -0.07569731771945953,
          0.8353168368339539,
          -1.1411545276641846,
          -1.1300175189971924,
          -0.04648034647107124,
          -0.06793524324893951,
          -0.7343518137931824,
          0.6924691200256348,
          -0.5301995277404785,
          -1.0622705221176147,
          -0.14891035854816437,
          -0.8907132744789124,
          1.4765617847442627,
          1.3302708864212036,
          -1.3237419128417969,
          -1.2186843156814575,
          0.45629602670669556,
          -0.725324809551239,
          0.40033891797065735,
          0.49943897128105164,
          -0.7350578308105469,
          0.9633429050445557
        ],
        [
          0.45748040080070496,
          1.2574262619018555,
          0.055021390318870544,
          -1.2045588493347168,
          -1.1124796867370605,
          -0.38105112314224243,
          0.5985164642333984,
          1.3362661600112915,
          1.2346479892730713,
          -0.6709707379341125,
          -1.5026466846466064,
          -1.1985739469528198,
          0.470946341753006,
          -1.0801761150360107,
          0.07386846840381622,
          0.0027999207377433777,
          0.3421787619590759,
          -0.23414364457130432,
          -0.4227873384952545,
          -0.6057255864143372,
          0.27837231755256653,
          0.6292943954467773,
          -2.014833927154541,
          1.6074414253234863,
          -1.1171281337738037,
          0.8946340680122375,
          -0.6324856281280518,
          -0.4000277817249298,
          -1.1866788864135742,
          -1.3005081415176392,
          -0.11184848099946976,
          -1.0551691055297852,
          -0.6120801568031311,
          0.18911410868167877,
          0.3515130579471588,
          -1.129621982574463,
          0.1552518755197525,
          0.9161031246185303,
          0.5043492913246155,
          0.2876152992248535,
          1.5246303081512451,
          0.4801151752471924,
          0.99605393409729,
          0.09866869449615479,
          1.5318938493728638,
          -0.07725244760513306,
          -0.12600113451480865,
          0.9119869470596313,
          -0.08607175946235657,
          0.312264621257782,
          -1.237777590751648,
          -1.5637913942337036,
          0.09998223185539246,
          -0.9529711604118347,
          -1.0399354696273804,
          -1.001035213470459,
          0.8233631253242493,
          0.3557913601398468,
          0.1611645668745041,
          -1.0011805295944214,
          -0.4748936593532562,
          -0.4368351399898529,
          1.005136251449585,
          -0.563080370426178
        ],
        [
          -0.21265806257724762,
          -1.4714415073394775,
          -1.4294497966766357,
          0.43820834159851074,
          0.9075827598571777,
          -0.227774977684021,
          0.011582869105041027,
          0.19416621327400208,
          -0.21329055726528168,
          -0.20005807280540466,
          -1.38719642162323,
          0.7625991106033325,
          1.0053980350494385,
          0.2204734832048416,
          0.8215690851211548,
          -0.4897139072418213,
          0.8949594497680664,
          0.2872355580329895,
          1.6806167364120483,
          -1.403633713722229,
          -0.12440868467092514,
          -0.45435285568237305,
          -1.4226014614105225,
          0.42705124616622925,
          0.0575980618596077,
          -0.5863356590270996,
          0.16359420120716095,
          0.9483550190925598,
          -1.0767830610275269,
          -0.384662389755249,
          0.9386667013168335,
          -0.503535807132721,
          1.671771764755249,
          0.21042653918266296,
          0.2134833037853241,
          0.1357690691947937,
          1.3722584247589111,
          -0.6056217551231384,
          0.6723451018333435,
          1.4017717838287354,
          1.3580135107040405,
          -0.160931795835495,
          -1.1431636810302734,
          -1.3158414363861084,
          1.1198270320892334,
          -0.8311480283737183,
          0.7997909784317017,
          -1.2401766777038574,
          0.3597504794597626,
          0.1374303549528122,
          -0.0020304720383137465,
          -0.14598101377487183,
          1.8685567378997803,
          0.4837641716003418,
          -0.293011337518692,
          0.7171775102615356,
          1.6739858388900757,
          1.4144399166107178,
          -0.13814249634742737,
          1.4915190935134888,
          -1.5617831945419312,
          -0.5859118103981018,
          -0.6916980743408203,
          -1.2311005592346191
        ],
        [
          -0.18556448817253113,
          -1.2079918384552002,
          -0.301708847284317,
          -1.4861201047897339,
          0.4364706873893738,
          0.22956548631191254,
          -1.4870364665985107,
          0.34989306330680847,
          -1.2152483463287354,
          1.1713507175445557,
          0.5672357678413391,
          -0.005208906251937151,
          -1.3477816581726074,
          1.695846676826477,
          0.5533232688903809,
          -0.4724716544151306,
          0.9580610990524292,
          -0.7899069786071777,
          -0.614788293838501,
          -0.6200377941131592,
          0.19605165719985962,
          -1.3748435974121094,
          1.0246104001998901,
          0.4660131633281708,
          -0.4367712736129761,
          0.06574782729148865,
          -0.9039074778556824,
          0.44629910588264465,
          0.07668901234865189,
          -0.29637211561203003,
          -0.8509006500244141,
          -1.1102101802825928,
          -0.0756140723824501,
          0.43392667174339294,
          -0.3535378873348236,
          -0.3666745126247406,
          -1.3498896360397339,
          -1.3273102045059204,
          0.7051070928573608,
          -1.3000482320785522,
          -1.543055772781372,
          -1.0762869119644165,
          0.26278141140937805,
          0.498555451631546,
          0.9556384682655334,
          1.1402039527893066,
          0.6480492353439331,
          -0.7934980988502502,
          0.3994123339653015,
          1.6749674081802368,
          -1.539905071258545,
          1.5649772882461548,
          1.228634238243103,
          0.38770201802253723,
          -1.4527229070663452,
          0.6035676002502441,
          -1.462283968925476,
          0.8543829917907715,
          -0.6875011324882507,
          -0.35465705394744873,
          1.2038146257400513,
          0.005995942745357752,
          0.8506700992584229,
          -0.5622455477714539
        ],
        [
          -0.9269249439239502,
          -0.20253804326057434,
          1.028762698173523,
          0.23518577218055725,
          -0.5574731230735779,
          -1.652095913887024,
          0.022699851542711258,
          -1.6881108283996582,
          -0.900728166103363,
          -0.17795713245868683,
          -0.4286658763885498,
          0.6279748678207397,
          -0.6928724050521851,
          -0.6134017109870911,
          0.8013591170310974,
          -1.3274667263031006,
          0.7108456492424011,
          -0.16384363174438477,
          1.7237848043441772,
          0.052192091941833496,
          0.168514221906662,
          -1.4961787462234497,
          1.09764564037323,
          0.5852631330490112,
          1.6590797901153564,
          0.8262981176376343,
          -1.4752365350723267,
          -0.05801882594823837,
          -0.221286341547966,
          0.5047174692153931,
          -0.6777418255805969,
          -0.7877740263938904,
          -0.07213916629552841,
          0.24360916018486023,
          -0.7660680413246155,
          1.691118836402893,
          1.4104188680648804,
          1.464798092842102,
          0.5857776403427124,
          -0.18163789808750153,
          -0.5744113922119141,
          -1.650691032409668,
          -0.21412625908851624,
          -2.152395248413086,
          0.7914665937423706,
          -0.5526025295257568,
          -1.488075613975525,
          -1.0454741716384888,
          -0.07740505784749985,
          -1.7272545099258423,
          1.122254490852356,
          1.65024995803833,
          -0.47626596689224243,
          1.556410551071167,
          0.6200469136238098,
          -1.0313080549240112,
          -0.41351255774497986,
          -0.07606677711009979,
          1.0542032718658447,
          0.9275522828102112,
          1.4719302654266357,
          1.3866509199142456,
          0.05368014797568321,
          1.209796667098999
        ],
        [
          -1.3406234979629517,
          0.9046666622161865,
          -1.0198993682861328,
          1.6390430927276611,
          -0.782772421836853,
          0.6754466891288757,
          1.8362809419631958,
          1.0309197902679443,
          -1.3347469568252563,
          0.4779975712299347,
          0.5616909265518188,
          -1.2470606565475464,
          -1.3795114755630493,
          -0.8444885611534119,
          -1.1091374158859253,
          1.2054529190063477,
          -0.5648691654205322,
          -2.1617915630340576,
          -0.33722826838493347,
          -0.619190514087677,
          2.264094114303589,
          -0.8940591216087341,
          -0.6724132895469666,
          -0.584958553314209,
          1.5477832555770874,
          -1.5280035734176636,
          0.25680482387542725,
          1.5882543325424194,
          1.7079484462738037,
          0.1311405748128891,
          -0.593206524848938,
          -1.0928999185562134,
          0.7757396697998047,
          -1.4861931800842285,
          -1.3415091037750244,
          -1.665229082107544,
          -1.1197121143341064,
          -1.569045066833496,
          0.7012478709220886,
          -1.3567739725112915,
          -0.707486629486084,
          0.4926992654800415,
          -0.8807756304740906,
          -0.23290453851222992,
          0.5283283591270447,
          1.2403944730758667,
          -1.739589810371399,
          1.479828119277954,
          -0.3264443576335907,
          1.547400951385498,
          -1.3404064178466797,
          1.4625699520111084,
          -1.1727608442306519,
          0.0862962082028389,
          -1.476485013961792,
          -0.48806387186050415,
          1.5978202819824219,
          -0.3534582853317261,
          -1.6646212339401245,
          -0.7213831543922424,
          1.1222405433654785,
          -0.6954728364944458,
          1.76687753200531,
          -0.5240989923477173
        ],
        [
          -0.8325405716896057,
          0.9514853358268738,
          0.10973392426967621,
          -0.6123436093330383,
          0.40986958146095276,
          1.254981517791748,
          -0.11330188810825348,
          -0.05573095753788948,
          -1.1091060638427734,
          1.1046391725540161,
          -0.8680810332298279,
          0.555497944355011,
          -0.1771283745765686,
          -1.1640806198120117,
          0.05696263909339905,
          0.7458874583244324,
          -0.953997790813446,
          0.4058152139186859,
          -1.63320791721344,
          -0.24889367818832397,
          0.6967008709907532,
          0.22486501932144165,
          -0.9598727226257324,
          1.5181796550750732,
          -1.2745250463485718,
          0.8426844477653503,
          0.054365742951631546,
          1.3498979806900024,
          1.0844172239303589,
          1.6617305278778076,
          -0.9289078116416931,
          -0.7913694381713867,
          -1.8014382123947144,
          0.15009120106697083,
          0.5997061729431152,
          0.1875811070203781,
          -1.140015959739685,
          -0.8467845916748047,
          0.09350670129060745,
          -0.7593691945075989,
          1.1489274501800537,
          -1.3637521266937256,
          1.3567309379577637,
          1.2327247858047485,
          0.268573135137558,
          0.3591594099998474,
          -1.1493730545043945,
          -0.29950976371765137,
          -0.4302768409252167,
          -0.4488862156867981,
          0.6120278835296631,
          -1.5749396085739136,
          0.1352182924747467,
          -0.155340313911438,
          -0.645058274269104,
          -0.2530990242958069,
          -0.21918945014476776,
          1.0731065273284912,
          -0.7163244485855103,
          1.7433961629867554,
          -1.049346685409546,
          -1.1099398136138916,
          -0.10023795813322067,
          1.2540614604949951
        ],
        [
          1.6198228597640991,
          -0.11365260928869247,
          0.7257009148597717,
          1.4475152492523193,
          0.9742429852485657,
          1.5063717365264893,
          -0.7378840446472168,
          -0.46877408027648926,
          0.05068986490368843,
          1.888401985168457,
          -1.1689205169677734,
          0.299032062292099,
          -0.6801471710205078,
          -0.11694316565990448,
          0.19496563076972961,
          -1.496395230293274,
          0.021383650600910187,
          -0.8827418684959412,
          -0.7573035359382629,
          0.3531457185745239,
          -0.3110525608062744,
          0.009054924361407757,
          -0.3949243426322937,
          -1.7986114025115967,
          -1.1928515434265137,
          -1.2412041425704956,
          0.25374582409858704,
          0.6443485021591187,
          0.013878675177693367,
          -0.13168945908546448,
          -0.26856300234794617,
          -0.2403353899717331,
          0.07016335427761078,
          1.5419120788574219,
          2.073268413543701,
          -1.278594970703125,
          -1.497450351715088,
          0.37734657526016235,
          -0.9938070178031921,
          0.4533522129058838,
          -0.9096993803977966,
          -0.8289563059806824,
          0.7577321529388428,
          1.3092641830444336,
          -0.8440992832183838,
          -1.4845329523086548,
          1.4295607805252075,
          -0.018085770308971405,
          -0.11638970673084259,
          0.2815644145011902,
          1.1805328130722046,
          -0.45099857449531555,
          -0.12117793411016464,
          0.737601101398468,
          -1.5904643535614014,
          1.582560658454895,
          -0.5792876482009888,
          0.31251782178878784,
          -0.003014524467289448,
          1.0552171468734741,
          -0.6696828007698059,
          0.44664913415908813,
          0.8811699748039246,
          0.5772953629493713
        ],
        [
          0.07830533385276794,
          0.9439985156059265,
          -0.5162381529808044,
          0.48694342374801636,
          -1.412713885307312,
          -0.12832891941070557,
          -0.0755079910159111,
          1.054632544517517,
          -0.33921465277671814,
          0.7371925115585327,
          -1.355070948600769,
          0.6194105744361877,
          -0.3944779634475708,
          -1.9566837549209595,
          -1.6268420219421387,
          -1.608191967010498,
          -0.46007710695266724,
          -0.9647415280342102,
          0.3321860432624817,
          0.005011281464248896,
          0.0749344751238823,
          1.8387184143066406,
          0.6042713522911072,
          -0.2107832431793213,
          -0.36218810081481934,
          1.624868631362915,
          -1.2989195585250854,
          -0.19357867538928986,
          1.2964006662368774,
          -1.3485064506530762,
          1.6012166738510132,
          -0.32185277342796326,
          1.2897673845291138,
          -0.1580691784620285,
          -1.2404394149780273,
          0.5785892605781555,
          -0.5125333666801453,
          -0.6813163757324219,
          1.0195811986923218,
          -0.6344435811042786,
          -0.26758015155792236,
          0.16004812717437744,
          0.6510490775108337,
          -0.18182425200939178,
          0.9932731986045837,
          -0.6189472079277039,
          -0.6182296276092529,
          1.1200007200241089,
          1.5506420135498047,
          0.15886153280735016,
          1.397915244102478,
          0.3798142373561859,
          -1.1650933027267456,
          1.472138524055481,
          1.0404130220413208,
          0.1304912567138672,
          1.4070466756820679,
          0.35647591948509216,
          -0.603945255279541,
          0.7848453521728516,
          -0.4918803870677948,
          1.4084516763687134,
          0.7961618900299072,
          0.46298202872276306
        ],
        [
          -0.8047508001327515,
          0.9813520908355713,
          -1.3510758876800537,
          -1.1852902173995972,
          0.08142529428005219,
          -0.36576685309410095,
          -1.9457242488861084,
          1.071776270866394,
          -0.09090334922075272,
          -1.0333607196807861,
          -1.324361801147461,
          -1.1632078886032104,
          -1.3450195789337158,
          0.2968558967113495,
          0.10115744918584824,
          -0.38242265582084656,
          -0.8805652260780334,
          0.36315739154815674,
          0.5000863075256348,
          -0.797856867313385,
          -0.41705042123794556,
          -0.38982486724853516,
          0.9249257445335388,
          0.2665652930736542,
          1.297500491142273,
          -0.7323004007339478,
          -0.660956084728241,
          1.6778146028518677,
          0.4602072536945343,
          -0.18613305687904358,
          0.26913878321647644,
          -0.2168409526348114,
          -0.4631730020046234,
          0.9062009453773499,
          1.1242880821228027,
          1.8025315999984741,
          -0.1625290811061859,
          -0.003104634815827012,
          0.5282096862792969,
          0.5230854153633118,
          0.9614127278327942,
          -0.2155134677886963,
          1.3115286827087402,
          -0.9089635014533997,
          0.7131893634796143,
          -0.47909751534461975,
          0.937402606010437,
          -1.6278020143508911,
          -0.48092955350875854,
          -0.663284420967102,
          -1.1354056596755981,
          0.39529505372047424,
          -0.7410187721252441,
          -0.2602756917476654,
          0.9745221734046936,
          -0.28296032547950745,
          0.41268980503082275,
          0.45015212893486023,
          -0.7809879779815674,
          -0.5357511639595032,
          0.053855426609516144,
          -1.6881458759307861,
          -0.4149549603462219,
          1.0565704107284546
        ],
        [
          0.12059338390827179,
          -0.062193285673856735,
          1.6257166862487793,
          0.3483031094074249,
          1.1369799375534058,
          0.29898974299430847,
          -0.43200939893722534,
          0.6245374083518982,
          1.1384656429290771,
          -1.2455785274505615,
          1.2421934604644775,
          -0.7388068437576294,
          -1.2515497207641602,
          -1.1188585758209229,
          -1.1162467002868652,
          1.1152511835098267,
          0.9888380765914917,
          -0.3708904981613159,
          -0.5435404777526855,
          0.37432992458343506,
          0.4392983317375183,
          1.655799150466919,
          1.0249247550964355,
          0.6387169361114502,
          0.36032554507255554,
          -0.15844836831092834,
          -1.0703707933425903,
          0.9302992224693298,
          -0.9361761808395386,
          1.5584418773651123,
          -0.307981938123703,
          -1.4119824171066284,
          0.46580788493156433,
          -0.3565604090690613,
          -0.4201011657714844,
          0.942911684513092,
          1.402770757675171,
          0.3009524643421173,
          0.42211592197418213,
          1.3472402095794678,
          1.6599029302597046,
          1.090535283088684,
          0.7994187474250793,
          -0.41517373919487,
          0.5840556621551514,
          0.46234163641929626,
          -0.7532408237457275,
          -0.06643747538328171,
          1.415528416633606,
          -0.6274742484092712,
          0.9519729018211365,
          -1.2440296411514282,
          -0.7990099787712097,
          -0.6875637173652649,
          0.18921373784542084,
          1.6635481119155884,
          -0.8456296920776367,
          1.4211609363555908,
          -1.3626891374588013,
          1.042484164237976,
          0.9088324904441833,
          0.29498735070228577,
          -0.5039227604866028,
          1.205519437789917
        ],
        [
          1.7875763177871704,
          -0.43827560544013977,
          -0.36804887652397156,
          1.6490576267242432,
          -1.332685947418213,
          0.21274718642234802,
          -0.8295215368270874,
          -1.2755451202392578,
          0.19386470317840576,
          -0.5613025426864624,
          -1.1811667680740356,
          0.7024669647216797,
          1.4667270183563232,
          1.030433177947998,
          1.6438493728637695,
          -1.601535677909851,
          0.7762073874473572,
          -0.6197583079338074,
          -0.9280408620834351,
          0.33216196298599243,
          -0.5361426472663879,
          -0.713414192199707,
          0.28508883714675903,
          0.6796066761016846,
          -1.5306106805801392,
          0.3130045533180237,
          0.09912262856960297,
          -1.0246542692184448,
          -0.6205310225486755,
          -1.3819836378097534,
          -1.4330302476882935,
          0.9370923042297363,
          -0.6593818664550781,
          1.618083119392395,
          -0.08423173427581787,
          1.3726577758789062,
          -0.8082407116889954,
          -0.34865546226501465,
          0.7112852334976196,
          -0.8897347450256348,
          0.8350366353988647,
          -1.1960381269454956,
          0.5245652794837952,
          -0.8984746932983398,
          -0.6742805242538452,
          1.3331189155578613,
          1.140820860862732,
          -1.0642719268798828,
          1.3204063177108765,
          1.138052225112915,
          0.2174423485994339,
          0.36536213755607605,
          1.153272032737732,
          -0.8557112812995911,
          -0.2502380311489105,
          0.8873813152313232,
          0.3356397747993469,
          1.3737672567367554,
          0.44390276074409485,
          0.869121253490448,
          -0.13241063058376312,
          1.056469440460205,
          0.26612573862075806,
          -0.21226099133491516
        ],
        [
          0.6409888863563538,
          0.40749815106391907,
          0.979058563709259,
          1.2580605745315552,
          -1.6527597904205322,
          0.7644416689872742,
          -1.355252981185913,
          -0.643561601638794,
          -0.9599891901016235,
          -0.5988619923591614,
          0.3224925696849823,
          -0.8679313063621521,
          1.3882828950881958,
          -1.1140989065170288,
          0.9091895818710327,
          -1.008191466331482,
          -0.6765192747116089,
          1.6134892702102661,
          1.0906500816345215,
          0.12305936962366104,
          -1.0370912551879883,
          -1.0424511432647705,
          1.0190426111221313,
          -0.6759738922119141,
          0.8655286431312561,
          -1.5220645666122437,
          0.2299545705318451,
          1.601502776145935,
          1.1153846979141235,
          -0.09791821986436844,
          -0.31079956889152527,
          1.1452540159225464,
          2.0847671031951904,
          -0.8253052234649658,
          0.38944095373153687,
          -0.9012387990951538,
          0.10895304381847382,
          -1.1103146076202393,
          -1.3603485822677612,
          1.0849448442459106,
          -0.008180028758943081,
          0.4366125762462616,
          0.03603095933794975,
          -1.2550408840179443,
          0.6775957345962524,
          -1.3512190580368042,
          1.2109806537628174,
          -1.3637977838516235,
          0.9765418171882629,
          0.4111998379230499,
          -0.48168087005615234,
          -0.3092600107192993,
          1.3680576086044312,
          -0.7774988412857056,
          1.360046148300171,
          -1.5505903959274292,
          0.5468953251838684,
          -0.743786096572876,
          0.2659391164779663,
          0.7100642323493958,
          -0.7749043107032776,
          -1.5460460186004639,
          1.0421459674835205,
          -0.9507235288619995
        ],
        [
          0.41869640350341797,
          -1.790738821029663,
          -1.5413182973861694,
          -1.4173792600631714,
          -1.1715764999389648,
          -0.9810742139816284,
          -0.8933067321777344,
          -1.94439697265625,
          -0.9918308854103088,
          0.3571922779083252,
          1.0074224472045898,
          0.26389625668525696,
          1.0891599655151367,
          -1.0608032941818237,
          -1.1031029224395752,
          0.16295455396175385,
          -0.13985095918178558,
          1.2135449647903442,
          -1.4667924642562866,
          0.42447978258132935,
          -0.5653263330459595,
          1.7175184488296509,
          -0.41493573784828186,
          1.3293277025222778,
          1.113693118095398,
          1.4322891235351562,
          1.285494089126587,
          -0.4436813294887543,
          0.9688870310783386,
          0.27071478962898254,
          1.3012079000473022,
          -0.3665600121021271,
          0.6079682111740112,
          0.47312337160110474,
          0.5078592896461487,
          1.8275257349014282,
          -0.9089500904083252,
          -1.6674493551254272,
          -1.7225826978683472,
          1.4198648929595947,
          1.064504623413086,
          1.141492247581482,
          1.260570764541626,
          -0.55473393201828,
          -1.3837296962738037,
          0.8755155205726624,
          -0.5772964954376221,
          0.45641621947288513,
          -0.7230244278907776,
          0.20438280701637268,
          -1.4944934844970703,
          -1.4938709735870361,
          0.12173240631818771,
          1.1116845607757568,
          -1.360237717628479,
          -1.6378679275512695,
          -0.6951284408569336,
          -0.8456029295921326,
          0.6927495002746582,
          -0.4711722731590271,
          1.1483327150344849,
          -0.6742551326751709,
          1.512521505355835,
          0.043655507266521454
        ],
        [
          -1.3382760286331177,
          -0.4867604076862335,
          1.4986578226089478,
          -0.5784377455711365,
          0.1806243658065796,
          1.7499090433120728,
          0.6097331643104553,
          0.12158023566007614,
          -0.025266198441386223,
          1.3134429454803467,
          -0.17583505809307098,
          0.6225816011428833,
          1.263022780418396,
          -1.2465728521347046,
          0.4859769344329834,
          1.0378756523132324,
          -1.8504955768585205,
          0.06685654073953629,
          -0.30845487117767334,
          1.5389866828918457,
          -0.46544012427330017,
          -1.0380710363388062,
          0.5699137449264526,
          -0.6704540848731995,
          0.47610384225845337,
          -0.7331936955451965,
          1.9250705242156982,
          -1.0744141340255737,
          -0.8166447281837463,
          -1.3734287023544312,
          -1.1381099224090576,
          1.6102977991104126,
          -0.1553201973438263,
          -0.3115328550338745,
          -0.5012648701667786,
          0.06688898056745529,
          1.2018686532974243,
          0.04742977023124695,
          -0.8088802099227905,
          1.4514700174331665,
          -0.5548187494277954,
          -0.8321176767349243,
          -0.5463815331459045,
          0.33475205302238464,
          -1.092620611190796,
          0.31577274203300476,
          1.716357707977295,
          -0.4017069637775421,
          0.4088810682296753,
          -1.0259720087051392,
          0.4738198220729828,
          1.4932860136032104,
          1.787344217300415,
          0.37355417013168335,
          -1.493930697441101,
          -0.48127004504203796,
          -1.2862905263900757,
          -0.25846928358078003,
          0.03359895572066307,
          0.5270353555679321,
          1.3861585855484009,
          -1.4204775094985962,
          0.7991582751274109,
          0.6951478123664856
        ],
        [
          -0.685054361820221,
          0.6912679672241211,
          0.8538728952407837,
          -1.0203590393066406,
          0.2932213842868805,
          -1.849467396736145,
          0.6151742339134216,
          0.3293082118034363,
          0.4507455825805664,
          -0.5923316478729248,
          1.4285619258880615,
          -0.45018529891967773,
          0.7815061807632446,
          -0.18979579210281372,
          0.04267210140824318,
          0.33271002769470215,
          -1.8397055864334106,
          0.43283993005752563,
          1.1881023645401,
          0.732793927192688,
          0.4490971863269806,
          -1.1705529689788818,
          -1.3776079416275024,
          -0.7693343162536621,
          1.1929303407669067,
          0.8981925249099731,
          1.0680099725723267,
          -1.1198657751083374,
          -0.14247994124889374,
          -0.09153296798467636,
          -0.6325598955154419,
          1.428444504737854,
          -0.2628330588340759,
          0.9304319620132446,
          -0.597632884979248,
          -1.1517558097839355,
          0.31312355399131775,
          0.18714499473571777,
          0.4661746621131897,
          -1.1421442031860352,
          0.8749150633811951,
          -0.5825323462486267,
          0.7466331124305725,
          0.7892745733261108,
          1.5244708061218262,
          -0.5289323925971985,
          -0.4521675705909729,
          0.08497549593448639,
          -0.7441295981407166,
          0.36697396636009216,
          1.4624289274215698,
          -0.48871248960494995,
          0.9435819387435913,
          1.6213371753692627,
          -0.2213144600391388,
          -1.200718641281128,
          0.36321237683296204,
          0.1195959597826004,
          0.042480312287807465,
          0.7580073475837708,
          0.21579095721244812,
          0.39904144406318665,
          1.654468297958374,
          1.0074459314346313
        ],
        [
          0.15367327630519867,
          -0.9126285314559937,
          -0.2600988447666168,
          -0.3962976336479187,
          -0.6307519674301147,
          0.8324915170669556,
          0.6030561327934265,
          -0.2990363538265228,
          1.1241939067840576,
          0.4068351984024048,
          1.2867413759231567,
          -0.5203798413276672,
          1.373361349105835,
          0.5848797559738159,
          1.4631978273391724,
          1.112398624420166,
          0.9453950524330139,
          0.6508446335792542,
          -1.3356443643569946,
          1.4933967590332031,
          1.0899264812469482,
          0.9585345387458801,
          1.0796135663986206,
          1.1221709251403809,
          0.576136589050293,
          0.4455202519893646,
          -0.5069105625152588,
          1.4168344736099243,
          -1.0500344038009644,
          -0.1713264435529709,
          -0.9066377282142639,
          -0.9169086217880249,
          -1.455689549446106,
          0.5053713917732239,
          -1.3362222909927368,
          -1.405053734779358,
          -0.8872625231742859,
          0.8546515107154846,
          -1.1326383352279663,
          -0.8686298131942749,
          -0.8035544157028198,
          0.4535394310951233,
          -1.2900079488754272,
          1.7437068223953247,
          -0.571930468082428,
          -0.22894152998924255,
          0.914309561252594,
          0.7517639398574829,
          0.8085471987724304,
          0.5363412499427795,
          0.9676652550697327,
          -0.48173391819000244,
          -0.10667641460895538,
          0.7865229249000549,
          0.06388525664806366,
          1.1420111656188965,
          1.0160984992980957,
          -1.12057626247406,
          0.7295711040496826,
          -1.4027918577194214,
          0.4111364781856537,
          -1.5580761432647705,
          -1.4412249326705933,
          1.5623871088027954
        ],
        [
          0.24163468182086945,
          -1.4675475358963013,
          0.39709243178367615,
          1.859302282333374,
          -2.7266299724578857,
          -1.3593884706497192,
          0.289296954870224,
          -1.2271555662155151,
          0.2621082067489624,
          0.748814582824707,
          -0.21960608661174774,
          -1.3498507738113403,
          -0.2291669398546219,
          0.08771233260631561,
          -1.3663347959518433,
          2.0815601348876953,
          0.6895978450775146,
          0.702338695526123,
          1.2460968494415283,
          0.6862077713012695,
          0.4127481281757355,
          -0.5865614414215088,
          -2.209826946258545,
          1.1642388105392456,
          0.20040643215179443,
          0.8926702737808228,
          1.2599176168441772,
          0.025822939351201057,
          0.10931788384914398,
          -0.7818885445594788,
          -0.02854222059249878,
          -0.3231901228427887,
          -0.6381421089172363,
          0.8521395325660706,
          -0.3693287670612335,
          0.8474729657173157,
          -0.9274485111236572,
          0.003556962590664625,
          0.9369412660598755,
          0.26539283990859985,
          -1.6997216939926147,
          -0.21458950638771057,
          -0.5168727040290833,
          -0.8570071458816528,
          0.3932223618030548,
          -1.4150136709213257,
          1.6019679307937622,
          -2.2920594215393066,
          0.6494001150131226,
          -1.2550530433654785,
          -0.8014057874679565,
          -0.21692070364952087,
          -1.1534959077835083,
          -1.5181858539581299,
          -0.8294880986213684,
          0.891904890537262,
          0.05320354923605919,
          0.9544913172721863,
          -1.3310245275497437,
          -0.20685306191444397,
          0.7462108731269836,
          -1.055030107498169,
          0.2389679253101349,
          1.154549241065979
        ],
        [
          1.454463005065918,
          -0.29652294516563416,
          -1.6351088285446167,
          -0.3469921946525574,
          -0.7708137035369873,
          -1.3604035377502441,
          1.755087971687317,
          -0.19481739401817322,
          -0.24988774955272675,
          0.7275471687316895,
          0.3036472797393799,
          0.1336716115474701,
          -1.0256729125976562,
          -0.5314171314239502,
          0.4186238646507263,
          1.6010679006576538,
          -0.7524949908256531,
          -0.008232775144279003,
          -1.0493154525756836,
          -0.5062979459762573,
          0.9187124967575073,
          0.6566697359085083,
          -0.12014693766832352,
          -1.7969415187835693,
          0.9097434282302856,
          0.1068299189209938,
          -1.3481115102767944,
          0.24448271095752716,
          -0.20660685002803802,
          1.7644120454788208,
          -0.47103261947631836,
          1.707371711730957,
          -1.8966442346572876,
          -1.412348985671997,
          0.12387428432703018,
          -0.3909408748149872,
          0.6042323112487793,
          0.42575931549072266,
          0.9104195833206177,
          0.5417996644973755,
          -0.8986376523971558,
          0.48069947957992554,
          0.9251642227172852,
          1.1400550603866577,
          0.7131062150001526,
          1.1218565702438354,
          0.4810182750225067,
          0.7768500447273254,
          0.3856029808521271,
          0.17326898872852325,
          1.388336181640625,
          0.35215267539024353,
          0.116325743496418,
          -1.0057467222213745,
          0.25283321738243103,
          0.6280726790428162,
          -1.0028797388076782,
          0.8022871017456055,
          1.080417275428772,
          -1.3115520477294922,
          -0.6901363134384155,
          0.3186606764793396,
          0.9475558996200562,
          0.2233799546957016
        ],
        [
          0.22897060215473175,
          -1.1667895317077637,
          0.5247083306312561,
          -1.3757498264312744,
          0.891513466835022,
          0.594757080078125,
          -0.4659919738769531,
          0.07140625268220901,
          -0.011973985470831394,
          -0.8300626873970032,
          -1.4751676321029663,
          2.0116705894470215,
          1.447706937789917,
          -1.861864686012268,
          1.0544648170471191,
          -0.697411060333252,
          -1.0348072052001953,
          -1.4297115802764893,
          -1.5882642269134521,
          1.4533259868621826,
          0.7015770673751831,
          0.2672426998615265,
          0.4987713396549225,
          -0.08871906250715256,
          0.06472083181142807,
          0.9085838794708252,
          -1.4136005640029907,
          -0.5406513810157776,
          0.3823327422142029,
          0.2361302375793457,
          0.3218851387500763,
          1.6967523097991943,
          -0.6894254088401794,
          0.021417995914816856,
          1.1227412223815918,
          -0.7372968196868896,
          -0.912630558013916,
          0.915838897228241,
          0.5907613039016724,
          1.4489060640335083,
          1.1418190002441406,
          1.750627875328064,
          -0.460774689912796,
          0.8606377840042114,
          -1.3539433479309082,
          -0.2763492166996002,
          -0.8315700888633728,
          0.7184494733810425,
          0.9295572638511658,
          -1.4629755020141602,
          0.9612547755241394,
          -0.6272276043891907,
          -0.5002224445343018,
          0.03833053633570671,
          0.1039825826883316,
          -0.07689233869314194,
          1.1315454244613647,
          -0.24610444903373718,
          -1.1654905080795288,
          -0.07442476600408554,
          0.04188099130988121,
          1.7627787590026855,
          -1.909920573234558,
          -0.6840116381645203
        ],
        [
          -0.4877828359603882,
          0.4659629762172699,
          -0.6199834942817688,
          -1.545113205909729,
          1.11929190158844,
          0.831011950969696,
          1.2613441944122314,
          -1.0122464895248413,
          -1.1590609550476074,
          0.5641878843307495,
          0.4099518656730652,
          1.7242422103881836,
          -1.0837671756744385,
          -0.08282525092363358,
          -1.5672825574874878,
          0.17143432796001434,
          0.30172601342201233,
          0.9103252291679382,
          -1.4445242881774902,
          0.06180563196539879,
          1.0283993482589722,
          0.24664410948753357,
          -0.12770475447177887,
          1.4614654779434204,
          -1.3763737678527832,
          -1.300663948059082,
          1.2768733501434326,
          0.3700380027294159,
          -0.6973795890808105,
          1.1720607280731201,
          0.060218650847673416,
          0.23088940978050232,
          0.9157994389533997,
          -0.8110293745994568,
          -1.1251533031463623,
          -1.128671407699585,
          0.1622982770204544,
          1.760792851448059,
          -1.6001999378204346,
          -0.8594260811805725,
          -1.1185683012008667,
          -1.0115572214126587,
          1.1515610218048096,
          -1.4090194702148438,
          0.029378186911344528,
          0.6221510767936707,
          -1.2197198867797852,
          -0.1155906468629837,
          0.4758826196193695,
          0.12517884373664856,
          -0.48804524540901184,
          0.3193175196647644,
          1.1283760070800781,
          -0.4275580644607544,
          1.0429009199142456,
          -0.6370325088500977,
          0.22356559336185455,
          0.16348351538181305,
          -0.44729119539260864,
          1.2863690853118896,
          -1.0189526081085205,
          -0.49301663041114807,
          -0.6776404976844788,
          -1.9357469081878662
        ],
        [
          1.095017433166504,
          -1.4921603202819824,
          1.0562978982925415,
          0.998795211315155,
          0.9252522587776184,
          -1.6070032119750977,
          1.503576636314392,
          -0.5079342722892761,
          -0.2102660983800888,
          1.1295256614685059,
          -1.203690767288208,
          -0.5546255111694336,
          -0.805332362651825,
          -0.9271082878112793,
          0.19313953816890717,
          -0.21118691563606262,
          -1.8726319074630737,
          0.532157301902771,
          -1.7747734785079956,
          0.7980091571807861,
          0.5376026630401611,
          0.23133820295333862,
          -0.9876351952552795,
          -1.257636547088623,
          0.38824546337127686,
          -1.2878354787826538,
          -1.6461361646652222,
          -1.671988844871521,
          -1.6391273736953735,
          0.9152476787567139,
          1.1802400350570679,
          -0.32822781801223755,
          -0.5440930724143982,
          0.8429552316665649,
          0.47770461440086365,
          0.02018101140856743,
          0.06067332997918129,
          -0.6377022862434387,
          -1.1959266662597656,
          0.6071252822875977,
          0.0016545543912798166,
          1.1969588994979858,
          0.952200710773468,
          1.048107624053955,
          0.2515318691730499,
          -1.3925284147262573,
          -0.6262673735618591,
          0.9729884266853333,
          -1.7298322916030884,
          1.0604408979415894,
          0.015350067056715488,
          0.9927107095718384,
          -1.4267264604568481,
          -0.09812293946743011,
          1.1871427297592163,
          -0.9816960692405701,
          0.05246955156326294,
          0.9244334101676941,
          0.7367009520530701,
          0.17170977592468262,
          0.3413558006286621,
          -0.8492287993431091,
          -0.15827739238739014,
          -0.5356923341751099
        ],
        [
          1.596885323524475,
          0.016735723242163658,
          0.8332297801971436,
          0.5477768778800964,
          1.6362348794937134,
          -0.402771919965744,
          1.7845544815063477,
          0.03640814870595932,
          -0.006792047992348671,
          0.5992051362991333,
          -0.35718265175819397,
          0.09003165364265442,
          -1.0627933740615845,
          0.5727540850639343,
          -0.061508454382419586,
          1.621401309967041,
          1.455407977104187,
          -1.4933143854141235,
          1.0434222221374512,
          -0.3214274048805237,
          0.4353274703025818,
          -0.4401896297931671,
          -0.04271885007619858,
          -0.08171503990888596,
          0.6184923648834229,
          0.08217375725507736,
          -1.655677318572998,
          -1.2762666940689087,
          1.1411961317062378,
          -1.0340632200241089,
          -1.137559175491333,
          0.33264195919036865,
          -1.0053044557571411,
          -0.45529043674468994,
          1.4137113094329834,
          0.9243725538253784,
          6.294373888522387E-4,
          0.09987617284059525,
          -1.8139028549194336,
          0.8423547744750977,
          0.7676887512207031,
          -0.3168797791004181,
          1.2190144062042236,
          0.9024702310562134,
          -0.25414976477622986,
          -1.3255023956298828,
          -0.2850874066352844,
          1.1945585012435913,
          1.4653387069702148,
          0.21230150759220123,
          -0.09410449862480164,
          -0.2398003786802292,
          0.9848760962486267,
          -1.0489689111709595,
          0.45749741792678833,
          -0.851955235004425,
          1.3346847295761108,
          -0.7614662647247314,
          1.6954625844955444,
          -1.4511407613754272,
          -0.8706339001655579,
          0.32081905007362366,
          0.3149484097957611,
          -1.0849382877349854
        ],
        [
          -1.6218924522399902,
          0.5595957636833191,
          -1.627540111541748,
          -0.6559951305389404,
          -0.34830909967422485,
          0.8535779118537903,
          -0.7166287302970886,
          1.2187026739120483,
          0.8126478791236877,
          -0.32545918226242065,
          1.2505015134811401,
          -0.712159276008606,
          -1.3758409023284912,
          0.6482309103012085,
          -1.0302081108093262,
          0.04162044823169708,
          -0.9945549964904785,
          1.646830677986145,
          0.13246066868305206,
          -0.18374687433242798,
          -0.8294105529785156,
          -1.808366298675537,
          0.4566406011581421,
          0.670925498008728,
          -0.444054514169693,
          -1.0582541227340698,
          1.1592497825622559,
          1.4070640802383423,
          -1.1940032243728638,
          0.5169466733932495,
          1.665926456451416,
          -0.5726107358932495,
          1.0107771158218384,
          -0.7829261422157288,
          -0.804197371006012,
          1.6039634943008423,
          1.3536486625671387,
          1.5312572717666626,
          -0.7088608741760254,
          -1.7214893102645874,
          0.27204447984695435,
          1.3912805318832397,
          -0.5777243375778198,
          -0.2004983127117157,
          -1.4558296203613281,
          1.4465237855911255,
          -0.91084223985672,
          -0.5846457481384277,
          0.9224694967269897,
          -1.6185412406921387,
          -0.5241987705230713,
          0.7885599732398987,
          1.1144578456878662,
          -0.749209463596344,
          -1.3717553615570068,
          0.5061163306236267,
          -1.4845595359802246,
          -1.1658210754394531,
          -0.25257980823516846,
          0.21188247203826904,
          -0.840474009513855,
          1.3505728244781494,
          -0.5466823577880859,
          1.2510138750076294
        ],
        [
          -0.7018153071403503,
          0.7799263596534729,
          0.7788186073303223,
          1.405074954032898,
          1.3209961652755737,
          0.6521962285041809,
          0.8713169693946838,
          -1.7119507789611816,
          -1.0624727010726929,
          0.9582869410514832,
          0.3858371675014496,
          0.16348247230052948,
          0.33481648564338684,
          0.32571539282798767,
          0.38490986824035645,
          -1.5599702596664429,
          0.4711897373199463,
          -1.3378220796585083,
          -0.27494511008262634,
          1.4764896631240845,
          1.763397455215454,
          -1.6947190761566162,
          1.1150256395339966,
          -0.2883652150630951,
          0.1412082314491272,
          0.6165656447410583,
          -1.0390610694885254,
          -0.7223474979400635,
          -0.8692778944969177,
          -1.397536039352417,
          -1.3037258386611938,
          1.129275918006897,
          -0.25276613235473633,
          0.16548161208629608,
          0.3082299828529358,
          -0.395942747592926,
          0.9474031329154968,
          -0.35363903641700745,
          1.1134949922561646,
          0.7409703135490417,
          -1.5274944305419922,
          0.544884979724884,
          -0.7062515616416931,
          1.4573594331741333,
          -0.10450568795204163,
          -1.4082266092300415,
          0.14960595965385437,
          1.6360036134719849,
          -1.8464653491973877,
          -1.3755775690078735,
          1.0472136735916138,
          1.4767178297042847,
          1.6922273635864258,
          0.9628810286521912,
          1.5256807804107666,
          1.4072901010513306,
          0.5762431621551514,
          0.2008969485759735,
          -1.129149317741394,
          -1.327292799949646,
          -1.2068226337432861,
          0.7349035739898682,
          -0.8805910348892212,
          1.3901296854019165
        ],
        [
          -0.03241544961929321,
          0.8571855425834656,
          0.6923025250434875,
          -1.3686271905899048,
          1.1066412925720215,
          -0.056656867265701294,
          0.04645008593797684,
          -0.37033164501190186,
          -0.20397712290287018,
          -0.9208055138587952,
          0.9299296736717224,
          -0.9050810933113098,
          1.441926121711731,
          0.14138945937156677,
          -0.6488561630249023,
          0.7531210780143738,
          -1.2516300678253174,
          0.43845316767692566,
          -0.4033794701099396,
          1.4101232290267944,
          -1.0775954723358154,
          1.5407543182373047,
          1.0789169073104858,
          -1.0078331232070923,
          -0.5305320620536804,
          0.43009650707244873,
          0.6815671324729919,
          -0.9957922697067261,
          -1.2989342212677002,
          0.40257197618484497,
          -1.4171266555786133,
          -0.5088629126548767,
          1.2290244102478027,
          0.1446222960948944,
          1.28035569190979,
          -0.9474704265594482,
          -1.5530002117156982,
          -1.2339811325073242,
          -0.9717262387275696,
          -1.3734314441680908,
          0.2620222270488739,
          -1.444665551185608,
          -1.1987112760543823,
          0.40066155791282654,
          0.772377610206604,
          0.5565934777259827,
          -0.11696571111679077,
          -1.0245167016983032,
          1.1591196060180664,
          1.2988172769546509,
          1.192711353302002,
          1.232219934463501,
          -1.4975653886795044,
          0.08725971728563309,
          -0.6540316343307495,
          1.1940597295761108,
          1.3709849119186401,
          1.324798583984375,
          -1.2249541282653809,
          1.4207652807235718,
          -1.1306498050689697,
          1.5411807298660278,
          0.9279963374137878,
          -1.4542293548583984
        ],
        [
          0.19799119234085083,
          -1.4718886613845825,
          0.1917167752981186,
          1.3860983848571777,
          0.2308366745710373,
          0.6915371417999268,
          -0.09064222872257233,
          0.3026774227619171,
          -1.4808293581008911,
          -0.9483770132064819,
          -0.13474725186824799,
          -1.466567873954773,
          -1.1134682893753052,
          0.20921590924263,
          -1.3478069305419922,
          -0.1191955953836441,
          1.1670001745224,
          1.330838680267334,
          1.5677403211593628,
          0.006355165969580412,
          -1.418614387512207,
          -1.1717078685760498,
          0.1425028145313263,
          -1.5148963928222656,
          -1.3898156881332397,
          -1.2974591255187988,
          1.408167839050293,
          0.36846283078193665,
          -1.5351237058639526,
          -1.370503544807434,
          0.7228161692619324,
          1.7874637842178345,
          -0.3219864070415497,
          0.1126556247472763,
          -0.30515438318252563,
          0.20142894983291626,
          0.8301961421966553,
          1.4357765913009644,
          0.3039886951446533,
          -0.5002607107162476,
          0.027053914964199066,
          1.4208461046218872,
          -1.6281037330627441,
          0.21754218637943268,
          -0.7654026746749878,
          -0.9901164770126343,
          -0.8360217213630676,
          -0.9036523103713989,
          0.02834160625934601,
          -1.2576172351837158,
          -0.9093518257141113,
          -1.220700979232788,
          -0.5231569409370422,
          -1.160888671875,
          0.041996631771326065,
          0.41769394278526306,
          0.5039193630218506,
          -0.22065770626068115,
          0.5126075148582458,
          0.5334947109222412,
          1.0586477518081665,
          -1.3066418170928955,
          -1.5087225437164307,
          -1.8634682893753052
        ],
        [
          0.2983129918575287,
          0.6352272033691406,
          1.1012256145477295,
          0.0923355221748352,
          -2.286914587020874,
          1.3291735649108887,
          -2.43965220451355,
          -1.2334388494491577,
          1.2707469463348389,
          1.0809043645858765,
          0.3323575258255005,
          -1.7337532043457031,
          0.23189543187618256,
          0.3969482481479645,
          1.1410893201828003,
          0.5910840630531311,
          0.7621169090270996,
          2.007035255432129,
          0.3916613459587097,
          -0.4047171175479889,
          -0.7522261738777161,
          -1.2039399147033691,
          0.23254196345806122,
          -1.5797107219696045,
          -1.460869312286377,
          -0.30894070863723755,
          1.7688900232315063,
          -1.5961943864822388,
          -1.1951884031295776,
          -0.7494856119155884,
          -0.3839903473854065,
          -0.8648164868354797,
          1.6149686574935913,
          1.374550700187683,
          -0.7409932017326355,
          1.8709428310394287,
          -0.5079259872436523,
          -1.0664821863174438,
          1.2806060314178467,
          -0.6618854403495789,
          0.179574117064476,
          -1.4819188117980957,
          -2.3827943801879883,
          1.0296623706817627,
          1.3930760622024536,
          -0.8574511408805847,
          -1.2591395378112793,
          -1.6767733097076416,
          -1.8466565608978271,
          -1.1308976411819458,
          -0.6756206750869751,
          -0.1741989403963089,
          -0.7451591491699219,
          -2.5824782848358154,
          -0.5131861567497253,
          -1.2151466608047485,
          -0.4066411256790161,
          -1.4720598459243774,
          1.2384690046310425,
          -1.5106613636016846,
          0.9054272770881653,
          -1.4811285734176636,
          0.02993699349462986,
          1.3307420015335083
        ],
        [
          -1.2017011642456055,
          1.0707629919052124,
          -0.18271532654762268,
          0.6330292820930481,
          1.1480755805969238,
          0.20906902849674225,
          -1.5762841701507568,
          0.143887460231781,
          1.194532871246338,
          -1.8429430723190308,
          0.3800974190235138,
          1.2363642454147339,
          1.4248359203338623,
          -1.1088392734527588,
          -1.1827698945999146,
          -1.217195987701416,
          -1.2015076875686646,
          2.086513042449951,
          -0.9179556369781494,
          0.7989141345024109,
          -1.226406455039978,
          1.0541672706604004,
          0.8030168414115906,
          -0.6497882008552551,
          -1.1939496994018555,
          -0.48818737268447876,
          0.6401993036270142,
          -0.1304716020822525,
          -0.5359652042388916,
          1.6166882514953613,
          -0.3716583549976349,
          0.5923064947128296,
          -0.4256013035774231,
          -0.15948937833309174,
          0.816161036491394,
          -0.1971173733472824,
          1.4006882905960083,
          -1.7637276649475098,
          0.9231617450714111,
          -0.31786268949508667,
          0.6640142798423767,
          1.3157371282577515,
          0.4942716062068939,
          1.5015209913253784,
          0.44374191761016846,
          -0.5106863379478455,
          0.20862117409706116,
          -0.5045650005340576,
          -0.22966785728931427,
          0.014161533676087856,
          0.5781981945037842,
          -1.045033574104309,
          -0.18996985256671906,
          0.5724436044692993,
          0.013573750853538513,
          0.152374729514122,
          -0.014317754656076431,
          1.7513571977615356,
          1.752187728881836,
          -0.711387038230896,
          0.6638819575309753,
          1.012722373008728,
          -1.3590983152389526,
          -1.404772162437439
        ],
        [
          -1.208654522895813,
          1.9161044359207153,
          0.5562648177146912,
          1.6422830820083618,
          -0.4556846618652344,
          1.0607532262802124,
          0.3394821584224701,
          -0.5184655785560608,
          1.2335381507873535,
          1.774767279624939,
          1.3185482025146484,
          0.33185911178588867,
          0.19220270216464996,
          0.9555720090866089,
          -0.7193732857704163,
          0.00631754519417882,
          -0.8543959856033325,
          0.8497922420501709,
          1.0336860418319702,
          0.6964479088783264,
          -0.5515466928482056,
          -0.07973098754882812,
          -1.0271552801132202,
          -0.315437376499176,
          1.2532514333724976,
          0.8467825651168823,
          -1.490501880645752,
          0.00982709787786007,
          0.3314613699913025,
          -0.3363898992538452,
          0.10766583681106567,
          0.346103310585022,
          0.7041602730751038,
          -0.5359632968902588,
          -1.267071008682251,
          -0.3834998309612274,
          1.5373525619506836,
          -1.4203697443008423,
          -1.4619009494781494,
          -1.2604420185089111,
          -1.056883692741394,
          -1.0356013774871826,
          -0.2016506940126419,
          1.6571656465530396,
          0.17982158064842224,
          0.7953681349754333,
          -1.4431920051574707,
          -0.24422264099121094,
          1.4974308013916016,
          1.4989365339279175,
          0.8394162058830261,
          1.5382863283157349,
          -0.8277624249458313,
          0.9755629897117615,
          -1.0710444450378418,
          -0.9602227807044983,
          0.9605912566184998,
          0.07595612853765488,
          -0.4220821261405945,
          0.6992607116699219,
          0.822478711605072,
          -0.19980284571647644,
          -0.29877766966819763,
          -0.1612253040075302
        ],
        [
          -0.7147550582885742,
          -0.5790335536003113,
          0.8812188506126404,
          1.0271426439285278,
          -0.8311094641685486,
          -0.630916178226471,
          1.3527616262435913,
          -1.0650869607925415,
          1.4856888055801392,
          0.6946504712104797,
          1.383216142654419,
          1.0097646713256836,
          -0.5673080682754517,
          -1.5850915908813477,
          1.5992363691329956,
          0.2861118018627167,
          0.7722038626670837,
          0.42083993554115295,
          -0.11011100560426712,
          -0.7209034562110901,
          1.106680989265442,
          0.9457764029502869,
          -1.2575973272323608,
          0.38864877820014954,
          0.6098517775535583,
          1.5618529319763184,
          -0.8104428648948669,
          -0.13269415497779846,
          -0.8493225574493408,
          -1.2167069911956787,
          -0.044445574283599854,
          -1.129473090171814,
          -1.0763999223709106,
          -1.311194658279419,
          -1.447263479232788,
          -0.9819308519363403,
          -0.4546959102153778,
          -0.33131060004234314,
          0.9023884534835815,
          1.5821120738983154,
          1.2368544340133667,
          0.862583577632904,
          -1.0155413150787354,
          -0.0891840010881424,
          1.3602983951568604,
          -0.5963656306266785,
          1.389408826828003,
          0.7946187853813171,
          -0.885875940322876,
          0.9634419083595276,
          -0.5749735236167908,
          0.6931939125061035,
          0.9062419533729553,
          1.479027271270752,
          -1.1295021772384644,
          0.2927927076816559,
          -1.598013997077942,
          -1.0409913063049316,
          -1.7029129266738892,
          -0.21313220262527466,
          1.2655609846115112,
          1.0576221942901611,
          -1.499310851097107,
          1.6382124423980713
        ],
        [
          0.20663122832775116,
          1.2527918815612793,
          -0.8257668614387512,
          0.6363372802734375,
          0.4929618835449219,
          -0.14989802241325378,
          0.933911144733429,
          -0.003866067621856928,
          -1.5244669914245605,
          -1.1770731210708618,
          -0.7700283527374268,
          -1.487262487411499,
          -0.34252026677131653,
          0.904582142829895,
          0.4500880837440491,
          0.8755165934562683,
          0.0801219791173935,
          -1.1579601764678955,
          1.6374982595443726,
          -0.688707172870636,
          1.2964155673980713,
          0.755588710308075,
          1.3478386402130127,
          0.33330079913139343,
          0.2853187024593353,
          0.2620405852794647,
          0.07420600205659866,
          -1.2051000595092773,
          0.2137799859046936,
          -1.2107528448104858,
          -1.5987167358398438,
          -0.28155532479286194,
          -0.8608430027961731,
          -0.593867838382721,
          0.9749027490615845,
          -1.630128264427185,
          0.012142450548708439,
          1.7275851964950562,
          0.4541751444339752,
          0.4894775152206421,
          -1.2209182977676392,
          0.8422459363937378,
          -0.18743491172790527,
          0.32549208402633667,
          1.5360459089279175,
          1.6247025728225708,
          1.2407695055007935,
          1.6386491060256958,
          -1.4238152503967285,
          0.41223639249801636,
          1.1342744827270508,
          0.5295642018318176,
          -1.514907717704773,
          0.6236559748649597,
          0.5528777241706848,
          1.1352890729904175,
          -1.3207699060440063,
          -0.5486366748809814,
          1.741851806640625,
          0.02550378069281578,
          1.5479003190994263,
          -1.4465138912200928,
          -1.7373541593551636,
          -1.6783342361450195
        ],
        [
          -0.7290976643562317,
          -1.1326130628585815,
          0.7564775943756104,
          -0.17023101449012756,
          -0.6157731413841248,
          -0.6086828112602234,
          1.1560007333755493,
          0.16452722251415253,
          -1.1238164901733398,
          0.6145929098129272,
          -1.2500842809677124,
          -1.5708194971084595,
          -0.26724445819854736,
          -0.19042718410491943,
          -0.5882872343063354,
          0.8387762308120728,
          0.594629168510437,
          -0.6382578611373901,
          0.2989719808101654,
          -0.8923436403274536,
          0.7550413608551025,
          0.6453705430030823,
          0.08514168858528137,
          0.6648141145706177,
          0.21799889206886292,
          0.37611958384513855,
          0.045898228883743286,
          1.0679086446762085,
          1.6356323957443237,
          0.5121619701385498,
          0.276796817779541,
          1.531176209449768,
          1.1160669326782227,
          -0.3576901853084564,
          0.004033940378576517,
          -1.26608145236969,
          1.129581093788147,
          0.2785012722015381,
          -0.34100332856178284,
          0.8647342920303345,
          -1.3895902633666992,
          -1.347777247428894,
          0.7389615774154663,
          0.009921114891767502,
          0.7400075793266296,
          -0.6836238503456116,
          -1.6206300258636475,
          0.5260082483291626,
          -1.0867053270339966,
          1.3781825304031372,
          0.9332510232925415,
          -1.2471197843551636,
          -1.6071964502334595,
          -0.1229715645313263,
          -0.9541959762573242,
          -1.4345872402191162,
          -0.7388172745704651,
          -0.7744797468185425,
          0.7647768259048462,
          -1.4570633172988892,
          -0.1660117208957672,
          -0.7760975360870361,
          -0.5394001007080078,
          -0.24910244345664978
        ],
        [
          -1.5241656303405762,
          -0.6605129241943359,
          -1.69717276096344,
          0.3048413395881653,
          0.15191450715065002,
          0.7504226565361023,
          1.14009428024292,
          -1.6081962585449219,
          1.5806810855865479,
          -0.2968922257423401,
          -1.506077527999878,
          0.31953802704811096,
          -1.3047677278518677,
          0.9468574523925781,
          0.8811056017875671,
          -0.9660184383392334,
          -1.3015873432159424,
          -1.5134551525115967,
          1.7287213802337646,
          -0.9096599221229553,
          -0.3311341404914856,
          0.7893457412719727,
          1.1478769779205322,
          0.5189477205276489,
          -0.8539347052574158,
          1.172052025794983,
          1.6136550903320312,
          -1.5243704319000244,
          1.0892698764801025,
          -1.2569019794464111,
          -1.5084149837493896,
          -1.368672251701355,
          0.09498974680900574,
          -0.8225378394126892,
          -0.17193220555782318,
          -1.457650899887085,
          0.17741478979587555,
          -0.9263697266578674,
          -0.23472833633422852,
          -1.4241795539855957,
          -0.6218328475952148,
          1.3162351846694946,
          -0.5217838287353516,
          -0.2555578052997589,
          -0.8327559232711792,
          -1.1893349885940552,
          -0.4722684621810913,
          0.8927741050720215,
          -0.5521739721298218,
          -1.107060194015503,
          -0.9772520661354065,
          1.0523017644882202,
          -0.43005648255348206,
          -1.295456051826477,
          1.0876466035842896,
          0.9187086224555969,
          -0.9045113325119019,
          -0.9237644076347351,
          1.2749730348587036,
          -1.259188175201416,
          -1.5023396015167236,
          1.3389763832092285,
          1.6265228986740112,
          -1.2535649538040161
        ],
        [
          1.141728162765503,
          -0.3691222369670868,
          0.7674486041069031,
          -1.4068588018417358,
          0.3853156268596649,
          -1.3658852577209473,
          0.23691701889038086,
          1.703234076499939,
          -0.10552605986595154,
          1.3324579000473022,
          -0.9255465865135193,
          0.11534774303436279,
          -1.4728845357894897,
          1.4003511667251587,
          -1.017708659172058,
          -1.1765941381454468,
          -1.256884217262268,
          -0.6156585216522217,
          -0.1526113897562027,
          -1.1130021810531616,
          -0.3191608786582947,
          -0.3783429265022278,
          -0.08924509584903717,
          0.5036904811859131,
          -0.5756581425666809,
          -0.5084882974624634,
          -0.3742135465145111,
          1.13701331615448,
          -0.8956986665725708,
          0.16506287455558777,
          1.7740199565887451,
          0.46816664934158325,
          -0.5210821032524109,
          1.467556118965149,
          -1.2429789304733276,
          -0.28550270199775696,
          -0.4381316602230072,
          1.6355688571929932,
          0.28383326530456543,
          0.10969062894582748,
          0.5004831552505493,
          -0.6574167013168335,
          0.6684550642967224,
          -1.4520025253295898,
          -0.5420040488243103,
          0.8680669069290161,
          0.12970729172229767,
          0.49106475710868835,
          0.9352279901504517,
          1.1193069219589233,
          1.295613408088684,
          0.864356517791748,
          0.34794899821281433,
          1.715628981590271,
          -0.17688173055648804,
          -1.6240670680999756,
          1.5291064977645874,
          -0.23834507167339325,
          -1.3733183145523071,
          -1.509209394454956,
          0.9514252543449402,
          0.7662274241447449,
          -2.0074410438537598,
          0.46631941199302673
        ],
        [
          -0.6628831624984741,
          -1.6562696695327759,
          1.5540759563446045,
          -1.0912342071533203,
          -0.6634281277656555,
          1.2831836938858032,
          0.17284080386161804,
          0.894569993019104,
          1.2275116443634033,
          -1.12139892578125,
          -1.5757490396499634,
          -0.7240684032440186,
          1.1821630001068115,
          -1.5146267414093018,
          0.7726845145225525,
          -0.714735746383667,
          0.39786046743392944,
          -1.2204620838165283,
          1.4631489515304565,
          3.636230230331421,
          0.35284411907196045,
          -1.7134850025177002,
          0.16739393770694733,
          -0.4044066071510315,
          -1.465268611907959,
          0.7250679731369019,
          -1.049657940864563,
          -1.4137561321258545,
          -0.5688703060150146,
          1.2449527978897095,
          1.109336018562317,
          -1.9864858388900757,
          -1.9685777425765991,
          -1.6053340435028076,
          -1.3188234567642212,
          -0.07223096489906311,
          1.4214950799942017,
          -0.26284417510032654,
          -1.3586688041687012,
          -1.2944685220718384,
          -0.5982781648635864,
          -0.7336341142654419,
          0.3103915750980377,
          0.9980937838554382,
          1.2281965017318726,
          -0.37489068508148193,
          0.9648997187614441,
          2.1958398818969727,
          1.0833508968353271,
          0.970761775970459,
          -1.2863187789916992,
          1.3521850109100342,
          -1.481856107711792,
          -1.5533220767974854,
          0.15296411514282227,
          1.3225502967834473,
          0.8499094843864441,
          -2.563549757003784,
          -0.1775713413953781,
          1.5226125717163086,
          -0.01200918760150671,
          -1.5849953889846802,
          -0.24171029031276703,
          -0.45082491636276245
        ],
        [
          1.8186742067337036,
          1.4286116361618042,
          -1.1089458465576172,
          0.5766261219978333,
          -1.1833407878875732,
          1.2488449811935425,
          -0.8802829384803772,
          -0.9028125405311584,
          1.48360013961792,
          -0.5891696810722351,
          1.368664026260376,
          0.7293279767036438,
          0.20220254361629486,
          1.151011347770691,
          1.7645621299743652,
          -0.7394759654998779,
          1.522016167640686,
          1.395833969116211,
          -0.09715520590543747,
          -1.1833137273788452,
          -1.3341853618621826,
          1.1369556188583374,
          -0.12850482761859894,
          0.6325165033340454,
          1.5699628591537476,
          1.2261885404586792,
          1.9765630960464478,
          -0.9713452458381653,
          0.03984841704368591,
          0.8626482486724854,
          -0.5648931860923767,
          -0.03477989137172699,
          0.30754417181015015,
          1.5598995685577393,
          0.10180266201496124,
          0.30432143807411194,
          -0.9354548454284668,
          -0.9134407639503479,
          0.018102867528796196,
          -0.4795442819595337,
          -0.8821982741355896,
          -0.8946541547775269,
          -0.8297216296195984,
          0.5470736026763916,
          -1.433565616607666,
          -1.2607700824737549,
          -1.2338075637817383,
          -1.15904700756073,
          0.8954665064811707,
          1.517878770828247,
          1.2903558015823364,
          -1.265503168106079,
          -0.9259670972824097,
          0.41837379336357117,
          -1.0923254489898682,
          1.1494084596633911,
          0.6569746732711792,
          -0.6243406534194946,
          0.08697004616260529,
          0.16067659854888916,
          1.4448227882385254,
          1.559712290763855,
          0.8049501180648804,
          0.29416680335998535
        ],
        [
          -0.08884017914533615,
          -1.4681661128997803,
          0.418770968914032,
          0.03951790928840637,
          1.405872106552124,
          -1.065293312072754,
          0.07752564549446106,
          1.2640072107315063,
          -0.43674302101135254,
          -0.036321092396974564,
          1.3232041597366333,
          2.0549864768981934,
          -1.0545434951782227,
          0.922836422920227,
          0.47706401348114014,
          0.2943078577518463,
          -1.8571573495864868,
          1.226994276046753,
          0.18878982961177826,
          1.0104589462280273,
          -1.1133801937103271,
          0.0433531180024147,
          1.4887397289276123,
          -1.2272989749908447,
          -1.4938913583755493,
          -0.8806028366088867,
          -0.7676564455032349,
          -1.1620118618011475,
          -0.5734010934829712,
          0.18428286910057068,
          1.5819647312164307,
          -0.6725516319274902,
          -0.34656333923339844,
          0.42957016825675964,
          0.9804806113243103,
          -0.14648973941802979,
          -1.3779172897338867,
          0.2554141879081726,
          0.31752029061317444,
          -0.3685187101364136,
          -0.01017078012228012,
          0.8512335419654846,
          0.7696097493171692,
          -1.6423004865646362,
          0.11337930709123611,
          0.15156596899032593,
          0.7154327034950256,
          0.25942814350128174,
          1.1846338510513306,
          -1.2356667518615723,
          -1.3930602073669434,
          -0.8310989737510681,
          -0.6480441689491272,
          -0.6001825928688049,
          1.6685112714767456,
