[
  {
    "biases": {
      "data": [],
      "rows": 0,
      "cols": 1
    },
    "bias": 1,
    "weights": {
      "data": [],
      "rows": 0,
      "cols": 0
    }
  },
  {
    "biases": {
      "data": [
        [1.1938055753707886],
        [0.9781996607780457],
        [-1.5730938911437988],
        [-0.9740570187568665],
        [0.7298007607460022],
        [0.1587861329317093],
        [0.9141265749931335],
        [-0.8237890601158142],
        [-0.9219850897789001],
        [-0.241754412651062],
        [1.2585309743881226],
        [0.7659474015235901],
        [-0.9953453540802002],
        [0.7468928098678589],
        [1.2113611698150635],
        [0.818009614944458],
        [-1.04751718044281],
        [-0.9498893618583679],
        [0.9052227735519409],
        [-0.9686951041221619],
        [0.21081790328025818],
        [-0.7730816602706909],
        [0.8101115822792053],
        [1.1129552125930786],
        [-0.5823101997375488],
        [-1.0181344747543335],
        [-0.801662027835846],
        [1.525736689567566],
        [-0.7766412496566772],
        [0.8127619028091431],
        [-1.2686731815338135],
        [0.8274478316307068],
        [-0.7909114956855774],
        [-0.26797041296958923],
        [-0.951284646987915],
        [1.2847038507461548],
        [0.7719292044639587],
        [-1.3641185760498047],
        [0.886431872844696],
        [0.8989586234092712],
        [-0.8234761357307434],
        [0.8512569665908813],
        [-1.2882038354873657],
        [0.7597494721412659],
        [-1.0084432363510132],
        [-0.9169906973838806],
        [-0.9804950952529907],
        [-0.9325485825538635],
        [-0.952484130859375],
        [0.7600852847099304],
        [0.710766077041626],
        [-0.9399222135543823],
        [-0.7824654579162598],
        [0.9681365489959717],
        [0.9170754551887512],
        [-0.7711519598960876],
        [-1.2209945917129517],
        [1.351709246635437],
        [-1.6430683135986328],
        [0.88019198179245],
        [-1.031951665878296],
        [1.150068998336792],
        [2.0133941173553467],
        [1.198137640953064]
      ],
      "rows": 64,
      "cols": 1
    },
    "bias": 1,
    "weights": {
      "data": [
        [
          -1.079361915588379,
          -1.774917483329773
        ],
        [
          0.5505728721618652,
          1.128055453300476
        ],
        [
          -0.03025497868657112,
          2.564296007156372
        ],
        [
          -0.03374025970697403,
          0.4937276542186737
        ],
        [
          0.24316035211086273,
          0.0992458164691925
        ],
        [
          -1.0849518775939941,
          -1.5438611507415771
        ],
        [
          0.4647807776927948,
          1.245664358139038
        ],
        [
          0.5708490610122681,
          -0.5350883603096008
        ],
        [
          0.4392872154712677,
          1.419797420501709
        ],
        [
          1.346310019493103,
          -1.00369393825531
        ],
        [
          -0.4225216209888458,
          -0.5486695766448975
        ],
        [
          0.9082396030426025,
          0.4350191056728363
        ],
        [
          -0.33058464527130127,
          -0.43554943799972534
        ],
        [
          -0.734853208065033,
          0.6824953556060791
        ],
        [
          -0.42363396286964417,
          0.18182845413684845
        ],
        [
          -0.3980933427810669,
          1.0004088878631592
        ],
        [
          0.767227053642273,
          0.2397768497467041
        ],
        [
          0.034521955996751785,
          0.40815722942352295
        ],
        [
          -0.8317561149597168,
          -1.319746732711792
        ],
        [
          -0.413877010345459,
          0.8062413334846497
        ],
        [
          -0.24561946094036102,
          -1.4763356447219849
        ],
        [
          -0.8147631287574768,
          2.1534104347229004
        ],
        [
          -0.36115869879722595,
          0.1725221425294876
        ],
        [
          -0.27982068061828613,
          0.296207457780838
        ],
        [
          1.9067778587341309,
          -1.0403796434402466
        ],
        [
          -0.13596858084201813,
          0.9507044553756714
        ],
        [
          -0.7293494343757629,
          -1.110088586807251
        ],
        [
          -2.1958422660827637,
          -0.8540958166122437
        ],
        [
          -0.30476266145706177,
          -0.5599797964096069
        ],
        [
          0.8246151208877563,
          1.3163100481033325
        ],
        [
          0.39171072840690613,
          -0.5799825191497803
        ],
        [
          0.20199871063232422,
          -0.26597073674201965
        ],
        [
          -0.5440431833267212,
          -0.8914574384689331
        ],
        [
          1.5233142375946045,
          -1.1292527914047241
        ],
        [
          -0.14165639877319336,
          0.7489291429519653
        ],
        [
          0.17876362800598145,
          -0.3281816244125366
        ],
        [
          0.6143586039543152,
          -0.039183057844638824
        ],
        [
          0.1276572197675705,
          0.9888019561767578
        ],
        [
          0.41468408703804016,
          -0.26840510964393616
        ],
        [
          0.3951638340950012,
          -0.3065660297870636
        ],
        [
          -0.7575697898864746,
          -0.026604538783431053
        ],
        [
          1.1131190061569214,
          1.03285813331604
        ],
        [
          0.9480267763137817,
          0.07426069676876068
        ],
        [
          0.6441700458526611,
          0.47669553756713867
        ],
        [
          0.6022277474403381,
          1.448565125465393
        ],
        [
          0.8070072531700134,
          1.3335514068603516
        ],
        [
          1.6566976308822632,
          -0.13487966358661652
        ],
        [
          0.10054357349872589,
          0.28895366191864014
        ],
        [
          -0.13095422089099884,
          0.5970134735107422
        ],
        [
          0.5860798358917236,
          0.9754032492637634
        ],
        [
          -0.0737193152308464,
          -0.35083961486816406
        ],
        [
          0.6306979656219482,
          1.319725513458252
        ],
        [
          -0.0040597449988126755,
          -1.1306467056274414
        ],
        [
          -0.9509730339050293,
          -1.2913819551467896
        ],
        [
          0.9440478682518005,
          -0.29733413457870483
        ],
        [
          -0.08030043542385101,
          -0.3345731794834137
        ],
        [
          0.7357630729675293,
          -0.07841386646032333
        ],
        [
          -3.0386080741882324,
          -0.2512146830558777
        ],
        [
          2.537116527557373,
          0.0022311920765787363
        ],
        [
          -2.6462643146514893,
          0.26169630885124207
        ],
        [
          0.24479791522026062,
          0.4602102041244507
        ],
        [
          -0.439034640789032,
          -2.5898938179016113
        ],
        [
          -2.5578653812408447,
          -1.627819299697876
        ],
        [
          -1.2383264303207397,
          -1.4777575731277466
        ]
      ],
      "rows": 64,
      "cols": 2
    }
  },
  {
    "biases": {
      "data": [
        [-0.2982070744037628],
        [0.2982066571712494]
      ],
      "rows": 2,
      "cols": 1
    },
    "bias": 1,
    "weights": {
      "data": [
        [
          -1.2071161270141602,
          0.5336078405380249,
          -4.741006374359131,
          -0.006536484230309725,
          0.3615915775299072,
          0.5417055487632751,
          -0.46236613392829895,
          0.22716966271400452,
          -1.4612866640090942,
          -2.3395845890045166,
          0.11485617607831955,
          0.37022677063941956,
          -0.3164574205875397,
          -0.35844311118125916,
          0.50734943151474,
          -0.5950781106948853,
          0.11226361244916916,
          -0.09512006491422653,
          -1.5797276496887207,
          -0.06974902749061584,
          0.16599762439727783,
          -2.0878536701202393,
          -0.3652271032333374,
          -0.8088956475257874,
          -1.9102685451507568,
          -0.25446617603302,
          -0.34533610939979553,
          -1.6244993209838867,
          -0.6673765182495117,
          0.48407211899757385,
          0.7057923078536987,
          0.29906126856803894,
          -0.7150969505310059,
          -2.3682050704956055,
          -0.07214648276567459,
          -0.645805299282074,
          0.41159185767173767,
          -0.3068103492259979,
          0.2673167288303375,
          0.7028374671936035,
          -0.44268494844436646,
          0.6735579371452332,
          0.06855584681034088,
          0.15359410643577576,
          -0.784737765789032,
          -0.799793004989624,
          -1.661612868309021,
          -0.27082329988479614,
          -0.02173318900167942,
          0.7609544992446899,
          0.06088980287313461,
          -0.8606255054473877,
          -0.35448843240737915,
          -1.1984293460845947,
          0.3458762466907501,
          -0.530879557132721,
          0.1444653421640396,
          -1.292571783065796,
          -4.620593070983887,
          -1.3248533010482788,
          -0.13870713114738464,
          -2.0783302783966064,
          -1.5135176181793213,
          -1.1069653034210205
        ],
        [
          1.5919764041900635,
          0.31061089038848877,
          4.288877010345459,
          -0.13194768130779266,
          -0.19487826526165009,
          -0.5292943120002747,
          -0.6962569355964661,
          0.18356607854366302,
          1.635975956916809,
          2.063021183013916,
          0.864162266254425,
          -0.5741482973098755,
          -0.23641541600227356,
          -0.29411420226097107,
          0.838563859462738,
          -0.605188250541687,
          -0.4485040605068207,
          -0.13831208646297455,
          0.266353577375412,
          0.24229896068572998,
          0.04323926195502281,
          2.208021879196167,
          -0.4187910556793213,
          -0.6297001838684082,
          3.139697790145874,
          -0.5845631957054138,
          0.803066074848175,
          1.094016671180725,
          0.5200846791267395,
          -0.1815948188304901,
          0.5266225934028625,
          -0.4520971477031708,
          0.47463420033454895,
          1.3387070894241333,
          0.16685396432876587,
          -0.2698833644390106,
          0.1727265566587448,
          -1.0238436460494995,
          -0.7666528820991516,
          -0.8835631608963013,
          -0.09226877987384796,
          0.16466432809829712,
          -0.5473318696022034,
          -0.6798954010009766,
          1.8099983930587769,
          0.8106298446655273,
          2.6138548851013184,
          -0.13396619260311127,
          0.2822418510913849,
          -0.2758827805519104,
          -0.07634107023477554,
          2.044119358062744,
          0.6085783243179321,
          1.199517846107483,
          -0.543599009513855,
          0.009390974417328835,
          -0.36182868480682373,
          1.5149117708206177,
          5.395588397979736,
          0.2898765206336975,
          -0.5608204007148743,
          1.750753402709961,
          2.4699974060058594,
          1.7543745040893555
        ]
      ],
      "rows": 2,
      "cols": 64
    }
  }
]