[
  {
    "biases": {
      "data": [],
      "rows": 0,
      "cols": 1
    },
    "bias": 1,
    "weights": {
      "data": [],
      "rows": 0,
      "cols": 0
    }
  },
  {
    "biases": {
      "data": [
        [0.9225354194641113],
        [1.0599902868270874],
        [0.9334951639175415],
        [-0.9102569818496704],
        [0.9409946799278259],
        [1.0976015329360962],
        [-1.0265719890594482],
        [-1.1917002201080322],
        [-0.8506361842155457],
        [0.9929612278938293],
        [-1.1099038124084473],
        [-1.1083312034606934],
        [-1.163272500038147],
        [1.0594873428344727],
        [0.0381682887673378],
        [0.9665811657905579],
        [-0.719077467918396],
        [-0.770410418510437],
        [-1.1222021579742432],
        [0.1981264352798462],
        [-1.1710838079452515],
        [-0.7055803537368774],
        [1.0025182962417603],
        [0.9303494095802307],
        [-0.3388827443122864],
        [-1.293285846710205],
        [1.1616414785385132],
        [1.5271978378295898],
        [1.023118257522583],
        [-0.7527061700820923],
        [1.132509469985962],
        [-0.4469257593154907],
        [0.9679728150367737],
        [-1.437512755393982],
        [0.8436697721481323],
        [0.4322284460067749],
        [-1.2736122608184814],
        [0.9416239261627197],
        [-0.32700562477111816],
        [1.3730837106704712],
        [-1.085139513015747],
        [0.9614691734313965],
        [-1.1642446517944336],
        [1.3822822570800781],
        [1.1339467763900757],
        [-1.130077838897705],
        [-1.0075640678405762],
        [1.1572006940841675],
        [-1.136194109916687],
        [1.4264529943466187],
        [-0.7355259656906128],
        [-1.3168584108352661],
        [-0.7408615946769714],
        [1.0499389171600342],
        [-0.6804296970367432],
        [-0.8285013437271118],
        [-0.35836878418922424],
        [1.0286884307861328],
        [-0.30369120836257935],
        [-0.591617226600647],
        [-0.7703544497489929],
        [1.0728342533111572],
        [1.5613667964935303],
        [-0.7516478896141052]
      ],
      "rows": 64,
      "cols": 1
    },
    "bias": 1,
    "weights": {
      "data": [
        [
          -0.166459321975708,
          0.26134586334228516
        ],
        [
          0.593814492225647,
          -0.8991948366165161
        ],
        [
          0.6356484889984131,
          0.2848132252693176
        ],
        [
          0.3145734369754791,
          0.46105027198791504
        ],
        [
          -0.1388438642024994,
          0.0874221995472908
        ],
        [
          0.3833045959472656,
          0.5251893997192383
        ],
        [
          0.38527700304985046,
          0.283318430185318
        ],
        [
          2.1635653972625732,
          2.404106378555298
        ],
        [
          -0.5654980540275574,
          0.19956104457378387
        ],
        [
          -1.8852710723876953,
          -1.9163223505020142
        ],
        [
          0.0574495792388916,
          -0.1781015396118164
        ],
        [
          -0.035104744136333466,
          0.17188934981822968
        ],
        [
          -0.2958031892776489,
          0.40582406520843506
        ],
        [
          -0.7333272695541382,
          0.5548624992370605
        ],
        [
          -2.6770646572113037,
          2.4531352519989014
        ],
        [
          -0.05111798271536827,
          0.5404790043830872
        ],
        [
          -0.735445499420166,
          -0.9184938669204712
        ],
        [
          -0.46107688546180725,
          -0.24357745051383972
        ],
        [
          -0.8730578422546387,
          -1.0084187984466553
        ],
        [
          2.0129692554473877,
          -1.656144380569458
        ],
        [
          -0.1539134532213211,
          0.07921905070543289
        ],
        [
          0.15218065679073334,
          -0.831024169921875
        ],
        [
          0.2773030996322632,
          0.9209880828857422
        ],
        [
          -0.2633054852485657,
          0.9203549027442932
        ],
        [
          1.3432451486587524,
          -0.6290823817253113
        ],
        [
          -0.1446559876203537,
          -0.34305539727211
        ],
        [
          0.930336594581604,
          0.32028675079345703
        ],
        [
          -0.4219019114971161,
          -0.46547845005989075
        ],
        [
          0.1656014621257782,
          0.5327918529510498
        ],
        [
          -0.4463903307914734,
          -0.7533317804336548
        ],
        [
          -2.1516530513763428,
          -2.1841814517974854
        ],
        [
          1.245449423789978,
          -0.3323991298675537
        ],
        [
          0.8052502274513245,
          -0.40736401081085205
        ],
        [
          -0.531761646270752,
          -0.8087451457977295
        ],
        [
          -0.9676851630210876,
          0.6291031837463379
        ],
        [
          -1.327610731124878,
          1.0651261806488037
        ],
        [
          0.06368950009346008,
          0.32286205887794495
        ],
        [
          -1.7988033294677734,
          -1.8055657148361206
        ],
        [
          1.1571202278137207,
          -0.4756320118904114
        ],
        [
          0.6978617906570435,
          -0.701659083366394
        ],
        [
          -0.5400227308273315,
          0.08715943992137909
        ],
        [
          -0.7091357707977295,
          0.12956272065639496
        ],
        [
          2.3839762210845947,
          2.0647058486938477
        ],
        [
          0.746606707572937,
          0.9653914570808411
        ],
        [
          0.33587533235549927,
          -1.2592110633850098
        ],
        [
          0.444845050573349,
          -0.473964124917984
        ],
        [
          1.8248728513717651,
          2.036801338195801
        ],
        [
          -0.11812061071395874,
          -0.12997053563594818
        ],
        [
          0.09937489777803421,
          0.034798763692379
        ],
        [
          -0.12284498661756516,
          0.030558226630091667
        ],
        [
          -0.18618075549602509,
          0.40630418062210083
        ],
        [
          0.08764412999153137,
          0.732732892036438
        ],
        [
          -0.415583997964859,
          -0.041010066866874695
        ],
        [
          0.7919139862060547,
          -0.9062292575836182
        ],
        [
          0.4772358536720276,
          -0.7402312755584717
        ],
        [
          -0.15799981355667114,
          0.4914498031139374
        ],
        [
          -1.7224866151809692,
          2.300483465194702
        ],
        [
          -1.9980154037475586,
          -1.9379678964614868
        ],
        [
          1.281197428703308,
          -0.6365417838096619
        ],
        [
          1.3643208742141724,
          -0.3609766662120819
        ],
        [
          -0.6295334696769714,
          -0.30934834480285645
        ],
        [
          0.1407265067100525,
          -1.1039044857025146
        ],
        [
          0.14336968958377838,
          1.1319212913513184
        ],
        [
          -0.08092402666807175,
          0.6215280294418335
        ]
      ],
      "rows": 64,
      "cols": 2
    }
  },
  {
    "biases": {
      "data": [
        [-0.33739638328552246],
        [0.3373972773551941]
      ],
      "rows": 2,
      "cols": 1
    },
    "bias": 1,
    "weights": {
      "data": [
        [
          0.44902071356773376,
          0.18376928567886353,
          0.07300888001918793,
          -0.37891069054603577,
          -0.04433022439479828,
          -0.6621579527854919,
          -0.30136168003082275,
          3.0452396869659424,
          -0.05665481835603714,
          1.5914692878723145,
          0.14631475508213043,
          0.05042998492717743,
          0.5926666855812073,
          0.6342076659202576,
          -2.453481435775757,
          -0.23815356194972992,
          -0.6069713234901428,
          -0.20093491673469543,
          -0.26518842577934265,
          -4.422581195831299,
          0.8224546909332275,
          -0.4259834289550781,
          -0.203809455037117,
          0.2857510447502136,
          -1.5582133531570435,
          0.4888042211532593,
          0.036192167550325394,
          -0.5607864856719971,
          0.18072453141212463,
          0.3434290289878845,
          3.2097432613372803,
          -1.0262335538864136,
          0.6566516160964966,
          -0.04746668040752411,
          -1.0955471992492676,
          0.22302274405956268,
          0.3295227587223053,
          2.657655715942383,
          -1.5474799871444702,
          0.24495850503444672,
          -0.3693724572658539,
          0.6139045357704163,
          2.6900062561035156,
          0.4569997489452362,
          0.49839577078819275,
          0.7405173778533936,
          2.968240261077881,
          -0.2625565826892853,
          0.37619829177856445,
          -0.43893489241600037,
          -0.1905001401901245,
          -0.12692385911941528,
          0.058200497180223465,
          0.31039825081825256,
          -0.20232799649238586,
          -0.4059057831764221,
          -2.0494868755340576,
          2.6368463039398193,
          -0.862949788570404,
          -0.6227906346321106,
          0.04906363785266876,
          0.006790671963244677,
          -1.016540765762329,
          0.09271632879972458
        ],
        [
          0.4778761863708496,
          -0.03900156542658806,
          -0.5457792282104492,
          -0.2271663248538971,
          0.06563223898410797,
          -0.45347365736961365,
          -0.16985175013542175,
          -1.8743199110031128,
          0.008730649016797543,
          -2.9208524227142334,
          -0.22367531061172485,
          -0.2505646347999573,
          0.3126705586910248,
          0.23601435124874115,
          3.651886463165283,
          -0.07873176038265228,
          0.5673084259033203,
          0.008746519684791565,
          -0.5272195339202881,
          4.074774742126465,
          0.4569842517375946,
          -0.2637948989868164,
          -0.04418274387717247,
          0.41640999913215637,
          0.5014216899871826,
          -0.022869622334837914,
          0.14766913652420044,
          0.3583333492279053,
          0.37411296367645264,
          0.5550874471664429,
          -3.08020281791687,
          0.4685041308403015,
          0.2608506381511688,
          -0.5268770456314087,
          -0.009562144987285137,
          1.2652937173843384,
          -0.3364828824996948,
          -2.2133772373199463,
          1.6547929048538208,
          0.41929736733436584,
          -0.5543425679206848,
          0.09477850794792175,
          -3.1886227130889893,
          0.7634088397026062,
          0.823156476020813,
          0.06968684494495392,
          -2.3425021171569824,
          0.09740866720676422,
          -0.09200142323970795,
          0.15082800388336182,
          0.43388816714286804,
          0.2852518856525421,
          0.6113847494125366,
          -0.044130973517894745,
          0.22817037999629974,
          -0.37468641996383667,
          1.4425956010818481,
          -2.141636610031128,
          1.5645101070404053,
          0.25914719700813293,
          0.32304415106773376,
          0.1614028811454773,
          -0.3688792288303375,
          0.46243464946746826
        ]
      ],
      "rows": 2,
      "cols": 64
    }
  }
]