[
  {
    "biases": {
      "data": [],
      "rows": 0,
      "cols": 1
    },
    "bias": 1,
    "weights": {
      "data": [],
      "rows": 0,
      "cols": 0
    }
  },
  {
    "biases": {
      "data": [
        [0.004878983832895756],
        [-0.04650562256574631],
        [0.9779596328735352],
        [1.2673182487487793],
        [-0.2737644612789154],
        [-0.1904178261756897],
        [0.15296946465969086],
        [0.01465901080518961],
        [-0.13374543190002441],
        [0.0639452263712883],
        [0.3199571967124939],
        [0.022862782701849937],
        [-0.24165686964988708],
        [0.20589472353458405],
        [-0.09274224936962128],
        [-0.5356478095054626],
        [0.08525969088077545],
        [3.102233409881592],
        [0.1345648616552353],
        [3.2976417541503906],
        [0.24191711843013763],
        [-0.21840567886829376],
        [0.14827384054660797],
        [-0.786033034324646],
        [2.2518677711486816],
        [-0.07644300907850266],
        [-0.12474393844604492],
        [-0.14300674200057983],
        [-0.7599998712539673],
        [0.05412432551383972],
        [0.6136538982391357],
        [-0.2898356318473816],
        [4.424862384796143],
        [-0.24975818395614624],
        [-0.29434260725975037],
        [0.2849344313144684],
        [-0.1261410266160965],
        [0.04007582366466522],
        [0.3987332582473755],
        [0.4861263334751129],
        [-0.582667887210846],
        [-0.051673565059900284],
        [0.39921778440475464],
        [0.1582956612110138],
        [0.2781667709350586],
        [0.16459882259368896],
        [0.01367977075278759],
        [-0.09861686080694199],
        [-0.0012496445560827851],
        [-0.12385477870702744],
        [4.4404401779174805],
        [0.24405336380004883],
        [-0.028135918080806732],
        [-0.3203631639480591],
        [-2.4850852489471436],
        [1.8567153215408325],
        [-0.018966106697916985],
        [0.13247226178646088],
        [-0.06502427905797958],
        [0.20427678525447845],
        [0.14838194847106934],
        [-0.20024850964546204],
        [-0.12058576941490173],
        [-2.1628646850585938]
      ],
      "rows": 64,
      "cols": 1
    },
    "bias": 1,
    "weights": {
      "data": [
        [
          2.292844295501709,
          2.4842100143432617
        ],
        [
          -0.2085919976234436,
          0.37125498056411743
        ],
        [
          0.6709707975387573,
          -1.219329833984375
        ],
        [
          0.6432529091835022,
          -1.3847215175628662
        ],
        [
          1.1341339349746704,
          0.6167494654655457
        ],
        [
          -0.014458511024713516,
          0.6129986643791199
        ],
        [
          1.1098335981369019,
          -0.607239842414856
        ],
        [
          0.5587744116783142,
          0.5342305898666382
        ],
        [
          1.0572808980941772,
          -0.5811514258384705
        ],
        [
          0.5271661281585693,
          -0.7332092523574829
        ],
        [
          -1.0327613353729248,
          -0.29922160506248474
        ],
        [
          -0.5235657095909119,
          0.38700583577156067
        ],
        [
          0.2526591420173645,
          0.18974044919013977
        ],
        [
          -0.6017484068870544,
          0.19040915369987488
        ],
        [
          0.36287471652030945,
          -0.03360304981470108
        ],
        [
          -0.12075625360012054,
          1.2393430471420288
        ],
        [
          3.167057752609253,
          -2.9860575199127197
        ],
        [
          -2.349393606185913,
          -4.250279426574707
        ],
        [
          -0.22305601835250854,
          -0.39574676752090454
        ],
        [
          -6.153366565704346,
          -3.0617148876190186
        ],
        [
          -0.5764764547348022,
          -0.5920926928520203
        ],
        [
          0.9449796080589294,
          -0.11276297271251678
        ],
        [
          -0.6436744928359985,
          -0.6378809213638306
        ],
        [
          0.6407009363174438,
          1.5124287605285645
        ],
        [
          -0.4985835552215576,
          2.5685110092163086
        ],
        [
          0.6027594208717346,
          -0.5055126547813416
        ],
        [
          0.22735214233398438,
          0.6244913935661316
        ],
        [
          0.7706853747367859,
          -0.3238051235675812
        ],
        [
          -0.21958348155021667,
          -0.5319530963897705
        ],
        [
          -0.40464332699775696,
          0.09268215298652649
        ],
        [
          -1.1642420291900635,
          0.3213199973106384
        ],
        [
          0.23211587965488434,
          0.8270570635795593
        ],
        [
          -5.325525283813477,
          -5.986668109893799
        ],
        [
          -0.22338488698005676,
          0.8635038733482361
        ],
        [
          -0.6167781949043274,
          0.959378719329834
        ],
        [
          -0.20041513442993164,
          2.83583402633667
        ],
        [
          -0.3219600319862366,
          0.7548003792762756
        ],
        [
          -0.19435076415538788,
          0.38366714119911194
        ],
        [
          0.33652177453041077,
          -1.0043435096740723
        ],
        [
          -0.997963011264801,
          -1.187183141708374
        ],
        [
          0.6926000118255615,
          1.3434216976165771
        ],
        [
          0.43367698788642883,
          -0.059940747916698456
        ],
        [
          -0.7456890940666199,
          1.1086326837539673
        ],
        [
          0.11718876659870148,
          -0.6393673419952393
        ],
        [
          -0.7674635052680969,
          -1.0019450187683105
        ],
        [
          -0.3559110164642334,
          0.005783294793218374
        ],
        [
          0.3504810035228729,
          -0.5214912295341492
        ],
        [
          1.0453985929489136,
          -0.4741530120372772
        ],
        [
          -0.6140801310539246,
          0.62754225730896
        ],
        [
          -0.019097521901130676,
          0.3411765694618225
        ],
        [
          -1.1912928819656372,
          -6.0740790367126465
        ],
        [
          -2.6819748878479004,
          -0.6484735012054443
        ],
        [
          -0.5902686715126038,
          0.5818847417831421
        ],
        [
          0.8863275051116943,
          0.03681359440088272
        ],
        [
          3.4540627002716064,
          1.3552876710891724
        ],
        [
          0.37729719281196594,
          1.8936142921447754
        ],
        [
          -0.022765370085835457,
          -0.5356982946395874
        ],
        [
          0.6283302903175354,
          0.5092212557792664
        ],
        [
          -1.714904546737671,
          -2.192167282104492
        ],
        [
          -0.1836659461259842,
          -0.5790795683860779
        ],
        [
          0.2619393467903137,
          -0.7203075885772705
        ],
        [
          0.8631325364112854,
          0.9780842065811157
        ],
        [
          0.7547752261161804,
          -0.3458232879638672
        ],
        [
          1.7899490594863892,
          -1.6621695756912231
        ]
      ],
      "rows": 64,
      "cols": 2
    }
  },
  {
    "biases": {
      "data": [
        [0.4807387888431549],
        [0.008858994580805302]
      ],
      "rows": 2,
      "cols": 1
    },
    "bias": 1,
    "weights": {
      "data": [
        [
          -0.9085782766342163,
          -0.10295338183641434,
          -0.22487831115722656,
          -0.32998520135879517,
          0.11490150541067123,
          -0.07247290015220642,
          0.3279290795326233,
          0.31247472763061523,
          -0.1582457423210144,
          -0.2471826672554016,
          0.39502060413360596,
          -0.27945855259895325,
          -0.512561559677124,
          0.13245411217212677,
          0.2183658629655838,
          0.26299136877059937,
          -0.9421445727348328,
          -2.472956657409668,
          0.034614332020282745,
          -1.8093167543411255,
          0.32706841826438904,
          0.35144495964050293,
          -0.43358728289604187,
          0.7047301530838013,
          0.6130703687667847,
          -0.09421328455209732,
          0.47080934047698975,
          0.14643357694149017,
          -0.48234912753105164,
          -0.3704420030117035,
          0.4049840569496155,
          -0.0865316167473793,
          2.3552892208099365,
          -0.19925859570503235,
          0.04521244764328003,
          -1.1389615535736084,
          0.08639663457870483,
          0.22697530686855316,
          0.37000373005867004,
          -0.6297394633293152,
          -0.09403355419635773,
          0.5321500897407532,
          -0.6655577421188354,
          0.13436944782733917,
          -0.31406116485595703,
          0.04593416303396225,
          2.0799250341951847E-4,
          0.16074562072753906,
          0.11717570573091507,
          -0.1197059154510498,
          1.8060588836669922,
          0.19046449661254883,
          0.06981312483549118,
          -0.151719868183136,
          -1.0568807125091553,
          0.9059625267982483,
          -0.6233320832252502,
          0.7092897295951843,
          0.7124696969985962,
          0.17939265072345734,
          0.14674365520477295,
          0.7148509621620178,
          0.036709390580654144,
          1.427390217781067
        ],
        [
          0.910727858543396,
          -0.07154740393161774,
          0.10475072264671326,
          0.2335772067308426,
          -0.17185650765895844,
          -0.09434813261032104,
          0.37344446778297424,
          -0.22176535427570343,
          -0.19944964349269867,
          -0.4101746082305908,
          0.4743574559688568,
          -0.21459124982357025,
          -0.556016206741333,
          0.1656879037618637,
          0.22745437920093536,
          0.24953089654445648,
          0.9403917193412781,
          2.4949464797973633,
          0.16725051403045654,
          1.8223057985305786,
          0.5368764996528625,
          0.3805815577507019,
          -0.03156271204352379,
          -0.015834277495741844,
          -0.7470604777336121,
          -0.2294662892818451,
          0.27855753898620605,
          0.0967995896935463,
          0.7035871148109436,
          -0.3023419678211212,
          0.19654498994350433,
          -0.2541913092136383,
          -2.357071876525879,
          -0.1331464648246765,
          0.20655205845832825,
          1.270043134689331,
          0.19207577407360077,
          0.23099662363529205,
          0.3137888014316559,
          0.35232701897621155,
          -0.7455957531929016,
          0.5236295461654663,
          -0.06388992816209793,
          0.12304062396287918,
          0.47786596417427063,
          0.06770412623882294,
          -0.06815604865550995,
          0.15988825261592865,
          0.272798091173172,
          -0.12507934868335724,
          -1.8038525581359863,
          -0.001263196812942624,
          0.16042672097682953,
          -0.05190189182758331,
          1.0499087572097778,
          -0.962024450302124,
          -0.4993952810764313,
          0.025297468528151512,
          -0.6072667241096497,
          0.3041954040527344,
          0.08107759803533554,
          -0.27230075001716614,
          0.03161818906664848,
          -1.4863258600234985
        ]
      ],
      "rows": 2,
      "cols": 64
    }
  }
]