[
  {
    "biases": {
      "data": [
        [1.3913441896438599],
        [0.8949121832847595],
        [-1.051864743232727],
        [1.1248220205307007],
        [1.1315892934799194],
        [-0.6862086057662964],
        [-0.8867843747138977],
        [-0.3911793529987335],
        [1.1252086162567139],
        [0.9930288791656494],
        [-0.9338057637214661],
        [1.151349663734436],
        [1.103071928024292],
        [-0.7250949740409851],
        [1.292784571647644],
        [-1.1015881299972534],
        [-0.9005771279335022],
        [-1.0559169054031372],
        [0.9404969811439514],
        [-1.2022086381912231],
        [-0.5728272199630737],
        [-0.8844773173332214],
        [-0.9961032867431641],
        [-1.008148431777954],
        [1.038606882095337],
        [-0.7280928492546082],
        [-0.9306321740150452],
        [-0.07604850083589554],
        [1.0237257480621338],
        [-1.0899313688278198],
        [-0.9071251153945923],
        [-0.8803605437278748],
        [0.9366217255592346],
        [-1.0630823373794556],
        [0.9906610250473022],
        [1.0481616258621216],
        [1.2200220823287964],
        [1.143515706062317],
        [1.1131302118301392],
        [-0.9009683728218079],
        [0.872011661529541],
        [1.0166198015213013],
        [-0.9338142275810242],
        [1.0127298831939697],
        [-0.9935804605484009],
        [-1.0705127716064453],
        [-1.1156306266784668],
        [-1.0775816440582275],
        [1.2098337411880493],
        [-0.9599126577377319],
        [0.916278600692749],
        [-1.0684667825698853],
        [0.9283398985862732],
        [0.9262332916259766],
        [-1.240682601928711],
        [0.8570520877838135],
        [0.9448889493942261],
        [-0.9404056072235107],
        [0.8924487829208374],
        [1.144992709159851],
        [-0.8384784460067749],
        [0.9890437722206116],
        [-1.1429871320724487],
        [-1.0184489488601685]
      ],
      "rows": 64,
      "cols": 1
    },
    "bias": 1,
    "weights": {
      "data": [
        [
          -1.2501801252365112,
          -1.456053614616394
        ],
        [
          1.2294753789901733,
          0.6647071242332458
        ],
        [
          0.27340081334114075,
          -1.1542340517044067
        ],
        [
          1.8918099403381348,
          0.8977475166320801
        ],
        [
          0.22889889776706696,
          -2.3089520931243896
        ],
        [
          0.7032809853553772,
          -0.15019327402114868
        ],
        [
          -0.5152522325515747,
          -1.270993709564209
        ],
        [
          2.0207371711730957,
          -0.8146064281463623
        ],
        [
          -2.1096508502960205,
          -0.06221584975719452
        ],
        [
          -0.4552654027938843,
          1.2569934129714966
        ],
        [
          -0.5369378924369812,
          0.10888832807540894
        ],
        [
          -2.263256788253784,
          0.012098063714802265
        ],
        [
          -0.06407380849123001,
          -2.065626859664917
        ],
        [
          0.7316640019416809,
          0.7942749857902527
        ],
        [
          -2.0514895915985107,
          0.6745461225509644
        ],
        [
          -0.44647666811943054,
          -1.0071253776550293
        ],
        [
          0.6377630233764648,
          -1.0693259239196777
        ],
        [
          -0.7113124132156372,
          0.9835554361343384
        ],
        [
          1.0598533153533936,
          0.5827463269233704
        ],
        [
          0.019016871228814125,
          -0.9459938406944275
        ],
        [
          -0.6607582569122314,
          1.983026146888733
        ],
        [
          -1.0918400287628174,
          -0.39599373936653137
        ],
        [
          -1.1640856266021729,
          0.9284984469413757
        ],
        [
          -0.12108898907899857,
          0.7713669538497925
        ],
        [
          0.664609968662262,
          -0.4308239817619324
        ],
        [
          0.6990669369697571,
          0.7411600947380066
        ],
        [
          0.8829987049102783,
          0.9199687242507935
        ],
        [
          1.6171367168426514,
          -0.871230959892273
        ],
        [
          0.8029462099075317,
          -0.32330217957496643
        ],
        [
          0.15043789148330688,
          1.2594295740127563
        ],
        [
          -0.5202009677886963,
          -1.933765172958374
        ],
        [
          -0.36657312512397766,
          -1.2574790716171265
        ],
        [
          -0.8019117116928101,
          -1.0371389389038086
        ],
        [
          -1.2253626585006714,
          0.34274062514305115
        ],
        [
          0.9312817454338074,
          0.07650469243526459
        ],
        [
          -0.11838427931070328,
          -0.9152216911315918
        ],
        [
          -0.1685025840997696,
          -1.0394444465637207
        ],
        [
          -1.3200836181640625,
          1.3225655555725098
        ],
        [
          -0.8484547734260559,
          1.3643513917922974
        ],
        [
          0.2896749973297119,
          -1.088435173034668
        ],
        [
          -0.48614203929901123,
          0.5391017198562622
        ],
        [
          1.9262800216674805,
          0.9368561506271362
        ],
        [
          -0.49982404708862305,
          -1.4749085903167725
        ],
        [
          0.7084083557128906,
          0.02652524597942829
        ],
        [
          0.9492414593696594,
          1.428585171699524
        ],
        [
          -0.5161853432655334,
          1.0877742767333984
        ],
        [
          1.1909441947937012,
          0.12061557173728943
        ],
        [
          0.6149635314941406,
          0.1521478295326233
        ],
        [
          -0.7628747224807739,
          0.21029870212078094
        ],
        [
          -1.254928708076477,
          1.4432462453842163
        ],
        [
          -0.7426590323448181,
          0.8798729777336121
        ],
        [
          0.8632588982582092,
          0.0012538303853943944
        ],
        [
          -0.7835147380828857,
          0.5280003547668457
        ],
        [
          -0.5210583209991455,
          -0.30240607261657715
        ],
        [
          -0.8072540163993835,
          -0.4498179256916046
        ],
        [
          -0.07218139618635178,
          -0.2030622810125351
        ],
        [
          1.6901072263717651,
          -1.2689779996871948
        ],
        [
          1.0309311151504517,
          0.7969080805778503
        ],
        [
          -0.662276566028595,
          -0.06906130909919739
        ],
        [
          1.0266737937927246,
          -0.47678691148757935
        ],
        [
          0.10348337143659592,
          -0.7534298300743103
        ],
        [
          -1.016261100769043,
          1.442724585533142
        ],
        [
          1.3284536600112915,
          1.5050876140594482
        ],
        [
          0.6695036292076111,
          -0.18755947053432465
        ]
      ],
      "rows": 64,
      "cols": 2
    }
  },
  {
    "biases": {
      "data": [
        [0.996638298034668],
        [-0.9647330045700073],
        [0.8252112865447998],
        [-0.9769960045814514],
        [-0.9683724045753479],
        [0.958415687084198],
        [-1.0639320611953735],
        [1.0256015062332153],
        [0.9085362553596497],
        [-1.084376573562622],
        [-0.976577877998352],
        [0.9719863533973694],
        [-1.1611380577087402],
        [-1.0077941417694092],
        [0.9696756601333618],
        [0.9556578993797302],
        [1.0762743949890137],
        [0.9759526252746582],
        [0.9547319412231445],
        [0.9529289603233337],
        [-0.914898693561554],
        [0.9983203411102295],
        [0.7661664485931396],
        [-0.9765135049819946],
        [-1.105010986328125],
        [0.9715965390205383],
        [0.9439494013786316],
        [-1.0457639694213867],
        [0.9636983275413513],
        [-0.9864667057991028],
        [0.9692416191101074],
        [-1.113358974456787],
        [0.8782208561897278],
        [-0.9908820986747742],
        [-0.9831467270851135],
        [-1.1417139768600464],
        [0.9702831506729126],
        [-1.0470319986343384],
        [-1.0677263736724854],
        [1.0972365140914917],
        [1.110891580581665],
        [-1.050826072692871],
        [-1.0454908609390259],
        [0.9569182991981506],
        [-1.0681350231170654],
        [1.0887956619262695],
        [-0.9588401913642883],
        [0.8675290942192078],
        [-1.0115171670913696],
        [0.9329067468643188],
        [0.9623932242393494],
        [-1.015248417854309],
        [0.960234522819519],
        [-1.0728703737258911],
        [-1.068519949913025],
        [0.973810076713562],
        [0.9521838426589966],
        [-1.0011558532714844],
        [-0.984513521194458],
        [-0.9760140180587769],
        [0.956348180770874],
        [-1.088879108428955],
        [1.0269694328308105],
        [0.9991399049758911]
      ],
      "rows": 64,
      "cols": 1
    },
    "bias": 1,
    "weights": {
      "data": [
        [
          0.9807987809181213,
          0.11005855351686478,
          -1.0439097881317139,
          -1.576068639755249,
          -1.1024965047836304,
          -1.4019795656204224,
          0.948587954044342,
          -1.2746881246566772,
          -1.4192287921905518,
          -1.4283963441848755,
          0.5956277251243591,
          -0.8469704985618591,
          -1.3421266078948975,
          1.334009051322937,
          -0.7291117310523987,
          -1.2542986869812012,
          1.2682154178619385,
          -0.8398282527923584,
          0.12748944759368896,
          0.5529116988182068,
          -1.4673031568527222,
          0.9210146069526672,
          0.4382839798927307,
          0.6565701365470886,
          1.0192790031433105,
          -0.8780844807624817,
          -1.159287691116333,
          0.6668156981468201,
          -0.24144797027111053,
          1.0310287475585938,
          1.4154576063156128,
          1.5997382402420044,
          1.1909087896347046,
          1.534696340560913,
          1.1022920608520508,
          1.5240390300750732,
          -1.0260695219039917,
          -0.4841627776622772,
          -1.6425061225891113,
          0.5687624216079712,
          -0.11008758842945099,
          1.1498796939849854,
          0.2598646581172943,
          -1.2637864351272583,
          -0.2582198977470398,
          0.738020658493042,
          1.0570833683013916,
          1.1514239311218262,
          -0.1879889816045761,
          1.1537116765975952,
          -0.8110998868942261,
          -0.9268310070037842,
          0.34663647413253784,
          0.37907907366752625,
          0.4957849681377411,
          0.8736607432365417,
          1.2549642324447632,
          -1.4230619668960571,
          -1.3170220851898193,
          -1.219771146774292,
          -0.23423929512500763,
          -0.3029715120792389,
          0.15502110123634338,
          0.5271546244621277
        ],
        [
          -0.9080379605293274,
          -0.9160668253898621,
          -1.0063726902008057,
          -0.7257018685340881,
          0.6293146014213562,
          -1.5935261249542236,
          -0.6664713621139526,
          0.9076219797134399,
          0.2536070942878723,
          0.4412522614002228,
          0.9646978378295898,
          -0.034169673919677734,
          1.0821412801742554,
          0.48897892236709595,
          -0.4149051904678345,
          -0.17339077591896057,
          1.105812430381775,
          1.0661413669586182,
          1.7167476415634155,
          -0.7569893002510071,
          -0.20821870863437653,
          0.05449569970369339,
          1.1152706146240234,
          -1.355952501296997,
          1.3946324586868286,
          0.6222760677337646,
          -1.4015811681747437,
          -0.052606213837862015,
          -0.5543516874313354,
          -1.287690281867981,
          -0.10073493421077728,
          -0.7494756579399109,
          -0.9076555371284485,
          -1.1981650590896606,
          0.4351390302181244,
          -1.2813383340835571,
          0.38125720620155334,
          1.84433114528656,
          -0.4981260597705841,
          -0.3314380943775177,
          -0.6584650874137878,
          -0.9874820709228516,
          -1.3283735513687134,
          -1.4558510780334473,
          0.18473972380161285,
          -0.43818196654319763,
          -0.9285224676132202,
          -1.3049554824829102,
          1.7739732265472412,
          -0.7394809722900391,
          -0.41293656826019287,
          -0.9715197682380676,
          -1.0724672079086304,
          -0.22613826394081116,
          -1.2087469100952148,
          1.1331167221069336,
          -1.7788995504379272,
          -1.2121078968048096,
          -0.38565316796302795,
          -1.0698124170303345,
          -1.066209077835083,
          -1.285356044769287,
          -0.6357319355010986,
          -1.8578944206237793
        ],
        [
          0.2679588198661804,
          -0.3339405953884125,
          1.4974416494369507,
          -1.5037522315979004,
          -1.3019192218780518,
          0.9147290587425232,
          0.707263171672821,
          -2.8194708824157715,
          -0.035931557416915894,
          1.527174472808838,
          0.3046265244483948,
          -0.4670928120613098,
          -2.3355324268341064,
          1.0978058576583862,
          -1.107345461845398,
          0.22226466238498688,
          0.5291932225227356,
          1.7406476736068726,
          1.0282056331634521,
          -0.5754982829093933,
          1.311010718345642,
          0.3786296844482422,
          1.9908630847930908,
          -0.5406403541564941,
          -0.2668560743331909,
          2.7943856716156006,
          1.4529238939285278,
          -1.6075420379638672,
          -0.5389386415481567,
          1.377897024154663,
          -0.9905686378479004,
          -0.7497196197509766,
          -0.12268315255641937,
          1.853027105331421,
          1.2682173252105713,
          -0.14822719991207123,
          -1.874018669128418,
          1.5460896492004395,
          1.3284708261489868,
          0.6184467673301697,
          -0.14400869607925415,
          -1.522912621498108,
          0.0681486502289772,
          -0.3557984530925751,
          0.8530874252319336,
          1.3399838209152222,
          1.0649548768997192,
          -0.32563158869743347,
          0.2672885060310364,
          1.9556127786636353,
          1.7932385206222534,
          1.30910325050354,
          1.3180205821990967,
          -1.235363245010376,
          0.17790649831295013,
          1.3935356140136719,
          0.26349666714668274,
          1.2393563985824585,
          0.6372603178024292,
          -1.027278184890747,
          0.606674075126648,
          -0.48413002490997314,
          -0.5145999789237976,
          1.6053403615951538
        ],
        [
          0.6638807058334351,
          -0.05647919699549675,
          -0.05345544219017029,
          -0.9565030336380005,
          0.5035319328308105,
          -1.2812448740005493,
          -0.2267630398273468,
          0.6975187063217163,
          0.307491272687912,
          0.01947493478655815,
          0.4773954153060913,
          1.267037272453308,
          0.62907475233078,
          -0.6440637111663818,
          -1.1503067016601562,
          1.3245607614517212,
          -1.3062094449996948,
          0.025004955008625984,
          -1.2088534832000732,
          0.9869384169578552,
          0.7858555316925049,
          0.5363157987594604,
          -1.6529368162155151,
          0.08928763121366501,
          -1.1596606969833374,
          -0.8315808176994324,
          -0.016310159116983414,
          -1.3139060735702515,
          1.8113396167755127,
          -0.9463926553726196,
          1.3646745681762695,
          -1.0548040866851807,
          -1.1671874523162842,
          -0.9749651551246643,
          1.2439759969711304,
          0.14881138503551483,
          1.2602077722549438,
          -0.8511178493499756,
          -1.5759025812149048,
          1.5108635425567627,
          0.7815309762954712,
          -0.22191691398620605,
          1.0630744695663452,
          1.4591923952102661,
          -0.9955617189407349,
          0.06062396615743637,
          -0.9199602603912354,
          0.8582423329353333,
          -0.11012514680624008,
          0.046457234770059586,
          -1.4467605352401733,
          0.03921519219875336,
          -0.4927966892719269,
          0.382636159658432,
          -0.6116620898246765,
          1.726715087890625,
          -1.628904104232788,
          1.0689584016799927,
          1.3825129270553589,
          -0.1666325181722641,
          1.6201728582382202,
          -0.575687050819397,
          -0.856957197189331,
          0.6306849718093872
        ],
        [
          -1.1970523595809937,
          0.164977565407753,
          -1.350364327430725,
          0.8143953084945679,
          1.1258862018585205,
          0.1291748583316803,
          0.9841904044151306,
          -0.5555492043495178,
          -0.01843462884426117,
          0.23222430050373077,
          -0.08810494840145111,
          0.3244268298149109,
          0.9570863842964172,
          -1.3416613340377808,
          1.2788121700286865,
          1.4310364723205566,
          1.210324764251709,
          -1.621821641921997,
          -0.1502673476934433,
          -1.1839487552642822,
          -0.06753527373075485,
          0.8888177871704102,
          0.13833586871623993,
          1.432020902633667,
          1.7061129808425903,
          -0.9290536046028137,
          -1.3285090923309326,
          0.5743851065635681,
          0.9658890962600708,
          -1.1436783075332642,
          -1.123304009437561,
          0.30239713191986084,
          -0.9226253032684326,
          -0.008054441772401333,
          0.16161660850048065,
          1.3391724824905396,
          0.6208332777023315,
          -0.4004177749156952,
          1.455887794494629,
          -0.6180262565612793,
          -0.18436941504478455,
          -1.3234695196151733,
          -1.5044301748275757,
          0.0716867670416832,
          -1.0489760637283325,
          0.4715180993080139,
          -0.935119092464447,
          0.9585485458374023,
          0.6608535051345825,
          -1.5734106302261353,
          -0.8043773174285889,
          -0.8727302551269531,
          -1.194647192955017,
          1.091765284538269,
          0.864284098148346,
          0.2726466953754425,
          -0.05109160393476486,
          -1.1786003112792969,
          1.2541176080703735,
          0.0030797047074884176,
          -0.4853343665599823,
          0.7043376564979553,
          1.23575758934021,
          -0.3309827148914337
        ],
        [
          0.4710748493671417,
          1.1774705648422241,
          -1.5443168878555298,
          0.700462281703949,
          -0.4488905966281891,
          0.19731177389621735,
          1.5424168109893799,
          0.747054398059845,
          -1.5984028577804565,
          -1.0582913160324097,
          -0.4656328856945038,
          -0.033073801547288895,
          -1.3883583545684814,
          -0.5290929079055786,
          -1.319186806678772,
          -0.7535072565078735,
          0.02741890773177147,
          -1.4900847673416138,
          -0.41119760274887085,
          -1.6891361474990845,
          0.06740931421518326,
          0.4431757926940918,
          1.5234065055847168,
          -1.1608672142028809,
          -0.9926772713661194,
          1.199879765510559,
          1.6843255758285522,
          0.9268205761909485,
          1.6630781888961792,
          0.7139607071876526,
          -0.49078094959259033,
          0.4455423355102539,
          -0.543250322341919,
          0.6041881442070007,
          -0.2242394983768463,
          0.6608636975288391,
          -1.6371073722839355,
          0.5256317853927612,
          -0.9162859916687012,
          0.8165217041969299,
          1.4729121923446655,
          -0.0493059977889061,
          0.7001426219940186,
          1.4693748950958252,
          -0.9612590670585632,
          -0.8478369116783142,
          0.9758535027503967,
          0.7432114481925964,
          -0.18123868107795715,
          -0.5648536086082458,
          1.434028148651123,
          -0.14803290367126465,
          0.9645649790763855,
          0.4973834156990051,
          1.1514674425125122,
          -0.9267348051071167,
          1.2335580587387085,
          -1.430446743965149,
          1.0326313972473145,
          -1.5184189081192017,
          -0.18157219886779785,
          -1.4063647985458374,
          -1.2931427955627441,
          -1.5125588178634644
        ],
        [
          -0.9264816641807556,
          -1.2576841115951538,
          -0.20560592412948608,
          -1.4121317863464355,
          0.9863791465759277,
          1.2322522401809692,
          -1.172249674797058,
          -0.6893827319145203,
          0.12055636942386627,
          0.6861065030097961,
          -0.38558387756347656,
          0.204327791929245,
          0.9364089965820312,
          1.2991267442703247,
          -1.0872092247009277,
          -1.1772392988204956,
          0.35347816348075867,
          0.8959047794342041,
          -0.499111533164978,
          -1.4065308570861816,
          0.17776833474636078,
          0.679213285446167,
          -0.9620435237884521,
          -0.7048496603965759,
          -0.3264560401439667,
          0.6573299169540405,
          1.136292576789856,
          1.0462692975997925,
          -0.7221838235855103,
          -0.8446398973464966,
          0.06749401241540909,
          0.8659155368804932,
          -0.0899554118514061,
          0.4845379590988159,
          0.2560029923915863,
          -0.5838069319725037,
          -1.2506004571914673,
          -0.8617672920227051,
          -0.6884341239929199,
          -1.6204979419708252,
          -0.3611850440502167,
          -0.10898561030626297,
          -1.0980885028839111,
          0.28268104791641235,
          -0.6101982593536377,
          1.4883254766464233,
          -0.8554215431213379,
          1.2957568168640137,
          -1.1567736864089966,
          -0.371181845664978,
          1.5826557874679565,
          0.5180034041404724,
          0.25712570548057556,
          -1.555451512336731,
          0.4149330258369446,
          -1.2447192668914795,
          0.5444377660751343,
          0.32166916131973267,
          0.2725589871406555,
          -0.19463826715946198,
          0.8983386158943176,
          0.24300755560398102,
          1.2323967218399048,
          0.5684618353843689
        ],
        [
          1.9858229160308838,
          0.72291100025177,
          -1.0984220504760742,
          -0.30875253677368164,
          0.8812614679336548,
          -0.6562444567680359,
          0.823914647102356,
          -0.4908473789691925,
          0.5448688268661499,
          0.14511600136756897,
          1.569872498512268,
          0.8626266717910767,
          1.6012760400772095,
          -1.0085744857788086,
          0.5229869484901428,
          -1.0133146047592163,
          1.2229546308517456,
          0.13009652495384216,
          -1.334122896194458,
          -1.0235103368759155,
          -0.424757719039917,
          0.23655657470226288,
          -0.3287535309791565,
          -0.3772079348564148,
          1.6152443885803223,
          -0.5764469504356384,
          -0.6472899317741394,
          -0.10252854973077774,
          -1.3117235898971558,
          1.130296230316162,
          -0.1868145912885666,
          -1.4047075510025024,
          1.8306293487548828,
          -1.7573387622833252,
          0.45073068141937256,
          1.0557982921600342,
          -0.6183814406394958,
          -0.03352193534374237,
          0.591788113117218,
          -0.9116063714027405,
          0.24284015595912933,
          -1.089227557182312,
          0.9179949760437012,
          0.8285797834396362,
          -0.1614726483821869,
          0.8706101775169373,
          1.0055999755859375,
          0.5019143223762512,
          -1.4422284364700317,
          0.48124077916145325,
          -0.9073495864868164,
          -1.1954509019851685,
          0.12988319993019104,
          -0.2872203290462494,
          1.3563514947891235,
          -0.03482384607195854,
          0.6061070561408997,
          0.6119100451469421,
          -1.5238970518112183,
          0.4384746253490448,
          -1.0115875005722046,
          -1.7701442241668701,
          -1.1909337043762207,
          -0.2422897070646286
        ],
        [
          0.8221331238746643,
          -1.6560724973678589,
          0.5391541123390198,
          0.6663825511932373,
          -1.1438733339309692,
          0.6086730360984802,
          -0.2617740333080292,
          -1.5282559394836426,
          -0.847110390663147,
          1.6364859342575073,
          0.7283156514167786,
          -0.45008471608161926,
          -0.9402085542678833,
          1.0595002174377441,
          -1.0374360084533691,
          1.7727729082107544,
          -0.3487960994243622,
          0.807941198348999,
          -0.41794779896736145,
          -1.468573808670044,
          0.8625205755233765,
          -1.4563822746276855,
          -0.9704488515853882,
          1.9562984704971313,
          -0.7646495699882507,
          1.1465574502944946,
          0.2149922102689743,
          -1.6657782793045044,
          -1.6238529682159424,
          0.9669321179389954,
          -0.0015577730955556035,
          -1.495587944984436,
          1.1933401823043823,
          -1.4303122758865356,
          -1.445481777191162,
          0.890871524810791,
          -0.3000619113445282,
          -0.5288701057434082,
          1.5405014753341675,
          0.31982412934303284,
          -1.6034313440322876,
          1.2175631523132324,
          -1.1461502313613892,
          -0.47668734192848206,
          0.3386674225330353,
          0.6417703032493591,
          1.0828349590301514,
          -0.6146298050880432,
          0.2862701714038849,
          1.9644569158554077,
          0.9924351572990417,
          0.1735687106847763,
          0.8741239309310913,
          -0.9901253581047058,
          1.7570984363555908,
          -0.3439863324165344,
          -2.142247438430786,
          0.2006286382675171,
          1.4297418594360352,
          1.0316468477249146,
          -0.5167234539985657,
          1.034633755683899,
          0.5539297461509705,
          -1.6577870845794678
        ],
        [
          -1.5486987829208374,
          -1.338334083557129,
          0.21526359021663666,
          0.5776394605636597,
          1.0178585052490234,
          -0.4113343358039856,
          1.4794853925704956,
          0.7057086229324341,
          1.4920430183410645,
          1.557023048400879,
          -0.9628363847732544,
          1.5971194505691528,
          0.47200313210487366,
          -0.8851141929626465,
          1.140329360961914,
          0.5542737245559692,
          -0.616644561290741,
          -0.010846627876162529,
          1.7762717008590698,
          1.5272759199142456,
          0.8310577273368835,
          -0.7204034328460693,
          0.3998211622238159,
          -0.3993484675884247,
          1.6050785779953003,
          0.4344301223754883,
          -1.1709734201431274,
          -1.1626272201538086,
          -1.2717399597167969,
          -1.2399928569793701,
          -0.11493362486362457,
          0.13156135380268097,
          0.2269664853811264,
          -0.05843491479754448,
          -1.097866415977478,
          0.005022101569920778,
          1.0780582427978516,
          -0.01623077318072319,
          1.1196500062942505,
          0.4424326717853546,
          -0.9726542830467224,
          -1.4058871269226074,
          -0.881009578704834,
          -1.364190697669983,
          -0.16839225590229034,
          0.3545818030834198,
          -1.4235235452651978,
          -1.4605505466461182,
          -1.1058685779571533,
          0.2925942838191986,
          -0.3794884979724884,
          0.964962363243103,
          0.7956416010856628,
          -0.9007652997970581,
          -1.3260468244552612,
          -1.4066675901412964,
          1.100362777709961,
          1.0265984535217285,
          -0.9137837290763855,
          -0.28070372343063354,
          0.7204706072807312,
          -1.002976655960083,
          -0.6662266254425049,
          -1.2723348140716553
        ],
        [
          -0.6688482165336609,
          -1.3749018907546997,
          -0.8187578916549683,
          -0.09557576477527618,
          1.2758052349090576,
          -1.5588679313659668,
          -1.0791823863983154,
          1.220622181892395,
          0.860503077507019,
          -0.9240556955337524,
          -0.8371940851211548,
          0.3042092025279999,
          0.9774234294891357,
          -1.3746002912521362,
          -0.11737462133169174,
          -1.1384742259979248,
          1.180451512336731,
          0.36181578040122986,
          0.10749175399541855,
          -0.5410557389259338,
          1.5949996709823608,
          -0.24137692153453827,
          0.2651374340057373,
          0.1415911763906479,
          0.8029192686080933,
          0.927934467792511,
          1.3262503147125244,
          -0.8089972138404846,
          1.7878836393356323,
          -1.2541790008544922,
          -1.0053812265396118,
          -1.4607638120651245,
          -0.33081483840942383,
          -1.8366038799285889,
          0.4173908233642578,
          -1.0479657649993896,
          -0.2567085027694702,
          -0.29203280806541443,
          0.2828923463821411,
          1.346892237663269,
          0.3585587739944458,
          0.3669862747192383,
          -1.0622271299362183,
          0.7200023531913757,
          -0.3750283718109131,
          -0.8623091578483582,
          -0.9817884564399719,
          -0.9449914693832397,
          -1.3334777355194092,
          -0.09289734810590744,
          -1.2937326431274414,
          0.09436772018671036,
          0.7240793704986572,
          1.3763926029205322,
          -0.11606623232364655,
          -0.44660454988479614,
          -0.9953050017356873,
          0.8658484816551208,
          0.7232441902160645,
          -1.1679325103759766,
          1.286964774131775,
          0.5336738228797913,
          -0.5031125545501709,
          0.29515233635902405
        ],
        [
          0.30105459690093994,
          1.1054701805114746,
          0.14299702644348145,
          -1.6656140089035034,
          -0.8333194255828857,
          -0.527125358581543,
          0.9412738084793091,
          -1.630046010017395,
          -0.582060694694519,
          -0.8922262787818909,
          0.07248258590698242,
          -1.3680987358093262,
          -1.2740371227264404,
          1.488600730895996,
          0.8229054808616638,
          -1.3578591346740723,
          -0.9940978288650513,
          -0.06527317315340042,
          -1.0121551752090454,
          0.32010793685913086,
          -0.5608826875686646,
          1.7690929174423218,
          0.5273715257644653,
          1.8027323484420776,
          0.0649833157658577,
          1.1765931844711304,
          -0.09551535546779633,
          -0.054362475872039795,
          -1.2781120538711548,
          1.0867018699645996,
          -0.6488549113273621,
          -0.6618819236755371,
          0.6467480063438416,
          -0.10968887060880661,
          0.29078078269958496,
          -0.5895490646362305,
          0.8586602807044983,
          -0.330544114112854,
          -1.253522276878357,
          -1.7751649618148804,
          -1.1239122152328491,
          0.43584200739860535,
          0.2744722068309784,
          -0.5285614132881165,
          -1.6621460914611816,
          -0.9608399271965027,
          0.888592541217804,
          0.30844876170158386,
          -1.526133418083191,
          0.7670081853866577,
          0.9689407348632812,
          0.6114980578422546,
          -1.4601901769638062,
          -1.2216147184371948,
          -1.5015907287597656,
          1.165595531463623,
          -0.42740926146507263,
          -0.45593076944351196,
          0.8495489954948425,
          1.4567909240722656,
          0.7070906162261963,
          1.4273968935012817,
          -0.7514176368713379,
          -0.8676442503929138
        ],
        [
          0.2702832520008087,
          1.011162281036377,
          1.316360592842102,
          -0.8507253527641296,
          0.030128780752420425,
          -1.1798490285873413,
          1.3588274717330933,
          -0.18788576126098633,
          -0.6472708582878113,
          -0.5516313314437866,
          1.7460678815841675,
          0.8097615838050842,
          0.4039679765701294,
          0.6373770833015442,
          0.8745468258857727,
          -0.6827439665794373,
          1.3293185234069824,
          -1.3292592763900757,
          -0.628470242023468,
          -0.81180340051651,
          -0.6351490616798401,
          -1.5930938720703125,
          1.2128522396087646,
          -0.40193578600883484,
          -0.5508951544761658,
          -0.9619790315628052,
          1.1676661968231201,
          0.6212760210037231,
          0.5902102589607239,
          -1.3908272981643677,
          0.3152826428413391,
          0.9181849360466003,
          0.38669437170028687,
          -1.0432318449020386,
          -0.5029245018959045,
          0.5138462781906128,
          1.0767326354980469,
          0.3997432589530945,
          0.11681899428367615,
          -1.1966456174850464,
          -0.2535764276981354,
          -1.0862319469451904,
          1.2636990547180176,
          -0.25901076197624207,
          1.0249760150909424,
          1.5463709831237793,
          -1.3042985200881958,
          0.053769055753946304,
          -1.0019971132278442,
          -0.26281142234802246,
          1.121967077255249,
          1.3216975927352905,
          1.2181559801101685,
          1.5226123332977295,
          0.6492534279823303,
          -0.4987596869468689,
          0.2026861608028412,
          -0.9075644016265869,
          -0.7030431628227234,
          -0.9987108707427979,
          -1.1704964637756348,
          -0.3698412775993347,
          0.6013075113296509,
          -0.3134869635105133
        ],
        [
          0.12896442413330078,
          1.565170407295227,
          0.40722033381462097,
          0.6020651459693909,
          1.0636199712753296,
          1.1797168254852295,
          0.20244309306144714,
          0.8604208827018738,
          0.4389103651046753,
          -0.5446102619171143,
          1.1171457767486572,
          0.2209891527891159,
          0.48136913776397705,
          -1.2738099098205566,
          1.3014812469482422,
          -0.6690376400947571,
          0.09361318498849869,
          -0.17861974239349365,
          -0.5026421546936035,
          -0.7215094566345215,
          0.4859316945075989,
          -0.21589414775371552,
          1.1792210340499878,
          -0.23360562324523926,
          -0.6098827123641968,
          -1.4454611539840698,
          -1.7382327318191528,
          0.3606506586074829,
          1.0558303594589233,
          -1.2916580438613892,
          -0.5848253965377808,
          0.7958566546440125,
          -0.683473527431488,
          -1.3693666458129883,
          -1.2188676595687866,
          -1.0483334064483643,
          -1.2032480239868164,
          -1.385223150253296,
          1.432967185974121,
          0.736819326877594,
          0.38467565178871155,
          0.1673239916563034,
          -0.47173213958740234,
          -1.5258862972259521,
          -0.36565807461738586,
          -1.0076123476028442,
          -0.9303317666053772,
          -1.0132503509521484,
          0.12636791169643402,
          -0.7856153249740601,
          -0.6198049187660217,
          0.7081657648086548,
          -1.3072142601013184,
          -1.23109769821167,
          -0.5254735946655273,
          1.6601842641830444,
          -0.40561631321907043,
          -0.23155145347118378,
          0.8866224884986877,
          -0.5338408350944519,
          -1.5351711511611938,
          -0.3094300925731659,
          1.152083158493042,
          -0.4015491306781769
        ],
        [
          0.7033876776695251,
          -1.3871889114379883,
          1.4905569553375244,
          -1.421965479850769,
          -0.36387184262275696,
          -0.13799920678138733,
          1.4321513175964355,
          0.3799460232257843,
          -0.26794344186782837,
          1.1281065940856934,
          -1.1951603889465332,
          -1.4846893548965454,
          -0.2712506651878357,
          0.528304398059845,
          -1.4901107549667358,
          1.3519306182861328,
          1.301836371421814,
          1.744369626045227,
          0.402971476316452,
          -1.244430661201477,
          -0.7564788460731506,
          -0.7243958115577698,
          -0.7476863265037537,
          -1.0572453737258911,
          1.509137511253357,
          0.8308382630348206,
          0.883483350276947,
          -0.35930684208869934,
          -1.4605135917663574,
          0.6239292621612549,
          -0.35811904072761536,
          1.5997570753097534,
          0.9311718940734863,
          -1.1114319562911987,
          -1.0030066967010498,
          0.2421676367521286,
          -1.0390992164611816,
          0.03467418625950813,
          1.5008286237716675,
          -0.26036253571510315,
          -1.58790123462677,
          -1.3382843732833862,
          1.3429638147354126,
          -0.458595335483551,
          1.0036991834640503,
          0.26055043935775757,
          0.8295738697052002,
          1.1196753978729248,
          1.0552769899368286,
          0.11778173595666885,
          1.0823695659637451,
          -0.532075822353363,
          1.4506707191467285,
          -1.4632142782211304,
          1.4736090898513794,
          1.4326083660125732,
          -1.5457688570022583,
          1.5573183298110962,
          -0.9009903073310852,
          0.2646771967411041,
          0.6586952209472656,
          -1.1382975578308105,
          0.77168869972229,
          1.148499608039856
        ],
        [
          -0.5943964123725891,
          0.15699288249015808,
          -1.5508760213851929,
          1.0684726238250732,
          -1.2462877035140991,
          0.48134109377861023,
          0.8104087710380554,
          0.8716321587562561,
          -1.4712555408477783,
          1.436694860458374,
          1.7230935096740723,
          -0.5810762047767639,
          -0.7988321781158447,
          1.0117528438568115,
          -1.1008884906768799,
          -0.7441405653953552,
          -0.6192920207977295,
          -0.8327585458755493,
          -0.1535607874393463,
          1.226386308670044,
          -1.515560507774353,
          -0.49377942085266113,
          1.3863340616226196,
          1.4363869428634644,
          -1.2964401245117188,
          0.5672171115875244,
          -0.6275390386581421,
          1.5275650024414062,
          0.1494334489107132,
          0.6039118766784668,
          -0.016504401341080666,
          -0.37448790669441223,
          1.3213406801223755,
          -1.4951332807540894,
          0.7211828827857971,
          -1.4371600151062012,
          1.3650875091552734,
          0.6182460784912109,
          0.9992350339889526,
          1.4226787090301514,
          1.3948220014572144,
          0.5521758198738098,
          -0.19637401401996613,
          1.3516181707382202,
          0.28325679898262024,
          -1.0764026641845703,
          0.9039891362190247,
          -0.7255438566207886,
          -1.0411027669906616,
          1.3143620491027832,
          1.0825694799423218,
          -1.4386590719223022,
          -0.34087052941322327,
          1.124822735786438,
          0.4183298349380493,
          0.7209420800209045,
          0.45739713311195374,
          -0.43060338497161865,
          -1.117512583732605,
          0.11719745397567749,
          0.01827782392501831,
          -0.3345889747142792,
          0.14815069735050201,
          1.6118942499160767
        ],
        [
          0.7597273588180542,
          1.4047064781188965,
          1.4225600957870483,
          -1.6559031009674072,
          -1.3835242986679077,
          0.7488791346549988,
          -0.3480208218097687,
          -0.5624325275421143,
          0.9744880795478821,
          0.6475852727890015,
          1.3596816062927246,
          0.6248739361763,
          -1.1947556734085083,
          -1.7665449380874634,
          1.5497726202011108,
          0.7060052752494812,
          1.2266261577606201,
          0.6111531257629395,
          -1.3677912950515747,
          -1.497846245765686,
          -0.733895480632782,
          0.1114845871925354,
          0.6577297449111938,
          -1.1089928150177002,
          0.675820529460907,
          -0.8268646597862244,
          0.7797290682792664,
          -2.9075865745544434,
          0.08783315122127533,
          0.2382892370223999,
          -1.2931081056594849,
          0.6837341785430908,
          0.8304937481880188,
          1.5345557928085327,
          -1.524774432182312,
          -0.14025455713272095,
          -1.3658500909805298,
          -0.2736065089702606,
          1.5227575302124023,
          0.9666627049446106,
          0.15068484842777252,
          0.1702428162097931,
          -0.9423505067825317,
          -0.5733965635299683,
          -1.2610394954681396,
          -0.317687064409256,
          0.05866798385977745,
          -0.9412084817886353,
          0.4503975212574005,
          1.3306262493133545,
          0.41276365518569946,
          -1.4351270198822021,
          0.9189552068710327,
          1.3740293979644775,
          -0.9296339750289917,
          -1.205562710762024,
          0.4774740934371948,
          -0.5305832624435425,
          0.9416860938072205,
          -0.8238393068313599,
          -0.14282925426959991,
          -0.08940873295068741,
          -2.18123459815979,
          1.146850824356079
        ],
        [
          0.15815499424934387,
          -1.1012277603149414,
          -0.5858991146087646,
          -1.172673225402832,
          -0.44871407747268677,
          0.6534647345542908,
          -1.6963948011398315,
          -0.5004997253417969,
          -0.5124269723892212,
          -1.517903447151184,
          -0.2565668225288391,
          -0.6345887184143066,
          -1.087338924407959,
          -0.25074008107185364,
          1.0177974700927734,
          -1.5343149900436401,
          0.3376029133796692,
          -1.2530049085617065,
          -0.8970909118652344,
          0.8941161036491394,
          -1.6754034757614136,
          -0.2568964958190918,
          0.4340886175632477,
          -0.35814282298088074,
          1.0843579769134521,
          0.10491292178630829,
          -1.2464886903762817,
          -0.030692407861351967,
          1.840193748474121,
          1.0209307670593262,
          -0.2631581425666809,
          0.7143375277519226,
          -0.8396025896072388,
          -1.225601315498352,
          -1.287438988685608,
          0.8787542581558228,
          1.263056755065918,
          1.111956000328064,
          -0.7052839994430542,
          1.2258236408233643,
          1.2642916440963745,
          -0.31407490372657776,
          0.898686408996582,
          0.9508744478225708,
          -0.6630690097808838,
          0.887497067451477,
          0.9224916696548462,
          1.5674484968185425,
          -1.8887807130813599,
          -0.5306658744812012,
          0.8283881545066833,
          -1.4309381246566772,
          -1.0744608640670776,
          -0.17386214435100555,
          0.7857123017311096,
          0.4645533859729767,
          0.8531793355941772,
          -1.421627402305603,
          -1.3227277994155884,
          -1.404860258102417,
          0.12366554886102676,
          -1.692421555519104,
          -0.8660809397697449,
          0.17686223983764648
        ],
        [
          -0.8401432633399963,
          1.143104076385498,
          -0.0991574227809906,
          1.1801931858062744,
          -0.36222824454307556,
          0.8806996941566467,
          0.44740721583366394,
          0.2836546003818512,
          -0.5410107970237732,
          -0.10523901879787445,
          -1.421341896057129,
          -0.11697065830230713,
          0.002233360894024372,
          -1.1859527826309204,
          0.7054121494293213,
          0.774590015411377,
          -0.2562428116798401,
          -0.11586516350507736,
          0.21864093840122223,
          -0.7511159777641296,
          -0.2441467046737671,
          0.27286162972450256,
          -0.2879696488380432,
          1.6832302808761597,
          -0.9728411436080933,
          1.3146753311157227,
          -0.5949711203575134,
          0.14552007615566254,
          -1.0084120035171509,
          1.3028701543807983,
          -0.3767673671245575,
          1.7647022008895874,
          -1.0742872953414917,
          1.392380714416504,
          -0.8835603594779968,
          -0.16047729551792145,
          0.4082736372947693,
          1.3938624858856201,
          -1.5171022415161133,
          -0.916114330291748,
          0.8341990113258362,
          1.105421543121338,
          1.3245091438293457,
          0.6946448683738708,
          -1.6160529851913452,
          -1.3516321182250977,
          0.9588534235954285,
          1.512316346168518,
          -1.4967055320739746,
          0.5242300033569336,
          -0.5041196346282959,
          -0.8838545680046082,
          0.09954041987657547,
          0.016238698735833168,
          -1.9005372524261475,
          -0.09597321599721909,
          0.6677006483078003,
          0.03287220373749733,
          0.8542860150337219,
          -0.2599206566810608,
          -1.4286277294158936,
          0.22957485914230347,
          -1.0707485675811768,
          -1.5751864910125732
        ],
        [
          -2.4587292671203613,
          1.0171478986740112,
          0.6963066458702087,
          -1.3386768102645874,
          -1.9128451347351074,
          -0.4949882924556732,
          -1.3977773189544678,
          -0.9856952428817749,
          -1.871579885482788,
          1.5063700675964355,
          -0.2937697768211365,
          -1.2895528078079224,
          -1.0474152565002441,
          0.026412343606352806,
          1.1136133670806885,
          1.2711408138275146,
          -1.6475095748901367,
          -0.13145659863948822,
          1.110897183418274,
          1.205656886100769,
          0.2422688603401184,
          -0.644420862197876,
          -1.4685871601104736,
          0.9678666591644287,
          1.481698751449585,
          -0.8368538618087769,
          0.12106598913669586,
          0.07874888926744461,
          -0.907429575920105,
          1.0496525764465332,
          -0.7258071303367615,
          -1.479125738143921,
          -0.7655121088027954,
          1.1891679763793945,
          1.3802086114883423,
          0.3826550841331482,
          -0.619156002998352,
          0.9525262713432312,
          -1.3100085258483887,
          -0.8095776438713074,
          -1.3871511220932007,
          0.6281864643096924,
          0.8625714182853699,
          0.17904157936573029,
          0.9583944082260132,
          1.3114622831344604,
          1.0496268272399902,
          0.6867614388465881,
          -1.3207330703735352,
          -0.6107480525970459,
          0.44383475184440613,
          -1.3061081171035767,
          -1.3903359174728394,
          -1.3623126745224,
          0.24412420392036438,
          -0.9661548137664795,
          0.6151705980300903,
          1.1507588624954224,
          -0.6750621795654297,
          -1.2392545938491821,
          1.6672943830490112,
          -1.4305931329727173,
          1.2239537239074707,
          -0.6207076907157898
        ],
        [
          0.09621516615152359,
          1.5117743015289307,
          -1.7220745086669922,
          -0.2511834502220154,
          -1.564885139465332,
          -0.3325746953487396,
          0.2998872399330139,
          -1.4681109189987183,
          -0.5574890971183777,
          1.664660096168518,
          -0.6208868622779846,
          -1.2373054027557373,
          -1.3642094135284424,
          -0.8134495615959167,
          -1.0471248626708984,
          0.6465312242507935,
          0.7054750323295593,
          0.6381120085716248,
          1.348468542098999,
          -1.03107750415802,
          -1.282706379890442,
          0.05986286327242851,
          0.11290732026100159,
          -0.2964652478694916,
          -0.8007208108901978,
          0.9881124496459961,
          -0.10755820572376251,
          1.5444116592407227,
          -0.5367552638053894,
          1.0426634550094604,
          -0.3256000876426697,
          0.09186195582151413,
          -0.35423678159713745,
          -1.2537389993667603,
          -0.4734368920326233,
          -1.1763039827346802,
          -1.2642794847488403,
          -0.5048661231994629,
          -0.8737218976020813,
          -0.7577345371246338,
          1.5352383852005005,
          -0.5034762024879456,
          -0.07532645016908646,
          1.4634385108947754,
          0.5755923986434937,
          -1.4997882843017578,
          1.1665416955947876,
          0.999819278717041,
          0.5111445188522339,
          1.3058891296386719,
          -0.15817943215370178,
          -0.6405199766159058,
          0.5735803842544556,
          1.3896466493606567,
          -2.2211337089538574,
          -0.6810315847396851,
          -1.441850185394287,
          1.9169538021087646,
          0.13706821203231812,
          0.8741872906684875,
          0.8810378909111023,
          1.5306771993637085,
          -0.36722102761268616,
          -2.0027029514312744
        ],
        [
          0.8830029368400574,
          -1.435640811920166,
          1.6280393600463867,
          -0.6043463349342346,
          -0.3914985954761505,
          0.6428252458572388,
          -0.7002445459365845,
          0.6315034627914429,
          0.4992823004722595,
          -0.7544146776199341,
          1.872484564781189,
          -0.8244269490242004,
          0.345864474773407,
          -1.884924054145813,
          0.9014990329742432,
          0.8055146932601929,
          1.2253996133804321,
          0.32130783796310425,
          1.5503836870193481,
          0.4699493646621704,
          -0.11938641220331192,
          -0.754892110824585,
          0.8408042788505554,
          0.41342318058013916,
          0.1350061297416687,
          -0.715260922908783,
          -1.3151030540466309,
          -0.4864919185638428,
          1.0860437154769897,
          0.6854459643363953,
          -0.9938851594924927,
          0.8888912796974182,
          1.7412196397781372,
          -0.13620774447917938,
          -0.3349655270576477,
          0.8970232009887695,
          1.3322967290878296,
          -0.2800862491130829,
          1.413487434387207,
          -1.5504237413406372,
          1.0341156721115112,
          -1.3388347625732422,
          -1.2561031579971313,
          0.8723914623260498,
          -1.085260272026062,
          1.7943832874298096,
          0.2753104567527771,
          0.03456871211528778,
          0.3992847800254822,
          1.5641746520996094,
          -0.12059202790260315,
          0.44506365060806274,
          1.1833863258361816,
          1.0514687299728394,
          0.05762169882655144,
          1.5164152383804321,
          0.3315729796886444,
          0.43961301445961,
          0.4837470054626465,
          -1.336457371711731,
          -1.0708435773849487,
          -1.571134328842163,
          -2.7864956855773926,
          0.23888394236564636
        ],
        [
          -3.0868794918060303,
          1.2535746097564697,
          0.18729978799819946,
          0.9133632183074951,
          1.5580179691314697,
          -0.07970106601715088,
          1.118469476699829,
          1.2280176877975464,
          -0.6515104174613953,
          -0.27934497594833374,
          -0.7419465780258179,
          -1.1225379705429077,
          0.3999718427658081,
          0.9606977701187134,
          -2.3414952754974365,
          0.4735561013221741,
          0.7076076865196228,
          1.3243180513381958,
          1.175409197807312,
          0.5006521344184875,
          1.283189058303833,
          -0.06945998221635818,
          0.1798502802848816,
          0.47345006465911865,
          -0.6734329462051392,
          0.19304034113883972,
          -0.979343593120575,
          -0.5511568784713745,
          -0.7935415506362915,
          -1.0283221006393433,
          1.379615068435669,
          -1.2583041191101074,
          -2.5230040550231934,
          -0.09477376192808151,
          -0.9580643177032471,
          -0.5657476186752319,
          0.2603725790977478,
          -1.916380763053894,
          -0.05851525068283081,
          0.39842697978019714,
          -1.1431543827056885,
          0.6795808672904968,
          1.4351688623428345,
          -0.0675194188952446,
          -0.5676684975624084,
          -0.26162081956863403,
          -1.2122455835342407,
          2.0170488357543945,
          -0.9712836146354675,
          0.9430442452430725,
          -0.31311050057411194,
          -0.729100227355957,
          -1.7611610889434814,
          -0.8058139085769653,
          -0.5584036111831665,
          0.7984948754310608,
          -0.20692715048789978,
          0.36673715710639954,
          0.2558474540710449,
          0.5722365975379944,
          -0.29231178760528564,
          0.34688037633895874,
          1.0050652027130127,
          1.58869469165802
        ],
        [
          -1.0328762531280518,
          0.4065640866756439,
          -0.09671767055988312,
          -0.5337966084480286,
          0.5849336385726929,
          -0.2782992124557495,
          0.8567326664924622,
          0.3404143154621124,
          1.015084147453308,
          -0.4464638829231262,
          -1.36139976978302,
          0.4652847647666931,
          0.10936317592859268,
          -0.27291202545166016,
          1.3313953876495361,
          0.06353183090686798,
          0.4390868842601776,
          -1.843008279800415,
          -1.2614574432373047,
          0.37579792737960815,
          0.5327162742614746,
          0.34630563855171204,
          -0.7882609367370605,
          -1.3790483474731445,
          -1.2997479438781738,
          0.26733124256134033,
          1.4287852048873901,
          0.17737892270088196,
          0.156563863158226,
          -0.7336803674697876,
          0.3481520712375641,
          0.13509567081928253,
          0.7434543371200562,
          0.9449955821037292,
          1.7836993932724,
          0.4937373995780945,
          -1.2208857536315918,
          0.14417900145053864,
          1.0391020774841309,
          -1.145072102546692,
          -1.2363488674163818,
          -0.2091595083475113,
          0.30779576301574707,
          -1.033431887626648,
          0.32957977056503296,
          -1.526818037033081,
          -1.0335664749145508,
          0.7115339636802673,
          -0.6071659922599792,
          0.72122722864151,
          -0.08368556946516037,
          -1.3632208108901978,
          -0.4573920965194702,
          0.3558565080165863,
          0.9669352173805237,
          -1.1502445936203003,
          1.3427534103393555,
          -0.2639624774456024,
          0.43762364983558655,
          -1.2228727340698242,
          -1.1220424175262451,
          -0.3417094647884369,
          0.48948970437049866,
          -1.7878283262252808
        ],
        [
          1.25458824634552,
          0.1288893222808838,
          -0.19525779783725739,
          -1.0747087001800537,
          -0.8991679549217224,
          -1.0613452196121216,
          -1.284267544746399,
          -0.6128307580947876,
          0.6408982276916504,
          -0.9781402945518494,
          1.8999325037002563,
          -0.5370123982429504,
          0.313323050737381,
          0.9146418571472168,
          -0.37058374285697937,
          1.0005183219909668,
          0.7504332661628723,
          1.392941951751709,
          0.6983202695846558,
          1.2056705951690674,
          1.1607182025909424,
          1.02894127368927,
          1.4778424501419067,
          0.702298104763031,
          1.1743406057357788,
          1.9585415124893188,
          1.0088506937026978,
          1.2732112407684326,
          -0.779087245464325,
          0.9673150181770325,
          0.968589186668396,
          0.4829644560813904,
          0.5558130741119385,
          0.8982664942741394,
          -0.8023027181625366,
          -1.1481987237930298,
          -1.3060537576675415,
          1.2505731582641602,
          -1.0496306419372559,
          0.2540477216243744,
          1.498884677886963,
          -0.7684125900268555,
          -1.1540735960006714,
          -1.5325130224227905,
          1.8334364891052246,
          -0.22736281156539917,
          0.22776788473129272,
          1.4437209367752075,
          -0.8846716284751892,
          0.37190061807632446,
          1.4755886793136597,
          -0.13829568028450012,
          1.1948111057281494,
          1.3816349506378174,
          1.420885443687439,
          -1.1557382345199585,
          0.015211032703518867,
          -0.051620788872241974,
          1.2341119050979614,
          -1.2406402826309204,
          -0.14761948585510254,
          1.5163522958755493,
          0.9632718563079834,
          -0.08593074232339859
        ],
        [
          -0.7093183994293213,
          0.6835509538650513,
          -0.5902962684631348,
          -0.5407484769821167,
          -0.49596142768859863,
          -0.648108184337616,
          -0.017915457487106323,
          0.8690062165260315,
          -1.4840521812438965,
          -0.9687554240226746,
          0.17205816507339478,
          -1.0573538541793823,
          -0.48996469378471375,
          -0.6683976054191589,
          -0.836340069770813,
          -1.5215588808059692,
          -1.1003752946853638,
          1.110305666923523,
          -1.097077488899231,
          1.454182505607605,
          -0.1812058538198471,
          0.5916120409965515,
          -1.2192273139953613,
          -1.3676140308380127,
          1.5854690074920654,
          0.7765178084373474,
          1.058245062828064,
          1.7635380029678345,
          -1.2660905122756958,
          1.0124207735061646,
          -1.0051863193511963,
          -1.398409128189087,
          0.8167291879653931,
          -1.0911834239959717,
          0.6905070543289185,
          -1.6143267154693604,
          -0.32371416687965393,
          1.6288774013519287,
          0.7570559978485107,
          0.831446647644043,
          -1.5407483577728271,
          -1.4247708320617676,
          1.0432144403457642,
          0.6922498345375061,
          -0.8975306749343872,
          1.51693856716156,
          0.8045592308044434,
          -1.3207374811172485,
          -0.40323197841644287,
          -0.36016330122947693,
          -0.4122046232223511,
          1.2355271577835083,
          -1.6687086820602417,
          0.908647358417511,
          -0.8990452289581299,
          0.87357497215271,
          -0.6288116574287415,
          0.7984923720359802,
          -1.5902208089828491,
          -1.4294037818908691,
          -0.938363254070282,
          0.22496220469474792,
          -0.03381406143307686,
          -0.8743520379066467
        ],
        [
          -0.17036022245883942,
          0.07622678577899933,
          -1.0493119955062866,
          1.0009981393814087,
          -0.7879456877708435,
          1.63419508934021,
          -0.9845455288887024,
          -1.001400113105774,
          -0.7014200687408447,
          1.2662255764007568,
          1.73166823387146,
          -1.0253969430923462,
          -1.3696165084838867,
          0.8235877752304077,
          0.0033226923551410437,
          0.8604022264480591,
          -1.2994794845581055,
          -0.019261205568909645,
          0.1301538646221161,
          0.834857165813446,
          -0.38810238242149353,
          -1.07874596118927,
          1.0806998014450073,
          -0.1499291956424713,
          0.48974180221557617,
          -0.8716970086097717,
          0.5192964673042297,
          1.1797655820846558,
          -0.8005052208900452,
          0.8508033752441406,
          1.3107197284698486,
          -0.9289141297340393,
          1.393070936203003,
          0.6324540972709656,
          -0.8877694010734558,
          1.591734766960144,
          -0.6234279870986938,
          0.6578889489173889,
          1.1038044691085815,
          -1.471819519996643,
          1.241945505142212,
          0.85706627368927,
          1.4235197305679321,
          -1.662601113319397,
          0.373189777135849,
          0.5529004335403442,
          0.943951427936554,
          -1.3358283042907715,
          -0.012426693923771381,
          0.7042868733406067,
          -1.545440673828125,
          -1.0930479764938354,
          1.2673430442810059,
          0.8977018594741821,
          1.4539622068405151,
          -1.1508944034576416,
          -1.4259287118911743,
          -1.2220652103424072,
          -0.45008039474487305,
          0.6180210113525391,
          -1.35457444190979,
          -0.6510370373725891,
          -0.07713060826063156,
          -0.4097987711429596
        ],
        [
          0.42789432406425476,
          -1.3570829629898071,
          -1.3544865846633911,
          -0.5426878929138184,
          0.8361600041389465,
          0.9356445670127869,
          -0.8748339414596558,
          -0.6693167686462402,
          0.344393789768219,
          1.6090246438980103,
          1.2483360767364502,
          0.8111609816551208,
          0.44620320200920105,
          0.8792397975921631,
          -0.22727148234844208,
          0.4447568655014038,
          -0.13370056450366974,
          -0.5950843691825867,
          1.6030076742172241,
          -0.48838308453559875,
          0.9544264674186707,
          -1.5305049419403076,
          0.008258038200438023,
          0.2830537259578705,
          0.33136656880378723,
          -0.7599722146987915,
          -0.9036129117012024,
          -0.21658070385456085,
          -1.187569260597229,
          -1.1418566703796387,
          1.4678735733032227,
          -0.5631129741668701,
          -1.108035683631897,
          0.25225698947906494,
          0.782712996006012,
          -0.12080009281635284,
          -1.1581634283065796,
          -1.2559865713119507,
          -0.6561409831047058,
          0.19036589562892914,
          1.6673583984375,
          -1.5193681716918945,
          -0.36208808422088623,
          -0.05114104971289635,
          -0.8131223320960999,
          -1.2102800607681274,
          -1.1733659505844116,
          1.3337904214859009,
          1.1063780784606934,
          -1.0123437643051147,
          -0.07856062054634094,
          -0.029920149594545364,
          -1.1964865922927856,
          -0.5502374172210693,
          0.7556864023208618,
          0.6487830877304077,
          0.3537495732307434,
          1.3053807020187378,
          1.2494354248046875,
          0.06372973322868347,
          0.6516931653022766,
          0.29587322473526,
          0.737377405166626,
          1.2302747964859009
        ],
        [
          0.4989432692527771,
          1.551501989364624,
          0.42107969522476196,
          0.9570749402046204,
          -0.9271911382675171,
          -1.2063097953796387,
          -1.2448816299438477,
          -1.0445277690887451,
          -0.06409618258476257,
          -0.2984030842781067,
          -1.2325575351715088,
          -1.1302813291549683,
          -0.6690974235534668,
          0.84562087059021,
          0.5205239653587341,
          -1.2562930583953857,
          -1.2037885189056396,
          1.1400429010391235,
          1.405773401260376,
          0.03987372666597366,
          -1.5471118688583374,
          -1.2408331632614136,
          -0.892248809337616,
          -1.1518967151641846,
          1.0162012577056885,
          1.0353912115097046,
          0.25884661078453064,
          0.8672754168510437,
          -0.04905879124999046,
          1.149748682975769,
          -0.8859360218048096,
          1.4930086135864258,
          -0.26324963569641113,
          -0.04080994799733162,
          -0.4944407045841217,
          -0.34784650802612305,
          -0.1714160293340683,
          -1.2918545007705688,
          -0.11446639150381088,
          0.07465852051973343,
          0.3137742877006531,
          1.471703052520752,
          -1.2039299011230469,
          0.5851807594299316,
          0.6206600069999695,
          1.767630696296692,
          0.9481712579727173,
          -0.030780144035816193,
          0.039062101393938065,
          0.5620850324630737,
          1.4286760091781616,
          -0.46232128143310547,
          0.6652483940124512,
          1.4760277271270752,
          -1.369891881942749,
          -1.411221981048584,
          1.166249394416809,
          1.8365726470947266,
          0.5573307871818542,
          -1.5090514421463013,
          0.597728967666626,
          0.9282169342041016,
          -0.8420255780220032,
          -0.14138002693653107
        ],
        [
          -0.47793397307395935,
          0.3115101456642151,
          -0.6912044882774353,
          1.6268205642700195,
          1.2504521608352661,
          1.514510989189148,
          0.3952220380306244,
          -0.13872133195400238,
          0.8502140045166016,
          0.35664504766464233,
          0.702393651008606,
          0.24641872942447662,
          0.3725423812866211,
          -0.03398023918271065,
          -0.4763023257255554,
          -1.4172296524047852,
          -1.5155282020568848,
          1.0767687559127808,
          1.1687296628952026,
          -1.0700616836547852,
          0.41681838035583496,
          1.455509901046753,
          0.6192600131034851,
          -1.189165472984314,
          1.499837875366211,
          -1.2962599992752075,
          -0.27395227551460266,
          -1.4228363037109375,
          0.9764139652252197,
          -0.9134055376052856,
          1.7791945934295654,
          1.098188877105713,
          0.3856673836708069,
          0.6040127277374268,
          -1.461342692375183,
          -1.203440546989441,
          0.8154537677764893,
          -1.0380042791366577,
          1.3200914859771729,
          -0.08053835481405258,
          -0.9205185770988464,
          -0.03701132535934448,
          0.1522192358970642,
          0.5128518342971802,
          1.1315416097640991,
          0.08370042592287064,
          -1.0442893505096436,
          -0.9922076463699341,
          1.6152344942092896,
          -1.5069307088851929,
          -0.701877772808075,
          1.4247839450836182,
          1.6275086402893066,
          0.06907815486192703,
          0.3029812276363373,
          -1.1490033864974976,
          0.3598298728466034,
          -1.3653719425201416,
          0.8028512597084045,
          0.6604152917861938,
          1.0586330890655518,
          -0.2663964331150055,
          1.3690176010131836,
          -0.07154813408851624
        ],
        [
          1.3286926746368408,
          -1.2311584949493408,
          -0.8010544776916504,
          -1.260080337524414,
          -0.9450312256813049,
          -0.8316164612770081,
          0.48826542496681213,
          -0.555679202079773,
          -0.17998109757900238,
          -1.5996248722076416,
          0.3055054247379303,
          -0.6654033660888672,
          -0.961758553981781,
          0.9776262044906616,
          0.5056078433990479,
          0.13349494338035583,
          0.875616192817688,
          -0.5266615748405457,
          -0.25727415084838867,
          -0.8255378007888794,
          -1.2835127115249634,
          0.7644858956336975,
          -1.4464504718780518,
          -0.047126803547143936,
          -0.3010319173336029,
          -0.33420389890670776,
          -0.06936715543270111,
          -0.6210907101631165,
          0.03251728042960167,
          0.6750721335411072,
          0.28665080666542053,
          -0.1848973035812378,
          -0.30608442425727844,
          0.5072755217552185,
          -0.8005519509315491,
          1.4215116500854492,
          0.07106930762529373,
          0.49883317947387695,
          -0.8246076703071594,
          -1.6065915822982788,
          0.5299347043037415,
          -0.6010239124298096,
          -1.1302359104156494,
          -1.0234616994857788,
          0.7880620956420898,
          -1.4417014122009277,
          0.9288291335105896,
          0.14467759430408478,
          1.4097355604171753,
          1.0125083923339844,
          -0.9089602828025818,
          -0.4965963661670685,
          0.535297155380249,
          0.9158985018730164,
          1.669389009475708,
          -1.5099833011627197,
          0.8834107518196106,
          -0.2086205780506134,
          0.8097553253173828,
          -0.380696564912796,
          -0.9621070027351379,
          0.5379189252853394,
          -0.8188666105270386,
          0.9160632491111755
        ],
        [
          0.41676661372184753,
          0.09287433326244354,
          -1.4370121955871582,
          -0.7605289816856384,
          0.5142266154289246,
          1.6664018630981445,
          -0.5667465329170227,
          -0.6518756747245789,
          0.049868710339069366,
          -0.2857668995857239,
          0.5271338820457458,
          0.2017698436975479,
          0.8188006281852722,
          -0.7146158218383789,
          -1.33378005027771,
          1.6581288576126099,
          -1.2701778411865234,
          -0.8136959075927734,
          1.4799079895019531,
          -0.5546104311943054,
          0.3985117971897125,
          1.1303828954696655,
          -1.4961540699005127,
          0.46294328570365906,
          -0.35705605149269104,
          0.24554899334907532,
          -0.958730936050415,
          -0.8292143940925598,
          -0.6543000936508179,
          -0.8232938647270203,
          -0.9629557132720947,
          -0.5844140648841858,
          0.12259137630462646,
          0.16144153475761414,
          0.9561125040054321,
          0.790364146232605,
          1.4377837181091309,
          -0.6586851477622986,
          0.19754479825496674,
          -1.661668300628662,
          -0.3377550542354584,
          -1.2669962644577026,
          -1.5850600004196167,
          -1.2518774271011353,
          1.07359778881073,
          -1.505676031112671,
          -1.1519255638122559,
          0.07715850323438644,
          0.2700289189815521,
          -0.8453495502471924,
          1.421447515487671,
          -1.3343772888183594,
          -0.7733975648880005,
          -0.17216892540454865,
          -0.2665363550186157,
          1.1284934282302856,
          -0.6355482935905457,
          -0.2540457248687744,
          0.1873656064271927,
          -1.4118130207061768,
          0.49393194913864136,
          1.5968362092971802,
          1.4320666790008545,
          0.17299100756645203
        ],
        [
          0.226540669798851,
          1.2362784147262573,
          0.8958292603492737,
          -0.605975329875946,
          -1.4317052364349365,
          -0.810674250125885,
          -0.4338564872741699,
          -0.3597450852394104,
          -1.0513485670089722,
          1.1530449390411377,
          -0.37551841139793396,
          -1.51419198513031,
          -0.5466203689575195,
          -0.936428427696228,
          -1.2446961402893066,
          0.8081870079040527,
          0.6683140993118286,
          0.2876938581466675,
          1.5849721431732178,
          1.3389683961868286,
          -0.25418558716773987,
          1.8227460384368896,
          -0.3634904623031616,
          1.4876830577850342,
          -0.3719763159751892,
          1.1027766466140747,
          0.529859721660614,
          1.172620415687561,
          0.5487651824951172,
          0.4902195930480957,
          -0.288224995136261,
          0.9273361563682556,
          -1.4936455488204956,
          -0.6086373329162598,
          -1.240164041519165,
          -1.2512842416763306,
          -1.8513754606246948,
          -1.32817804813385,
          0.9619708061218262,
          1.2064564228057861,
          0.9216691255569458,
          0.32138150930404663,
          1.3992286920547485,
          -1.5800220966339111,
          -1.2568433284759521,
          -0.8542641997337341,
          0.7316854596138,
          -1.1789283752441406,
          0.08292637020349503,
          -0.7386561036109924,
          0.7093174457550049,
          1.6643348932266235,
          0.7436097860336304,
          -1.8161739110946655,
          -0.010945740155875683,
          -1.2334915399551392,
          -1.0446295738220215,
          -0.4075644910335541,
          1.106735110282898,
          1.082903504371643,
          -0.9598770141601562,
          -1.28924560546875,
          1.3918629884719849,
          -1.53062903881073
        ],
        [
          0.35268911719322205,
          1.362816572189331,
          -0.7667306065559387,
          1.4398832321166992,
          1.2501375675201416,
          0.6465093493461609,
          0.5633113980293274,
          0.3529303967952728,
          1.787882924079895,
          -0.9912125468254089,
          -1.2601425647735596,
          0.9935548901557922,
          1.573492407798767,
          0.9192856550216675,
          0.7403646111488342,
          1.2021965980529785,
          0.11677807569503784,
          0.2689559757709503,
          -0.8164644837379456,
          0.7392568588256836,
          0.39921149611473083,
          -1.9438852071762085,
          0.07839854806661606,
          0.8806149363517761,
          0.7154567837715149,
          0.9968107342720032,
          0.5888137817382812,
          -1.1910860538482666,
          0.0929444432258606,
          -1.2803997993469238,
          -0.5658899545669556,
          1.353765845298767,
          -0.6567795276641846,
          0.7315869331359863,
          1.7810617685317993,
          1.0414419174194336,
          0.18122830986976624,
          -1.1483041048049927,
          -0.12239094078540802,
          -0.8503506183624268,
          1.449593424797058,
          -0.16084370017051697,
          0.9453160762786865,
          1.5036998987197876,
          0.9315659999847412,
          -1.6725019216537476,
          -0.9315462708473206,
          -0.24955356121063232,
          1.1199475526809692,
          -0.6256680488586426,
          -1.1855851411819458,
          0.8484150171279907,
          -0.5046564936637878,
          -1.097598910331726,
          -0.7244927883148193,
          1.8892604112625122,
          1.028321385383606,
          -1.1752040386199951,
          0.14742955565452576,
          1.261751413345337,
          -0.5502654314041138,
          0.32425737380981445,
          0.7488145232200623,
          -1.6775341033935547
        ],
        [
          -0.5118604302406311,
          1.1270008087158203,
          -1.7301760911941528,
          1.3238476514816284,
          0.5749898552894592,
          -1.2969588041305542,
          -0.8917351961135864,
          0.5582647919654846,
          0.8288834095001221,
          1.7109204530715942,
          -0.11905767023563385,
          0.22222977876663208,
          0.8783294558525085,
          -0.5454375147819519,
          0.43067219853401184,
          1.0149002075195312,
          -1.454777479171753,
          1.3519140481948853,
          1.211706280708313,
          0.10522366315126419,
          0.23065081238746643,
          1.3639333248138428,
          0.28223732113838196,
          -0.31327593326568604,
          -0.28969481587409973,
          -0.6115316152572632,
          -0.6033465266227722,
          0.9386377334594727,
          -0.2558424472808838,
          -1.2574481964111328,
          0.10274453461170197,
          1.4697959423065186,
          -0.593478798866272,
          -1.2973018884658813,
          1.1713128089904785,
          -1.4211311340332031,
          -0.7098405957221985,
          1.8419499397277832,
          0.49119776487350464,
          -1.1404474973678589,
          0.3388836979866028,
          1.0235562324523926,
          1.1505169868469238,
          0.3669889271259308,
          -0.09494589269161224,
          -0.7222533822059631,
          -0.9000716805458069,
          -0.6405485272407532,
          -0.049405258148908615,
          -0.16963942348957062,
          -0.7882025837898254,
          1.2332029342651367,
          0.7903955578804016,
          -0.4140065014362335,
          -1.0861451625823975,
          -0.30790022015571594,
          -1.6764018535614014,
          0.45128515362739563,
          -0.4493582248687744,
          1.6576343774795532,
          1.336397647857666,
          0.8404328227043152,
          0.6392171382904053,
          0.5266168713569641
        ],
        [
          0.6293386816978455,
          -0.550497829914093,
          0.6717698574066162,
          0.44145315885543823,
          0.37832701206207275,
          0.0018686250550672412,
          -0.6301926374435425,
          1.1844489574432373,
          0.9667536616325378,
          -1.240653395652771,
          1.1477408409118652,
          1.6532939672470093,
          0.6022645235061646,
          -0.025314319878816605,
          -1.408282995223999,
          1.3439606428146362,
          1.194981575012207,
          -1.584351658821106,
          -0.15669727325439453,
          1.513086199760437,
          1.6478580236434937,
          1.3471307754516602,
          0.6124719381332397,
          0.6909304261207581,
          -0.3143814206123352,
          0.158499076962471,
          -1.3393054008483887,
          -0.8271398544311523,
          0.5824698209762573,
          -0.8904739022254944,
          1.6117475032806396,
          0.8639538288116455,
          0.7230603694915771,
          1.0958207845687866,
          1.075744390487671,
          1.0339903831481934,
          -1.6887983083724976,
          -0.6798620223999023,
          -1.0002080202102661,
          1.599766492843628,
          -0.7326479554176331,
          0.5063889622688293,
          0.8034664988517761,
          0.20120418071746826,
          0.8046965599060059,
          -0.5541665554046631,
          -0.4012441039085388,
          -1.084004521369934,
          -0.45669981837272644,
          -0.4231513440608978,
          -1.458838939666748,
          0.7342749238014221,
          -0.4287288188934326,
          0.7540099024772644,
          0.4718128442764282,
          -1.3437869548797607,
          0.17305098474025726,
          1.6976431608200073,
          0.9109444618225098,
          -1.035205364227295,
          0.6898944973945618,
          0.7544870376586914,
          0.972321093082428,
          0.9124965071678162
        ],
        [
          0.8905835151672363,
          -0.9002918601036072,
          -0.5248550176620483,
          -0.4053943455219269,
          -0.9116164445877075,
          0.9875608682632446,
          -0.2340790182352066,
          -1.246044397354126,
          -0.19727469980716705,
          0.1993888020515442,
          -1.4126431941986084,
          -0.16436053812503815,
          -0.19440071284770966,
          0.805412232875824,
          0.8484283685684204,
          -0.855209231376648,
          0.06828753650188446,
          -0.5475698113441467,
          -0.23290285468101501,
          -0.8063639402389526,
          -0.283561646938324,
          1.5732243061065674,
          0.22425149381160736,
          0.9837204813957214,
          -0.954266369342804,
          0.4082888066768646,
          -0.13476666808128357,
          0.12067067623138428,
          -0.7955145835876465,
          0.8656675815582275,
          1.3693668842315674,
          -0.681753933429718,
          0.0980440229177475,
          1.5221718549728394,
          -0.12894950807094574,
          0.4442199468612671,
          0.588687539100647,
          -0.5973839163780212,
          -0.1565101444721222,
          -0.06502984464168549,
          -1.3867623805999756,
          -1.2500696182250977,
          -1.4181574583053589,
          -0.6981557607650757,
          0.9425864815711975,
          0.10047614574432373,
          0.9545088410377502,
          0.7495719790458679,
          -0.6364265084266663,
          1.119922161102295,
          0.3227735757827759,
          -0.8736347556114197,
          -0.5782374143600464,
          -1.5043808221817017,
          0.851012647151947,
          -0.7131943106651306,
          0.9523761868476868,
          -1.1086350679397583,
          1.0706688165664673,
          1.387536644935608,
          1.2164883613586426,
          0.6020843982696533,
          -1.148452639579773,
          0.930654764175415
        ],
        [
          0.344307541847229,
          0.038949254900217056,
          1.1193794012069702,
          0.6861935257911682,
          1.303877353668213,
          0.8682081699371338,
          0.010868432931602001,
          1.25310480594635,
          1.0710368156433105,
          -0.9215552806854248,
          -0.9308978319168091,
          0.42858582735061646,
          0.3611421287059784,
          -0.9848781824111938,
          -0.5397897362709045,
          -0.9990898370742798,
          0.7397485971450806,
          1.4831827878952026,
          -1.0835044384002686,
          -0.4719029366970062,
          1.6779881715774536,
          -0.016408754512667656,
          0.03292205557227135,
          -1.032364010810852,
          -1.6346203088760376,
          0.7167491912841797,
          0.7600614428520203,
          0.1910283863544464,
          -1.2983444929122925,
          -1.2552647590637207,
          0.948928713798523,
          -1.4296903610229492,
          -1.3071832656860352,
          -1.2369201183319092,
          0.05036327615380287,
          -1.068512201309204,
          -0.19952480494976044,
          -1.0357991456985474,
          0.4419461488723755,
          -0.9751065373420715,
          1.3404637575149536,
          -1.5120415687561035,
          -1.4887531995773315,
          -0.2812369763851166,
          0.6631025075912476,
          0.21602074801921844,
          -1.2707431316375732,
          1.0451359748840332,
          1.7254657745361328,
          -1.6399987936019897,
          0.2131769359111786,
          -0.6982982158660889,
          1.1645991802215576,
          -0.7001851797103882,
          -0.738917350769043,
          0.6446096301078796,
          1.1193137168884277,
          -1.5171245336532593,
          0.576155424118042,
          0.7574146389961243,
          -1.2759703397750854,
          0.36565691232681274,
          0.16327440738677979,
          1.4093812704086304
        ],
        [
          -0.2942971885204315,
          0.3153117597103119,
          -0.7868042588233948,
          -0.6429501175880432,
          0.6165160536766052,
          -0.7459751963615417,
          -0.6208532452583313,
          0.4377434551715851,
          0.20843558013439178,
          -0.9989280104637146,
          -0.9369717836380005,
          1.1719295978546143,
          0.4437057673931122,
          0.8220309019088745,
          0.02794082649052143,
          0.299633264541626,
          0.5946890711784363,
          1.294588565826416,
          0.8157097697257996,
          1.4877809286117554,
          0.8187323808670044,
          0.1216309517621994,
          -0.879523515701294,
          1.1511518955230713,
          -1.4468814134597778,
          0.48542389273643494,
          -0.4605972468852997,
          0.2791963815689087,
          0.2847510576248169,
          -0.8742628693580627,
          0.4100970923900604,
          1.7991610765457153,
          -0.9531537294387817,
          -0.37356036901474,
          -1.3344378471374512,
          1.3681950569152832,
          -0.4275900721549988,
          -1.2581597566604614,
          -1.2750740051269531,
          1.1089613437652588,
          1.3105038404464722,
          0.630541205406189,
          1.0327436923980713,
          -0.5534183382987976,
          1.5714720487594604,
          0.11553719639778137,
          -0.8636729717254639,
          0.35221216082572937,
          0.4936293959617615,
          -0.14128971099853516,
          1.4131267070770264,
          0.555062472820282,
          1.1277133226394653,
          1.3038924932479858,
          1.1976196765899658,
          -0.5412430167198181,
          -0.8063881993293762,
          0.4626201391220093,
          -1.7245205640792847,
          -1.176856279373169,
          0.8084290623664856,
          -1.3025939464569092,
          -0.8130708336830139,
          0.5555748343467712
        ],
        [
          1.5319187641143799,
          -1.6240686178207397,
          -1.18918776512146,
          -1.0480762720108032,
          -0.37836596369743347,
          0.39647480845451355,
          1.503838062286377,
          1.280752420425415,
          0.26467403769493103,
          -0.7840431928634644,
          -1.357561469078064,
          -0.6118850708007812,
          0.292041152715683,
          -1.977831244468689,
          1.4342198371887207,
          -0.6584168076515198,
          1.1691573858261108,
          -0.7021904587745667,
          1.0068414211273193,
          0.9123974442481995,
          -0.11936859041452408,
          0.25468701124191284,
          0.7713574171066284,
          -1.1937726736068726,
          -0.19428840279579163,
          -1.5438371896743774,
          -0.47434544563293457,
          -0.43765631318092346,
          -0.6812605857849121,
          0.05574182793498039,
          -0.7361839413642883,
          -0.9996029138565063,
          1.860772967338562,
          -0.731539249420166,
          -0.39239540696144104,
          -1.1215888261795044,
          -0.7121379375457764,
          0.5529885292053223,
          -0.7707909941673279,
          0.3270817995071411,
          -1.1932072639465332,
          1.6139185428619385,
          0.11771601438522339,
          -1.2437721490859985,
          -3.0237741470336914,
          -1.2098416090011597,
          0.2854396402835846,
          0.37271296977996826,
          0.6191558241844177,
          2.0276732444763184,
          -1.456182837486267,
          0.788901686668396,
          0.8784210085868835,
          0.6356761455535889,
          0.5531569719314575,
          0.15190865099430084,
          1.2949013710021973,
          -1.3122082948684692,
          1.59721839427948,
          1.3566486835479736,
          -1.1406055688858032,
          1.5004777908325195,
          -1.9469977617263794,
          -1.12830650806427
        ],
        [
          -0.5916481614112854,
          -0.5553195476531982,
          1.2176034450531006,
          -1.4467874765396118,
          1.1539579629898071,
          -1.6829726696014404,
          0.28551799058914185,
          -0.3129272162914276,
          0.6092579364776611,
          0.8152750730514526,
          -0.8847935795783997,
          1.0307756662368774,
          0.33452072739601135,
          -1.4315985441207886,
          -0.9653646945953369,
          -0.27984344959259033,
          -0.4363711178302765,
          -0.8815835118293762,
          1.4326810836791992,
          -0.8477350473403931,
          0.24086102843284607,
          -1.4460619688034058,
          -1.7541542053222656,
          1.5449838638305664,
          1.4008170366287231,
          -1.5932334661483765,
          -0.6739980578422546,
          0.33935990929603577,
          -0.5336316227912903,
          -0.8870500922203064,
          -1.4943958520889282,
          -0.6928578019142151,
          -1.5047831535339355,
          -0.47523099184036255,
          -0.9807817935943604,
          1.3609955310821533,
          1.0628999471664429,
          1.872554898262024,
          0.35143664479255676,
          -0.554901123046875,
          0.6377533078193665,
          1.7559864521026611,
          0.031986434012651443,
          0.7884864211082458,
          0.7326105237007141,
          0.29960018396377563,
          -1.0906258821487427,
          0.30017751455307007,
          1.7576639652252197,
          -1.8293548822402954,
          -0.9546751379966736,
          -1.4234501123428345,
          1.454135537147522,
          -1.092332363128662,
          0.08937131613492966,
          -0.8132453560829163,
          0.6542966365814209,
          -0.7784044146537781,
          1.5028103590011597,
          -0.043226223438978195,
          -1.114097237586975,
          -0.9333835244178772,
          -0.16948969662189484,
          -0.6524430513381958
        ],
        [
          -0.2795519530773163,
          1.2071640491485596,
          1.0611811876296997,
          0.4446823298931122,
          -0.9263290762901306,
          0.44466912746429443,
          -1.9082608222961426,
          -2.508669137954712,
          0.5348232984542847,
          -1.028831958770752,
          -0.8996297121047974,
          -0.3512972593307495,
          -1.6585973501205444,
          0.018587255850434303,
          1.301443099975586,
          -0.5461286306381226,
          0.6590291261672974,
          0.8375826478004456,
          0.6758506298065186,
          0.1512705236673355,
          -0.21021634340286255,
          0.638866662979126,
          0.7382086515426636,
          -0.5711986422538757,
          -1.7863551378250122,
          0.493746817111969,
          2.3848865032196045,
          -1.2614905834197998,
          -0.9484153389930725,
          0.831858217716217,
          -1.639005422592163,
          -1.540648341178894,
          0.41898781061172485,
          -1.4138679504394531,
          1.5255193710327148,
          -1.4745327234268188,
          0.28453028202056885,
          0.48220983147621155,
          1.0323066711425781,
          0.8488937020301819,
          0.8855847120285034,
          -0.8323854804039001,
          0.2671893239021301,
          -1.2086098194122314,
          0.3955228626728058,
          0.7200958132743835,
          0.9777495265007019,
          -1.4427835941314697,
          0.8990981578826904,
          0.997527003288269,
          0.7834741473197937,
          0.9029101729393005,
          0.9656308889389038,
          0.7271324396133423,
          0.32172369956970215,
          -0.6404647827148438,
          -1.655680537223816,
          0.013940495438873768,
          -0.7309444546699524,
          -0.15460750460624695,
          0.10336222499608994,
          0.03428538143634796,
          1.387909173965454,
          0.4372490644454956
        ],
        [
          -2.0213170051574707,
          -0.5524581074714661,
          -0.10558575391769409,
          0.6964365243911743,
          -2.01990008354187,
          1.4868122339248657,
          -0.5446289777755737,
          -0.062049344182014465,
          -0.596807062625885,
          0.7200784087181091,
          -0.14880242943763733,
          -0.5781689286231995,
          -1.8984965085983276,
          -0.7343052625656128,
          0.1697629690170288,
          -0.766765832901001,
          1.1679331064224243,
          1.5079846382141113,
          0.680941104888916,
          0.4577414095401764,
          -1.76039719581604,
          -0.5959639549255371,
          0.546640157699585,
          0.9414336681365967,
          0.2560092508792877,
          -0.03453598916530609,
          0.9008375406265259,
          1.235417366027832,
          1.1489088535308838,
          0.9751938581466675,
          1.49546217918396,
          -1.3565051555633545,
          -1.1837174892425537,
          -1.3200587034225464,
          -1.590589165687561,
          -0.5854229927062988,
          0.5266517996788025,
          -0.6387797594070435,
          -1.4057767391204834,
          0.8716111183166504,
          -1.184651494026184,
          0.7993033528327942,
          0.9478604793548584,
          -1.2887578010559082,
          1.6332283020019531,
          -1.3887020349502563,
          1.220383882522583,
          -0.6453677415847778,
          -0.8485182523727417,
          0.016423344612121582,
          1.0073926448822021,
          -1.5091127157211304,
          -0.5739372372627258,
          -1.2718501091003418,
          -0.9978944063186646,
          -0.36492669582366943,
          1.0712686777114868,
          0.9953915476799011,
          0.7493016123771667,
          1.3603050708770752,
          0.2370508313179016,
          -1.2221345901489258,
          -0.33037933707237244,
          1.5478713512420654
        ],
        [
          1.1981377601623535,
          -0.9742336869239807,
          -0.5370142459869385,
          -1.491255521774292,
          -0.7422862648963928,
          0.0900048166513443,
          -0.273327499628067,
          0.5089059472084045,
          -1.9071916341781616,
          0.8970844149589539,
          0.25831809639930725,
          -1.1894127130508423,
          -0.3088136911392212,
          1.2584174871444702,
          1.1353049278259277,
          1.0028727054595947,
          0.6680032014846802,
          -0.8872983455657959,
          -1.4127472639083862,
          -0.01238265261054039,
          -1.3695169687271118,
          -0.5678876042366028,
          -1.3268204927444458,
          0.003373072948306799,
          -1.180901050567627,
          -0.6995139718055725,
          -0.29982468485832214,
          0.4094700813293457,
          0.6382664442062378,
          1.1531568765640259,
          0.7452251315116882,
          0.7623944878578186,
          -0.266696959733963,
          0.29650530219078064,
          1.4864673614501953,
          1.4698255062103271,
          0.022377490997314453,
          -0.17070160806179047,
          -0.20753517746925354,
          1.2882628440856934,
          1.3255810737609863,
          1.402777910232544,
          0.21654343605041504,
          1.330966830253601,
          -0.736048698425293,
          -0.5059787034988403,
          1.117620825767517,
          1.7381490468978882,
          0.24260416626930237,
          -0.7070954442024231,
          -1.3566091060638428,
          0.2689688801765442,
          0.1526007205247879,
          -0.05372729152441025,
          0.009557532146573067,
          0.702812671661377,
          1.0920287370681763,
          0.8313408493995667,
          -1.8151894807815552,
          1.2585591077804565,
          1.2179957628250122,
          0.2893635332584381,
          -0.691693902015686,
          0.3733741044998169
        ],
        [
          -1.3654698133468628,
          1.146205186843872,
          1.379306674003601,
          -1.4246511459350586,
          0.9357084631919861,
          -0.6186506152153015,
          1.1243252754211426,
          1.4290168285369873,
          1.2879176139831543,
          -0.03536384552717209,
          -0.27640771865844727,
          1.356738567352295,
          0.059996843338012695,
          1.2585328817367554,
          1.1804076433181763,
          0.44204995036125183,
          -1.533136248588562,
          -1.1434746980667114,
          -1.1297383308410645,
          1.3526233434677124,
          1.1717383861541748,
          -1.5520414113998413,
          0.05530188977718353,
          1.5601917505264282,
          -0.6376826763153076,
          0.5457174181938171,
          0.10770095139741898,
          -0.6698712706565857,
          0.48883941769599915,
          -0.7843645215034485,
          -1.4082813262939453,
          -1.2476781606674194,
          -0.057799533009529114,
          -0.3323036730289459,
          -0.06140958145260811,
          -1.214627742767334,
          1.6728049516677856,
          -0.9245602488517761,
          -1.0260446071624756,
          -0.3432278335094452,
          0.45716893672943115,
          -0.4295114576816559,
          -0.9580467939376831,
          0.802045464515686,
          -1.1076877117156982,
          1.6523793935775757,
          -1.051027536392212,
          0.7179128527641296,
          -0.007086718454957008,
          -0.9910208582878113,
          -0.5338049530982971,
          0.3958878815174103,
          -1.500368595123291,
          -0.8062640428543091,
          -0.15617510676383972,
          0.14589664340019226,
          -0.1944565325975418,
          0.7661045789718628,
          -1.2453736066818237,
          0.48530077934265137,
          0.29622241854667664,
          1.0432132482528687,
          0.3281421959400177,
          0.9008373022079468
        ],
        [
          1.5052765607833862,
          -1.5011427402496338,
          0.500948965549469,
          1.261732578277588,
          -1.179461121559143,
          -0.16199366748332977,
          1.0521436929702759,
          1.9315972328186035,
          -1.1572309732437134,
          0.2150246798992157,
          -1.1353386640548706,
          -2.1329076290130615,
          0.7737098336219788,
          1.896050214767456,
          -1.4888299703598022,
          -0.23680534958839417,
          -1.156222939491272,
          -0.7107628583908081,
          -0.6437445282936096,
          0.15864810347557068,
          -2.292085647583008,
          -0.6311519145965576,
          0.7271921038627625,
          1.31397545337677,
          -0.6499378085136414,
          0.17053739726543427,
          -0.21383826434612274,
          2.10345721244812,
          0.2101394534111023,
          1.2747608423233032,
          1.4077494144439697,
          -0.12113092839717865,
          0.5645760297775269,
          0.5618419051170349,
          -0.7516051530838013,
          1.6025776863098145,
          0.015799174085259438,
          -0.7180197834968567,
          -1.5282979011535645,
          0.8778653144836426,
          -1.485034465789795,
          1.435875415802002,
          -1.5245649814605713,
          0.34174373745918274,
          -1.1021517515182495,
          -0.34597769379615784,
          1.1081072092056274,
          0.14865051209926605,
          -0.15717175602912903,
          -1.0795106887817383,
          1.325842261314392,
          0.6670287251472473,
          -0.6682429313659668,
          -0.12812478840351105,
          -0.5457992553710938,
          -0.8480290770530701,
          1.1640381813049316,
          0.45178377628326416,
