[
  {
    "biases": {
      "data": [
        [-0.121893972158432],
        [-0.1808924674987793],
        [0.7006247043609619],
        [0.9661369919776917],
        [-0.5664396286010742],
        [-0.603024959564209],
        [-0.18966171145439148],
        [-0.3823171854019165],
        [-0.12300409376621246],
        [-0.30638715624809265],
        [0.2385033816099167],
        [-0.03054359182715416],
        [-0.5453087687492371],
        [-0.004794224631041288],
        [-0.4625943601131439],
        [-0.3159642815589905],
        [-0.08721466362476349],
        [2.8825602531433105],
        [0.7908394932746887],
        [2.7408549785614014],
        [-0.0025978211779147387],
        [-0.3978884220123291],
        [0.01837359182536602],
        [-0.8500356674194336],
        [1.636070966720581],
        [-0.3925381600856781],
        [-0.48648902773857117],
        [-0.3319365084171295],
        [-0.777661144733429],
        [-0.13900995254516602],
        [0.22811312973499298],
        [-0.578265368938446],
        [3.5462825298309326],
        [-0.37510767579078674],
        [-0.2819666564464569],
        [0.06298942118883133],
        [-0.25931334495544434],
        [-0.10502279549837112],
        [0.4970901310443878],
        [0.08021701872348785],
        [-0.776577353477478],
        [-0.4307502210140228],
        [-0.015602811239659786],
        [-0.20566397905349731],
        [0.051310136914253235],
        [-0.006881897337734699],
        [-0.3252273201942444],
        [-0.548576295375824],
        [-0.05630616471171379],
        [-0.38049158453941345],
        [3.2403035163879395],
        [-0.06302199512720108],
        [-0.07767216861248016],
        [-0.4433108866214752],
        [-2.586915969848633],
        [1.291674017906189],
        [0.04629158228635788],
        [-0.340548574924469],
        [-0.37267830967903137],
        [0.014223048463463783],
        [-0.2042357474565506],
        [-0.576568603515625],
        [-0.5155766606330872],
        [-2.207979202270508]
      ],
      "rows": 64,
      "cols": 1
    },
    "bias": 1,
    "weights": {
      "data": [
        [
          1.5112574100494385,
          1.434863567352295
        ],
        [
          -0.21784824132919312,
          0.4103025794029236
        ],
        [
          0.46890202164649963,
          -0.6178222894668579
        ],
        [
          0.4526224434375763,
          -0.7085673213005066
        ],
        [
          0.720761775970459,
          0.665081262588501
        ],
        [
          0.6749906539916992,
          0.7137951850891113
        ],
        [
          0.6295620203018188,
          -0.18179145455360413
        ],
        [
          0.3486812710762024,
          0.4575313329696655
        ],
        [
          0.8984336256980896,
          0.09791043400764465
        ],
        [
          0.24208581447601318,
          -0.45601046085357666
        ],
        [
          -1.0104546546936035,
          0.7567263245582581
        ],
        [
          -0.42272454500198364,
          0.4599103629589081
        ],
        [
          0.029418913647532463,
          0.20046186447143555
        ],
        [
          -0.4210219085216522,
          0.4261205196380615
        ],
        [
          0.06987902522087097,
          -0.01439493428915739
        ],
        [
          0.018822884187102318,
          1.4158943891525269
        ],
        [
          2.07098126411438,
          -1.7872705459594727
        ],
        [
          -1.1380398273468018,
          -1.8657646179199219
        ],
        [
          0.46007829904556274,
          0.1343967616558075
        ],
        [
          -3.975738763809204,
          -1.2151795625686646
        ],
        [
          -0.42509713768959045,
          -0.24469807744026184
        ],
        [
          1.0062999725341797,
          0.4358394742012024
        ],
        [
          -0.3941473364830017,
          -0.2749112546443939
        ],
        [
          0.7560295462608337,
          1.0722527503967285
        ],
        [
          -0.390221506357193,
          1.5342282056808472
        ],
        [
          0.3271336257457733,
          -0.29533323645591736
        ],
        [
          0.49961328506469727,
          0.5786647200584412
        ],
        [
          0.8864151239395142,
          0.36064037680625916
        ],
        [
          -0.11165845394134521,
          -0.22310908138751984
        ],
        [
          -0.29324567317962646,
          0.14968885481357574
        ],
        [
          -0.8775991201400757,
          0.39783480763435364
        ],
        [
          0.5707619190216064,
          0.6893149614334106
        ],
        [
          -3.498324394226074,
          -3.6510305404663086
        ],
        [
          -0.17444495856761932,
          0.6120479106903076
        ],
        [
          -0.4659591317176819,
          0.7679440975189209
        ],
        [
          -0.1503470242023468,
          1.6231998205184937
        ],
        [
          -0.2776750922203064,
          0.5535526871681213
        ],
        [
          -0.1521836221218109,
          0.43408071994781494
        ],
        [
          0.41824647784233093,
          -0.637137770652771
        ],
        [
          -0.8510388731956482,
          -0.6110495924949646
        ],
        [
          0.7056107521057129,
          0.9295225143432617
        ],
        [
          0.11511370539665222,
          -0.007877645082771778
        ],
        [
          -0.6821386218070984,
          0.6987349390983582
        ],
        [
          -0.048821255564689636,
          -0.33225831389427185
        ],
        [
          -0.5476380586624146,
          -0.4951390027999878
        ],
        [
          -0.27681857347488403,
          0.2841392457485199
        ],
        [
          0.1133272722363472,
          -0.211979478597641
        ],
        [
          0.49355635046958923,
          -0.44231799244880676
        ],
        [
          -0.49199387431144714,
          0.555995762348175
        ],
        [
          -0.10899844020605087,
          0.281026154756546
        ],
        [
          -1.192392110824585,
          -3.6840386390686035
        ],
        [
          -1.7935874462127686,
          -0.23782524466514587
        ],
        [
          -0.4496142268180847,
          0.5355793237686157
        ],
        [
          0.6118330359458923,
          0.5175216794013977
        ],
        [
          2.009082078933716,
          0.6568402051925659
        ],
        [
          0.17216426134109497,
          1.1619901657104492
        ],
        [
          1.866077184677124,
          -1.9152781963348389
        ],
        [
          0.32053160667419434,
          0.4069248139858246
        ],
        [
          -1.1783368587493896,
          -1.0897867679595947
        ],
        [
          0.5717518329620361,
          -0.5869144201278687
        ],
        [
          0.06508824229240417,
          -0.33595848083496094
        ],
        [
          0.5220058560371399,
          0.6902400851249695
        ],
        [
          0.3140813708305359,
          -0.17964734137058258
        ],
        [
          1.0769087076187134,
          -0.7977064847946167
        ]
      ],
      "rows": 64,
      "cols": 2
    }
  },
  {
    "biases": {
      "data": [
        [0.3779098093509674],
        [0.11168940365314484]
      ],
      "rows": 2,
      "cols": 1
    },
    "bias": 1,
    "weights": {
      "data": [
        [
          -0.9384194016456604,
          -0.21967393159866333,
          -0.32302573323249817,
          -0.4326750636100769,
          0.2818835377693176,
          0.5806266069412231,
          0.4331795573234558,
          0.5035412311553955,
          0.29439109563827515,
          -0.27586016058921814,
          -0.40236207842826843,
          -0.5416590571403503,
          -0.3802931606769562,
          -0.10373736917972565,
          0.32194504141807556,
          0.13464078307151794,
          -0.9949067831039429,
          -2.7706003189086914,
          0.9347765445709229,
          -1.6761300563812256,
          0.3888089656829834,
          0.871406078338623,
          -0.3726981282234192,
          1.108609676361084,
          0.5572915077209473,
          -0.08474881947040558,
          0.867851972579956,
          0.6164456009864807,
          -0.381117045879364,
          -0.31982889771461487,
          0.17624841630458832,
          0.3573741316795349,
          3.014267683029175,
          -0.21812891960144043,
          -0.24105599522590637,
          -1.0997252464294434,
          0.0199471153318882,
          0.18550315499305725,
          0.8130560517311096,
          -0.4670441150665283,
          0.27921655774116516,
          0.626562774181366,
          -0.772145688533783,
          0.16428643465042114,
          -0.25991109013557434,
          -0.13664528727531433,
          0.01856285333633423,
          0.1812247782945633,
          -0.1400318592786789,
          -0.0599626861512661,
          1.621191143989563,
          0.2662598192691803,
          -0.15492984652519226,
          0.08023092895746231,
          -0.7733511328697205,
          0.8432638645172119,
          -3.2220382690429688,
          0.7795283794403076,
          0.7585291266441345,
          -0.41457486152648926,
          0.1336548924446106,
          0.9198400378227234,
          0.06291086226701736,
          1.4992117881774902
        ],
        [
          0.9405705332756042,
          0.04517442733049393,
          0.20290040969848633,
          0.3362678587436676,
          -0.3388374447822571,
          -0.7474462985992432,
          0.2681949734687805,
          -0.4128313958644867,
          -0.6520861387252808,
          -0.3814966082572937,
          1.2717421054840088,
          0.04761309176683426,
          -0.6882877349853516,
          0.4018774926662445,
          0.1238732784986496,
          0.377882719039917,
          0.9931548237800598,
          2.7925899028778076,
          -0.7328611612319946,
          1.6891283988952637,
          0.47513484954833984,
          -0.1393776834011078,
          -0.09245431423187256,
          -0.4197135865688324,
          -0.6912813186645508,
          -0.23893126845359802,
          -0.11848495155572891,
          -0.37321072816848755,
          0.6023536324501038,
          -0.3529556691646576,
          0.4252798855304718,
          -0.6980931758880615,
          -3.0160470008850098,
          -0.11427662521600723,
          0.49282073974609375,
          1.2308063507080078,
          0.25852200388908386,
          0.2724723219871521,
          -0.12926357984542847,
          0.1896316260099411,
          -1.1188491582870483,
          0.4292164742946625,
          0.04269913211464882,
          0.09312311559915543,
          0.42371439933776855,
          0.25028282403945923,
          -0.08651193231344223,
          0.13940900564193726,
          0.5300048589706421,
          -0.1848231703042984,
          -1.6189838647842407,
          -0.07705960422754288,
          0.38517001271247864,
          -0.2838517725467682,
          0.7663792371749878,
          -0.8993245959281921,
          2.099371910095215,
          -0.04494142904877663,
          -0.653326690196991,
          0.8981652855873108,
          0.09416686743497849,
          -0.4772888422012329,
          0.005415584426373243,
          -1.558145523071289
        ]
      ],
      "rows": 2,
      "cols": 64
    }
  }
]