{
  "fitness": 0,
  "layer1": {
    "gradients": {
      "data": [
        [0],
        [0],
        [0],
        [0],
        [0],
        [0],
        [0],
        [0]
      ],
      "rows": 8,
      "cols": 1
    },
    "bias": {
      "data": [
        [0.10128436982631683],
        [0.42949962615966797],
        [0.48459088802337646],
        [-0.05955870449542999],
        [0.20225143432617188],
        [-0.6780232191085815],
        [0.40756767988204956],
        [0.31114572286605835]
      ],
      "rows": 8,
      "cols": 1
    },
    "weights": {
      "data": [
        [
          -0.3454809784889221,
          0.07745763659477234,
          0.21241696178913116,
          0.24495822191238403,
          0.12841945886611938
        ],
        [
          -0.020440928637981415,
          -0.08144211769104004,
          0.5755196809768677,
          0.16263633966445923,
          0.5364295244216919
        ],
        [
          0.45822805166244507,
          -0.22813090682029724,
          0.26722800731658936,
          0.0825875774025917,
          0.28415822982788086
        ],
        [
          0.23361216485500336,
          -0.012024227529764175,
          0.07995358109474182,
          0.4019354581832886,
          0.10945721715688705
        ],
        [
          -0.169355571269989,
          -0.1898825317621231,
          -0.5127344727516174,
          0.8512111306190491,
          0.14650346338748932
        ],
        [
          -0.22416938841342926,
          0.07337944954633713,
          0.30745089054107666,
          -0.31806397438049316,
          0.21385473012924194
        ],
        [
          0.3690777122974396,
          -0.04095613956451416,
          0.01985892280936241,
          -0.024856364354491234,
          -0.4631173312664032
        ],
        [
          0.11723672598600388,
          -0.09864410758018494,
          0.3237362205982208,
          0.21990573406219482,
          -0.34912222623825073
        ]
      ],
      "rows": 8,
      "cols": 5
    }
  },
  "layer2": {
    "gradients": {
      "data": [
        [0],
        [0]
      ],
      "rows": 2,
      "cols": 1
    },
    "bias": {
      "data": [
        [0.06803205609321594],
        [0.12965889275074005]
      ],
      "rows": 2,
      "cols": 1
    },
    "weights": {
      "data": [
        [
          -0.28332826495170593,
          0.15161240100860596,
          0.6308306455612183,
          0.5377745032310486,
          0.2296532243490219,
          -0.2883850634098053,
          -0.08527807891368866,
          0.2546033561229706
        ],
        [
          -0.6899751424789429,
          0.02357330173254013,
          0.34666532278060913,
          -0.09266282618045807,
          -0.21327102184295654,
          -0.46869438886642456,
          -0.1810540407896042,
          0.7950003147125244
        ]
      ],
      "rows": 2,
      "cols": 8
    }
  },
  "epochs": 1
}