{
  "fitness": 0,
  "layer1": {
    "gradients": {
      "data": [
        [0],
        [0],
        [0],
        [0],
        [0],
        [0],
        [0],
        [0]
      ],
      "rows": 8,
      "cols": 1
    },
    "bias": {
      "data": [
        [0.08159026503562927],
        [0.2801400423049927],
        [0.28366395831108093],
        [0.09180448204278946],
        [0.1437481939792633],
        [-0.004578739404678345],
        [-0.07678629457950592],
        [-0.1487581878900528]
      ],
      "rows": 8,
      "cols": 1
    },
    "weights": {
      "data": [
        [
          -0.0548236221075058,
          0.27150923013687134,
          0.6978972554206848,
          -0.35113751888275146,
          -0.43723735213279724
        ],
        [
          0.06181604415178299,
          -0.37311530113220215,
          0.3975619971752167,
          -0.06282307207584381,
          0.10855299979448318
        ],
        [
          0.35734254121780396,
          0.23111389577388763,
          -0.11501588672399521,
          0.434773713350296,
          -0.2673893868923187
        ],
        [
          -0.40030643343925476,
          0.6221727132797241,
          0.1874110847711563,
          -0.6599196195602417,
          0.09467615187168121
        ],
        [
          -0.1708337962627411,
          -0.1563837230205536,
          0.0014669522643089294,
          -0.03707687556743622,
          -0.07645893841981888
        ],
        [
          0.0031064925715327263,
          0.19463345408439636,
          -0.05083763599395752,
          -0.21374595165252686,
          -0.3094444274902344
        ],
        [
          0.04544223099946976,
          0.08498192578554153,
          -0.16159039735794067,
          0.125248983502388,
          0.14199289679527283
        ],
        [
          -0.04521548002958298,
          0.3809722661972046,
          0.127948597073555,
          -0.10418366640806198,
          -0.3300081193447113
        ]
      ],
      "rows": 8,
      "cols": 5
    }
  },
  "layer2": {
    "gradients": {
      "data": [
        [0],
        [0]
      ],
      "rows": 2,
      "cols": 1
    },
    "bias": {
      "data": [
        [-0.31915509700775146],
        [-0.034844689071178436]
      ],
      "rows": 2,
      "cols": 1
    },
    "weights": {
      "data": [
        [
          -0.10047367960214615,
          0.7029727697372437,
          -0.2787731885910034,
          -0.4635276198387146,
          0.3306823968887329,
          -0.07728792726993561,
          -0.4976871907711029,
          -0.625944972038269
        ],
        [
          0.43115362524986267,
          -0.6997241973876953,
          0.3045247793197632,
          -0.416508287191391,
          0.17229244112968445,
          0.606887936592102,
          -0.41368651390075684,
          0.20626413822174072
        ]
      ],
      "rows": 2,
      "cols": 8
    }
  },
  "epochs": 1
}