{
  "fitness": 0,
  "layer1": {
    "gradients": {
      "data": [
        [0],
        [0],
        [0],
        [0],
        [0],
        [0],
        [0],
        [0]
      ],
      "rows": 8,
      "cols": 1
    },
    "bias": {
      "data": [
        [-0.058619387447834015],
        [-0.15557830035686493],
        [-0.26974254846572876],
        [0.09516317397356033],
        [-0.003702465444803238],
        [0.48587241768836975],
        [-0.0035998858511447906],
        [0.8228157758712769]
      ],
      "rows": 8,
      "cols": 1
    },
    "weights": {
      "data": [
        [
          -0.14917217195034027,
          0.28138020634651184,
          0.17934228479862213,
          -0.019578363746404648,
          -0.37556886672973633
        ],
        [
          0.16905342042446136,
          0.24567323923110962,
          -0.21866686642169952,
          0.16810965538024902,
          0.20724371075630188
        ],
        [
          -0.024976342916488647,
          -0.49810048937797546,
          -0.3968653380870819,
          -0.7142786979675293,
          0.8950292468070984
        ],
        [
          -0.11326621472835541,
          0.0798916220664978,
          -0.3209259808063507,
          0.4901798367500305,
          0.5166255235671997
        ],
        [
          0.531151294708252,
          0.8230569362640381,
          0.06186339259147644,
          0.18692746758460999,
          -1.234175205230713
        ],
        [
          -0.17395657300949097,
          0.5537062287330627,
          -0.4912843704223633,
          -0.15269255638122559,
          -0.3531607985496521
        ],
        [
          0.8791896104812622,
          -0.4784964323043823,
          0.14259830117225647,
          -0.16084355115890503,
          -0.40611693263053894
        ],
        [
          -0.16524538397789001,
          -0.2947581708431244,
          1.3358681201934814,
          -0.33619558811187744,
          -0.8419317603111267
        ]
      ],
      "rows": 8,
      "cols": 5
    }
  },
  "layer2": {
    "gradients": {
      "data": [
        [0],
        [0]
      ],
      "rows": 2,
      "cols": 1
    },
    "bias": {
      "data": [
        [0.45411795377731323],
        [0.1312057375907898]
      ],
      "rows": 2,
      "cols": 1
    },
    "weights": {
      "data": [
        [
          0.446714848279953,
          -0.12304751574993134,
          0.8504323363304138,
          0.26262256503105164,
          -0.8837882280349731,
          -0.4710264801979065,
          -0.1314942091703415,
          0.7127296924591064
        ],
        [
          1.0799217224121094,
          0.17408879101276398,
          0.5569518804550171,
          -0.5680670738220215,
          0.6139336228370667,
          0.5180212259292603,
          -0.9715401530265808,
          0.43466463685035706
        ]
      ],
      "rows": 2,
      "cols": 8
    }
  },
  "epochs": 1
}