{
  "fitness": 0,
  "layer1": {
    "gradients": {
      "data": [
        [0],
        [0],
        [0],
        [0],
        [0],
        [0],
        [0],
        [0]
      ],
      "rows": 8,
      "cols": 1
    },
    "bias": {
      "data": [
        [-0.18670369684696198],
        [-0.24510830640792847],
        [-0.3044792711734772],
        [-0.3772454559803009],
        [-0.13565489649772644],
        [0.09195782244205475],
        [0.5127075910568237],
        [-4.984652623534203E-4]
      ],
      "rows": 8,
      "cols": 1
    },
    "weights": {
      "data": [
        [
          0.2963206470012665,
          -0.18829262256622314,
          0.05227503180503845,
          0.30059441924095154,
          0.07841290533542633
        ],
        [
          0.0011911075562238693,
          -0.46703484654426575,
          0.22003725171089172,
          -0.1385548859834671,
          -0.4759979248046875
        ],
        [
          -0.05832964926958084,
          -0.4323040843009949,
          0.18079257011413574,
          0.3505680561065674,
          -0.050448816269636154
        ],
        [
          -0.3818548023700714,
          0.48985087871551514,
          0.12398330867290497,
          -0.060846585780382156,
          0.07726877182722092
        ],
        [
          -0.26174408197402954,
          0.044308386743068695,
          -0.1385004073381424,
          0.015565315261483192,
          0.33959439396858215
        ],
        [
          -0.1500396728515625,
          -0.6042879223823547,
          -0.23888686299324036,
          -0.3014441430568695,
          0.35749053955078125
        ],
        [
          0.17901208996772766,
          0.9218792915344238,
          -0.11635610461235046,
          0.3816424310207367,
          0.24445614218711853
        ],
        [
          0.33316606283187866,
          0.011914610862731934,
          0.2949589192867279,
          -0.008487258106470108,
          -0.055999770760536194
        ]
      ],
      "rows": 8,
      "cols": 5
    }
  },
  "layer2": {
    "gradients": {
      "data": [
        [0],
        [0]
      ],
      "rows": 2,
      "cols": 1
    },
    "bias": {
      "data": [
        [0.6271155476570129],
        [0.49099549651145935]
      ],
      "rows": 2,
      "cols": 1
    },
    "weights": {
      "data": [
        [
          0.11836065351963043,
          0.8290867209434509,
          1.0413892269134521,
          -0.35625460743904114,
          0.03256527706980705,
          0.5715827941894531,
          0.5451157093048096,
          -0.40752530097961426
        ],
        [
          -0.3429870009422302,
          0.9527151584625244,
          -0.8385345339775085,
          -0.011213801801204681,
          -0.26012489199638367,
          -0.0791877806186676,
          0.10835897922515869,
          -0.40492478013038635
        ]
      ],
      "rows": 2,
      "cols": 8
    }
  },
  "epochs": 1
}